{"train_loss": 0.04129510288875477, "_timestamp": 1725262877.0269241, "_runtime": 158.13128805160522, "_step": 835, "val_loss": 0.04375421886260693, "best_val_loss": 0.04320985093139685, "parameters/feed_forward.0.weight_ih_l0": {"_type": "histogram", "values": [1.0, 0.0, 0.0, 0.0, 1.0, 0.0, 1.0, 0.0, 0.0, 0.0, 1.0, 0.0, 0.0, 1.0, 0.0, 4.0, 4.0, 2.0, 3.0, 1.0, 3.0, 3.0, 7.0, 6.0, 7.0, 10.0, 2.0, 10.0, 9.0, 12.0, 9.0, 18.0, 13.0, 19.0, 11.0, 8.0, 17.0, 7.0, 14.0, 17.0, 12.0, 16.0, 7.0, 6.0, 5.0, 6.0, 6.0, 7.0, 8.0, 3.0, 3.0, 5.0, 1.0, 0.0, 1.0, 2.0, 1.0, 1.0, 2.0, 1.0, 0.0, 0.0, 0.0, 1.0], "bins": [-1.3095930814743042, -1.2725809812545776, -1.2355687618255615, -1.198556661605835, -1.1615444421768188, -1.1245323419570923, -1.0875202417373657, -1.0505080223083496, -1.013495922088623, -0.9764837622642517, -0.9394716024398804, -0.902459442615509, -0.8654472827911377, -0.8284351229667664, -0.7914230227470398, -0.7544108629226685, -0.7173987030982971, -0.6803865432739258, -0.6433743834495544, -0.6063622832298279, -0.5693501234054565, -0.5323379635810852, -0.49532580375671387, -0.4583136737346649, -0.4213015139102936, -0.38428935408592224, -0.3472772240638733, -0.31026506423950195, -0.2732529044151306, -0.23624077439308167, -0.19922861456871033, -0.16221646964550018, -0.12520432472229004, -0.0881921797990799, -0.051180027425289154, -0.014167878776788712, 0.02284426987171173, 0.05985641852021217, 0.09686856716871262, 0.13388071954250336, 0.1708928644657135, 0.20790500938892365, 0.2449171543121338, 0.2819293141365051, 0.31894147396087646, 0.3559536039829254, 0.39296576380729675, 0.4299778938293457, 0.46699005365371704, 0.5040022134780884, 0.5410143733024597, 0.5780264735221863, 0.6150386333465576, 0.652050793170929, 0.6890629529953003, 0.7260751128196716, 0.763087272644043, 0.8000993728637695, 0.8371115326881409, 0.8741236925125122, 0.9111358523368835, 0.9481480121612549, 0.9851601123809814, 1.0221723318099976, 1.0591844320297241]}, "parameters/feed_forward.0.weight_hh_l0": {"_type": "histogram", "values": [1.0, 0.0, 2.0, 1.0, 4.0, 4.0, 0.0, 2.0, 6.0, 12.0, 8.0, 11.0, 16.0, 9.0, 29.0, 25.0, 33.0, 20.0, 32.0, 35.0, 34.0, 36.0, 37.0, 32.0, 28.0, 31.0, 28.0, 29.0, 22.0, 21.0, 23.0, 20.0, 11.0, 18.0, 13.0, 11.0, 11.0, 5.0, 2.0, 5.0, 2.0, 1.0, 1.0, 0.0, 0.0, 2.0, 1.0, 0.0, 0.0, 0.0, 0.0, 0.0, 0.0, 0.0, 0.0, 0.0, 0.0, 0.0, 0.0, 0.0, 0.0, 0.0, 0.0, 1.0], "bins": [-0.7929627895355225, -0.7579910159111023, -0.7230192422866821, -0.688047468662262, -0.6530756950378418, -0.6181038618087769, -0.5831320881843567, -0.5481603145599365, -0.5131885409355164, -0.4782167673110962, -0.443244993686676, -0.40827319025993347, -0.3733014166355133, -0.33832964301109314, -0.3033578395843506, -0.2683860659599304, -0.23341429233551025, -0.1984425187110901, -0.16347073018550873, -0.12849894165992737, -0.0935271680355072, -0.05855538696050644, -0.023583605885505676, 0.011388175189495087, 0.04635995626449585, 0.08133173733949661, 0.11630351841449738, 0.15127530694007874, 0.1862470805644989, 0.22121885418891907, 0.2561906576156616, 0.2911624312400818, 0.3261343240737915, 0.36110609769821167, 0.39607787132263184, 0.4310496747493744, 0.46602144837379456, 0.5009932518005371, 0.5359650254249573, 0.5709367990493774, 0.6059085726737976, 0.6408803462982178, 0.6758521199226379, 0.7108238935470581, 0.745795726776123, 0.7807675004005432, 0.8157392740249634, 0.8507110476493835, 0.8856828212738037, 0.9206545948982239, 0.955626368522644, 0.9905981421470642, 1.0255699157714844, 1.0605417490005493, 1.0955134630203247, 1.1304852962493896, 1.165457010269165, 1.20042884349823, 1.235400676727295, 1.2703723907470703, 1.3053442239761353, 1.3403159379959106, 1.3752877712249756, 1.410259485244751, 1.445231318473816]}, "parameters/feed_forward.0.bias_ih_l0": {"_type": "histogram", "values": [1.0, 0.0, 0.0, 0.0, 0.0, 3.0, 0.0, 1.0, 0.0, 0.0, 1.0, 3.0, 0.0, 0.0, 3.0, 1.0, 0.0, 0.0, 4.0, 0.0, 0.0, 2.0, 0.0, 1.0, 1.0, 1.0, 0.0, 2.0, 1.0, 2.0, 1.0, 1.0, 0.0, 0.0, 0.0, 0.0, 3.0, 1.0, 1.0, 0.0, 1.0, 2.0, 1.0, 0.0, 0.0, 0.0, 0.0, 0.0, 0.0, 0.0, 2.0, 0.0, 0.0, 1.0, 1.0, 0.0, 0.0, 0.0, 1.0, 0.0, 0.0, 0.0, 1.0, 1.0], "bins": [-0.5899785757064819, -0.5761286616325378, -0.5622788071632385, -0.5484288930892944, -0.5345790386199951, -0.520729124546051, -0.5068792700767517, -0.49302938580513, -0.4791795015335083, -0.4653295874595642, -0.4514797031879425, -0.4376298189163208, -0.4237799346446991, -0.4099300503730774, -0.3960801661014557, -0.382230281829834, -0.3683803975582123, -0.3545305132865906, -0.34068062901496887, -0.32683074474334717, -0.31298086047172546, -0.29913097620010376, -0.28528109192848206, -0.27143120765686035, -0.25758129358291626, -0.24373142421245575, -0.22988153994083405, -0.21603165566921234, -0.20218175649642944, -0.18833187222480774, -0.17448198795318604, -0.16063210368156433, -0.14678224921226501, -0.1329323649406433, -0.1190824806690216, -0.1052325889468193, -0.0913827046751976, -0.0775328204035759, -0.0636829286813736, -0.04983304440975189, -0.03598316013813019, -0.022133274003863335, -0.008283387869596481, 0.005566498264670372, 0.019416384398937225, 0.03326626867055893, 0.04711615666747093, 0.060966044664382935, 0.07481592893600464, 0.08866581320762634, 0.10251569747924805, 0.11636558920145035, 0.13021546602249146, 0.14406536519527435, 0.15791524946689606, 0.17176513373851776, 0.18561501801013947, 0.19946490228176117, 0.21331478655338287, 0.22716467082500458, 0.24101456999778748, 0.2548644542694092, 0.2687143385410309, 0.2825642228126526, 0.2964141070842743]}, "parameters/feed_forward.0.bias_hh_l0": {"_type": "histogram", "values": [1.0, 0.0, 2.0, 0.0, 0.0, 1.0, 0.0, 0.0, 1.0, 0.0, 0.0, 1.0, 0.0, 1.0, 0.0, 0.0, 2.0, 0.0, 0.0, 1.0, 0.0, 2.0, 3.0, 1.0, 1.0, 0.0, 1.0, 2.0, 2.0, 0.0, 0.0, 0.0, 1.0, 1.0, 0.0, 0.0, 2.0, 3.0, 3.0, 1.0, 0.0, 0.0, 1.0, 0.0, 0.0, 0.0, 2.0, 0.0, 1.0, 0.0, 0.0, 0.0, 1.0, 2.0, 1.0, 1.0, 0.0, 0.0, 1.0, 0.0, 0.0, 0.0, 1.0, 1.0], "bins": [-0.6785761713981628, -0.664060115814209, -0.6495440602302551, -0.635028064250946, -0.6205120086669922, -0.6059959530830383, -0.5914798974990845, -0.5769639015197754, -0.5624478459358215, -0.5479317903518677, -0.5334157347679138, -0.51889967918396, -0.5043836832046509, -0.489867627620697, -0.47535157203674316, -0.4608355462551117, -0.44631949067115784, -0.431803435087204, -0.4172874093055725, -0.40277135372161865, -0.3882553279399872, -0.3737392723560333, -0.35922324657440186, -0.344707190990448, -0.33019113540649414, -0.31567510962486267, -0.3011590540409088, -0.28664302825927734, -0.2721269726753235, -0.257610946893692, -0.24309489130973816, -0.2285788506269455, -0.21406280994415283, -0.19954676926136017, -0.1850307285785675, -0.17051468789577484, -0.15599864721298218, -0.14148259162902832, -0.12696655094623566, -0.112450510263443, -0.09793446958065033, -0.08341842889785767, -0.068902388215065, -0.05438634008169174, -0.03987029939889908, -0.025354256853461266, -0.010838214308023453, 0.00367782823741436, 0.018193870782852173, 0.032709911465644836, 0.0472259558737278, 0.06174200028181076, 0.07625804096460342, 0.09077408164739609, 0.10529012978076935, 0.11980617046356201, 0.13432221114635468, 0.14883825182914734, 0.16335429251194, 0.17787033319473267, 0.19238638877868652, 0.2069024294614792, 0.22141847014427185, 0.23593451082706451, 0.2504505515098572]}, "parameters/feed_forward.0.weight_ih_l1": {"_type": "histogram", "values": [1.0, 1.0, 1.0, 3.0, 3.0, 5.0, 2.0, 2.0, 3.0, 10.0, 3.0, 3.0, 5.0, 12.0, 11.0, 15.0, 12.0, 16.0, 16.0, 15.0, 10.0, 25.0, 17.0, 37.0, 23.0, 24.0, 39.0, 28.0, 23.0, 27.0, 20.0, 35.0, 18.0, 24.0, 22.0, 23.0, 26.0, 13.0, 15.0, 7.0, 10.0, 11.0, 7.0, 12.0, 7.0, 5.0, 9.0, 0.0, 1.0, 2.0, 4.0, 5.0, 0.0, 2.0, 1.0, 0.0, 1.0, 1.0, 0.0, 0.0, 1.0, 0.0, 0.0, 1.0], "bins": [-0.8735218048095703, -0.8424577713012695, -0.811393678188324, -0.7803296446800232, -0.7492655515670776, -0.7182015180587769, -0.6871374845504761, -0.6560733914375305, -0.6250093579292297, -0.5939452648162842, -0.5628812313079834, -0.5318171977996826, -0.5007531046867371, -0.4696890413761139, -0.4386250078678131, -0.40756094455718994, -0.3764968812465668, -0.3454328179359436, -0.31436875462532043, -0.28330472111701965, -0.2522406578063965, -0.22117659449577332, -0.19011253118515015, -0.15904848277568817, -0.127984419465065, -0.09692036360502243, -0.06585630774497986, -0.03479224443435669, -0.0037281885743141174, 0.027335869148373604, 0.058399926871061325, 0.0894639864563942, 0.12052804231643677, 0.15159210562705994, 0.1826561540365219, 0.21372021734714508, 0.24478426575660706, 0.2758483290672302, 0.3069123923778534, 0.33797645568847656, 0.36904048919677734, 0.4001045525074005, 0.4311686158180237, 0.46223267912864685, 0.49329674243927, 0.5243607759475708, 0.5554248690605164, 0.5864889025688171, 0.6175529956817627, 0.6486170291900635, 0.6796810626983643, 0.7107451558113098, 0.7418091893196106, 0.7728732824325562, 0.8039373159408569, 0.8350013494491577, 0.8660654425621033, 0.897129476070404, 0.9281935691833496, 0.9592576026916504, 0.9903216361999512, 1.021385669708252, 1.0524498224258423, 1.083513855934143, 1.1145778894424438]}, "parameters/feed_forward.0.weight_hh_l1": {"_type": "histogram", "values": [1.0, 0.0, 0.0, 0.0, 0.0, 0.0, 0.0, 0.0, 0.0, 3.0, 0.0, 1.0, 1.0, 2.0, 2.0, 2.0, 2.0, 5.0, 4.0, 9.0, 7.0, 7.0, 14.0, 10.0, 16.0, 15.0, 25.0, 23.0, 34.0, 32.0, 24.0, 29.0, 31.0, 32.0, 39.0, 30.0, 34.0, 40.0, 26.0, 32.0, 31.0, 21.0, 14.0, 18.0, 15.0, 15.0, 2.0, 10.0, 2.0, 1.0, 3.0, 3.0, 0.0, 0.0, 0.0, 2.0, 1.0, 1.0, 0.0, 1.0, 0.0, 0.0, 0.0, 3.0], "bins": [-1.2450474500656128, -1.208111047744751, -1.1711747646331787, -1.134238362312317, -1.097301959991455, -1.0603656768798828, -1.023429274559021, -0.9864928722381592, -0.9495565295219421, -0.9126201868057251, -0.8756837844848633, -0.8387474417686462, -0.8018110990524292, -0.7648746967315674, -0.7279383540153503, -0.6910019516944885, -0.6540656089782715, -0.6171292662620544, -0.5801928639411926, -0.5432565212249756, -0.5063201189041138, -0.46938377618789673, -0.4324474334716797, -0.39551106095314026, -0.35857468843460083, -0.3216383159160614, -0.284701943397522, -0.24776560068130493, -0.2108292281627655, -0.17389285564422607, -0.13695649802684784, -0.10002013295888901, -0.06308376789093018, -0.026147402822971344, 0.010788962244987488, 0.04772532731294632, 0.08466169238090515, 0.12159805744886398, 0.15853442251682281, 0.19547078013420105, 0.23240715265274048, 0.2693435251712799, 0.30627989768981934, 0.3432162404060364, 0.3801526129245758, 0.41708898544311523, 0.4540253281593323, 0.4909617006778717, 0.5278980731964111, 0.5648344159126282, 0.60177081823349, 0.638707160949707, 0.6756435632705688, 0.7125799059867859, 0.7495162487030029, 0.7864526510238647, 0.8233889937400818, 0.8603253364562988, 0.8972617387771606, 0.9341980814933777, 0.9711344242095947, 1.0080708265304565, 1.0450072288513184, 1.0819435119628906, 1.1188799142837524]}, "parameters/feed_forward.0.bias_ih_l1": {"_type": "histogram", "values": [2.0, 0.0, 0.0, 0.0, 0.0, 0.0, 0.0, 0.0, 0.0, 3.0, 0.0, 0.0, 0.0, 0.0, 0.0, 1.0, 0.0, 0.0, 1.0, 0.0, 0.0, 0.0, 2.0, 1.0, 0.0, 0.0, 0.0, 1.0, 0.0, 1.0, 1.0, 0.0, 1.0, 2.0, 1.0, 0.0, 2.0, 3.0, 0.0, 1.0, 3.0, 1.0, 1.0, 1.0, 1.0, 1.0, 1.0, 2.0, 0.0, 1.0, 1.0, 1.0, 0.0, 2.0, 1.0, 0.0, 0.0, 1.0, 0.0, 0.0, 1.0, 1.0, 0.0, 2.0], "bins": [-0.6682934165000916, -0.6543666124343872, -0.6404397487640381, -0.6265129446983337, -0.6125861406326294, -0.5986592769622803, -0.5847324728965759, -0.5708056688308716, -0.5568788051605225, -0.5429520010948181, -0.5290251970291138, -0.5150983929634094, -0.5011715292930603, -0.48724472522735596, -0.4733178913593292, -0.4593910872936249, -0.44546425342559814, -0.4315374195575714, -0.41761061549186707, -0.40368378162384033, -0.389756977558136, -0.37583014369010925, -0.3619033098220825, -0.3479765057563782, -0.33404967188835144, -0.3201228380203247, -0.30619603395462036, -0.29226920008659363, -0.2783423662185669, -0.26441556215286255, -0.2504887282848358, -0.23656190931797028, -0.22263510525226593, -0.2087082862854004, -0.19478145241737366, -0.18085463345050812, -0.16692781448364258, -0.15300099551677704, -0.1390741765499115, -0.12514734268188477, -0.11122052371501923, -0.09729370474815369, -0.08336687833070755, -0.06944005191326141, -0.055513232946395874, -0.041586410254240036, -0.027659587562084198, -0.01373276486992836, 0.00019405782222747803, 0.014120880514383316, 0.028047703206539154, 0.04197452589869499, 0.05590134859085083, 0.06982816755771637, 0.0837549939751625, 0.09768182039260864, 0.11160863935947418, 0.12553545832633972, 0.13946229219436646, 0.153389111161232, 0.16731593012809753, 0.18124274909496307, 0.1951695680618286, 0.20909640192985535, 0.2230232208967209]}, "parameters/feed_forward.0.bias_hh_l1": {"_type": "histogram", "values": [1.0, 0.0, 0.0, 0.0, 0.0, 0.0, 0.0, 0.0, 0.0, 0.0, 1.0, 0.0, 0.0, 0.0, 2.0, 0.0, 0.0, 0.0, 0.0, 1.0, 0.0, 0.0, 0.0, 1.0, 1.0, 0.0, 0.0, 0.0, 1.0, 3.0, 1.0, 4.0, 1.0, 0.0, 1.0, 0.0, 1.0, 1.0, 0.0, 2.0, 2.0, 0.0, 3.0, 1.0, 1.0, 3.0, 1.0, 1.0, 1.0, 0.0, 1.0, 1.0, 0.0, 0.0, 1.0, 1.0, 1.0, 1.0, 0.0, 1.0, 1.0, 0.0, 0.0, 2.0], "bins": [-0.7587450742721558, -0.7430905699729919, -0.7274360656738281, -0.7117815613746643, -0.6961270570755005, -0.6804725527763367, -0.6648180484771729, -0.649163544178009, -0.6335090398788452, -0.6178545355796814, -0.6022000312805176, -0.5865455269813538, -0.5708910226821899, -0.5552365183830261, -0.5395820140838623, -0.5239275097846985, -0.5082730054855347, -0.49261853098869324, -0.4769640266895294, -0.4613095223903656, -0.4456550180912018, -0.43000051379203796, -0.41434600949287415, -0.3986915051937103, -0.3830370306968689, -0.3673825263977051, -0.35172802209854126, -0.33607351779937744, -0.3204190135002136, -0.3047645092010498, -0.289110004901886, -0.27345550060272217, -0.2578009366989136, -0.24214644730091095, -0.22649194300174713, -0.2108374387025833, -0.1951829493045807, -0.17952844500541687, -0.16387394070625305, -0.14821943640708923, -0.13256493210792542, -0.1169104278087616, -0.10125592350959778, -0.08560142666101456, -0.06994692236185074, -0.05429241806268692, -0.0386379174888134, -0.02298341505229473, -0.007328912615776062, 0.008325589820742607, 0.023980092257261276, 0.039634592831134796, 0.055289097130298615, 0.07094360142946243, 0.08659809827804565, 0.10225260257720947, 0.11790710687637329, 0.1335616111755371, 0.14921611547470093, 0.16487061977386475, 0.18052512407302856, 0.1961796134710312, 0.211834117770195, 0.22748862206935883, 0.24314312636852264]}, "parameters/feed_forward.0.weight_ih_l2": {"_type": "histogram", "values": [1.0, 0.0, 0.0, 1.0, 1.0, 1.0, 1.0, 2.0, 2.0, 1.0, 2.0, 2.0, 1.0, 1.0, 1.0, 2.0, 4.0, 6.0, 5.0, 6.0, 8.0, 10.0, 9.0, 8.0, 15.0, 17.0, 17.0, 17.0, 24.0, 23.0, 22.0, 38.0, 31.0, 36.0, 33.0, 39.0, 30.0, 29.0, 33.0, 30.0, 16.0, 15.0, 29.0, 22.0, 12.0, 10.0, 10.0, 5.0, 6.0, 8.0, 9.0, 7.0, 3.0, 1.0, 3.0, 0.0, 3.0, 0.0, 3.0, 1.0, 1.0, 1.0, 0.0, 1.0], "bins": [-1.0712851285934448, -1.0402547121047974, -1.00922429561615, -0.9781938791275024, -0.947163462638855, -0.9161330461502075, -0.8851026296615601, -0.8540722131729126, -0.8230417966842651, -0.7920113801956177, -0.7609809637069702, -0.7299505472183228, -0.6989201307296753, -0.6678897142410278, -0.6368592977523804, -0.6058288812637329, -0.5747984647750854, -0.5437679886817932, -0.5127375721931458, -0.4817071855068207, -0.4506767690181732, -0.41964635252952576, -0.3886159360408783, -0.35758551955223083, -0.326555073261261, -0.2955246567726135, -0.26449424028396606, -0.2334638386964798, -0.20243340730667114, -0.17140299081802368, -0.14037257432937622, -0.10934215784072876, -0.0783117413520813, -0.04728132486343384, -0.01625090464949608, 0.014779513701796532, 0.04580993205308914, 0.0768403485417366, 0.10787077248096466, 0.13890118896961212, 0.16993160545825958, 0.20096202194690704, 0.2319924384355545, 0.26302286982536316, 0.2940532863140106, 0.3250837028026581, 0.35611411929130554, 0.387144535779953, 0.41817495226860046, 0.4492053687572479, 0.4802357852458954, 0.5112662315368652, 0.5422966480255127, 0.5733270645141602, 0.6043574810028076, 0.6353878974914551, 0.6664183139801025, 0.69744873046875, 0.7284791469573975, 0.7595095634460449, 0.7905399799346924, 0.8215703964233398, 0.8526008129119873, 0.8836312294006348, 0.9146616458892822]}, "parameters/feed_forward.0.weight_hh_l2": {"_type": "histogram", "values": [1.0, 0.0, 0.0, 1.0, 1.0, 0.0, 0.0, 1.0, 1.0, 0.0, 1.0, 2.0, 3.0, 2.0, 5.0, 6.0, 4.0, 9.0, 6.0, 10.0, 15.0, 19.0, 15.0, 8.0, 24.0, 25.0, 27.0, 24.0, 22.0, 29.0, 40.0, 37.0, 34.0, 30.0, 35.0, 28.0, 23.0, 26.0, 16.0, 30.0, 16.0, 18.0, 9.0, 14.0, 8.0, 14.0, 5.0, 4.0, 8.0, 5.0, 1.0, 2.0, 2.0, 3.0, 1.0, 3.0, 0.0, 0.0, 1.0, 0.0, 0.0, 0.0, 0.0, 1.0], "bins": [-1.4416720867156982, -1.398481845855713, -1.3552916049957275, -1.3121012449264526, -1.2689110040664673, -1.225720763206482, -1.1825305223464966, -1.1393402814865112, -1.0961499214172363, -1.052959680557251, -1.0097694396972656, -0.9665791988372803, -0.9233889579772949, -0.8801986575126648, -0.8370084166526794, -0.7938181161880493, -0.750627875328064, -0.7074376344680786, -0.6642473340034485, -0.6210570931434631, -0.577866792678833, -0.5346765518188477, -0.4914863109588623, -0.44829604029655457, -0.4051057696342468, -0.3619154989719391, -0.31872522830963135, -0.275534987449646, -0.23234471678733826, -0.18915444612503052, -0.14596419036388397, -0.10277392715215683, -0.05958366394042969, -0.016393400728702545, 0.026796862483024597, 0.06998712569475174, 0.11317738890647888, 0.15636765956878662, 0.19955791532993317, 0.2427481710910797, 0.28593844175338745, 0.3291287124156952, 0.37231898307800293, 0.4155092239379883, 0.458699494600296, 0.5018897652626038, 0.5450800061225891, 0.5882703065872192, 0.6314605474472046, 0.6746507883071899, 0.7178410887718201, 0.7610313296318054, 0.8042216300964355, 0.8474118709564209, 0.8906021118164062, 0.9337924122810364, 0.9769826531410217, 1.0201729536056519, 1.0633631944656372, 1.1065534353256226, 1.149743676185608, 1.1929339170455933, 1.2361242771148682, 1.2793145179748535, 1.3225047588348389]}, "parameters/feed_forward.0.bias_ih_l2": {"_type": "histogram", "values": [1.0, 0.0, 0.0, 0.0, 0.0, 0.0, 0.0, 0.0, 0.0, 0.0, 0.0, 0.0, 0.0, 1.0, 2.0, 0.0, 0.0, 1.0, 0.0, 2.0, 0.0, 0.0, 0.0, 0.0, 0.0, 0.0, 0.0, 0.0, 0.0, 0.0, 1.0, 1.0, 0.0, 2.0, 1.0, 0.0, 1.0, 2.0, 2.0, 1.0, 2.0, 0.0, 1.0, 0.0, 1.0, 2.0, 3.0, 1.0, 0.0, 2.0, 3.0, 1.0, 0.0, 1.0, 0.0, 2.0, 1.0, 1.0, 1.0, 1.0, 1.0, 1.0, 0.0, 2.0], "bins": [-0.757500410079956, -0.7412523627281189, -0.725004255771637, -0.7087562084197998, -0.6925081014633179, -0.6762600541114807, -0.6600119471549988, -0.6437638998031616, -0.6275157928466797, -0.6112677454948425, -0.5950196981430054, -0.5787715911865234, -0.5625235438346863, -0.5462754368782043, -0.5300273895263672, -0.5137792825698853, -0.4975312352180481, -0.48128315806388855, -0.465035080909729, -0.44878700375556946, -0.4325389266014099, -0.41629087924957275, -0.4000428020954132, -0.38379472494125366, -0.3675466477870941, -0.35129857063293457, -0.335050493478775, -0.3188024163246155, -0.3025543689727783, -0.2863062918186188, -0.27005821466445923, -0.2538101375102997, -0.23756206035614014, -0.2213139832019806, -0.20506590604782104, -0.1888178437948227, -0.17256976664066315, -0.1563216894865036, -0.14007362723350525, -0.1238255500793457, -0.10757747292518616, -0.09132939577102661, -0.07508132606744766, -0.058833252638578415, -0.04258517920970917, -0.02633710578083992, -0.010089032351970673, 0.006159041076898575, 0.022407114505767822, 0.03865518793463707, 0.05490326136350632, 0.07115133106708527, 0.08739940822124481, 0.10364748537540436, 0.1198955550789833, 0.13614362478256226, 0.1523917019367218, 0.16863977909088135, 0.1848878562450409, 0.20113591849803925, 0.2173839956521988, 0.23363207280635834, 0.2498801350593567, 0.26612821221351624, 0.2823762893676758]}, "parameters/feed_forward.0.bias_hh_l2": {"_type": "histogram", "values": [1.0, 0.0, 0.0, 0.0, 0.0, 0.0, 0.0, 1.0, 0.0, 0.0, 1.0, 1.0, 0.0, 0.0, 0.0, 0.0, 0.0, 0.0, 0.0, 1.0, 0.0, 0.0, 0.0, 0.0, 1.0, 0.0, 1.0, 0.0, 1.0, 0.0, 0.0, 0.0, 2.0, 3.0, 2.0, 0.0, 0.0, 1.0, 2.0, 0.0, 2.0, 0.0, 1.0, 1.0, 1.0, 2.0, 2.0, 1.0, 1.0, 2.0, 0.0, 2.0, 3.0, 0.0, 0.0, 4.0, 1.0, 0.0, 1.0, 2.0, 0.0, 0.0, 0.0, 1.0], "bins": [-0.7608951330184937, -0.7443971037864685, -0.7278990745544434, -0.7114010453224182, -0.6949030160903931, -0.6784049868583679, -0.661906898021698, -0.6454088687896729, -0.6289108395576477, -0.6124128103256226, -0.5959147810935974, -0.5794167518615723, -0.5629187226295471, -0.546420693397522, -0.5299226641654968, -0.5134246349334717, -0.49692657589912415, -0.480428546667099, -0.46393051743507385, -0.4474324584007263, -0.43093442916870117, -0.414436399936676, -0.3979383707046509, -0.38144034147262573, -0.3649423122406006, -0.34844425320625305, -0.3319462239742279, -0.31544819474220276, -0.2989501655101776, -0.28245213627815247, -0.26595407724380493, -0.24945604801177979, -0.23295804858207703, -0.21646001935005188, -0.19996197521686554, -0.1834639459848404, -0.16696590185165405, -0.1504678726196289, -0.13396984338760376, -0.11747180670499802, -0.10097377002239227, -0.08447573333978653, -0.06797769665718079, -0.05147966742515564, -0.034981630742549896, -0.018483595922589302, -0.001985561102628708, 0.014512473717331886, 0.03101050853729248, 0.047508545219898224, 0.06400658190250397, 0.08050461113452911, 0.09700264781713486, 0.1135006844997406, 0.12999871373176575, 0.1464967578649521, 0.16299478709697723, 0.17949281632900238, 0.19599086046218872, 0.21248888969421387, 0.228986918926239, 0.24548496305942535, 0.2619830071926117, 0.27848103642463684, 0.294979065656662]}, "parameters/feed_forward.2.weight": {"_type": "histogram", "values": [1.0, 0.0, 0.0, 0.0, 0.0, 0.0, 1.0, 0.0, 1.0, 1.0, 0.0, 1.0, 1.0, 0.0, 4.0, 2.0, 4.0, 10.0, 8.0, 13.0, 24.0, 36.0, 43.0, 70.0, 129.0, 181.0, 232.0, 368.0, 529.0, 836.0, 1213.0, 1827.0, 2598.0, 3566.0, 4585.0, 5306.0, 5270.0, 4475.0, 3451.0, 2471.0, 1649.0, 1134.0, 755.0, 548.0, 307.0, 226.0, 146.0, 90.0, 62.0, 40.0, 27.0, 14.0, 14.0, 15.0, 3.0, 4.0, 1.0, 3.0, 2.0, 0.0, 0.0, 2.0, 0.0, 1.0], "bins": [-1.4108413457870483, -1.371612787246704, -1.3323842287063599, -1.2931557893753052, -1.253927230834961, -1.2146986722946167, -1.1754701137542725, -1.1362415552139282, -1.097012996673584, -1.0577845573425293, -1.018555998802185, -0.9793274402618408, -0.9400988817214966, -0.9008703827857971, -0.8616418242454529, -0.8224133253097534, -0.7831847667694092, -0.7439562082290649, -0.7047277092933655, -0.6654991507530212, -0.6262706518173218, -0.5870420932769775, -0.5478135347366333, -0.5085850358009338, -0.4693564772605896, -0.43012794852256775, -0.3908994197845459, -0.35167086124420166, -0.3124423325061798, -0.27321380376815796, -0.23398526012897491, -0.19475671648979187, -0.15552806854248047, -0.11629953235387802, -0.07707099616527557, -0.037842459976673126, 0.0013860762119293213, 0.04061461240053177, 0.07984314858913422, 0.11907168477773666, 0.1583002209663391, 0.19752874970436096, 0.236757293343544, 0.27598583698272705, 0.3152143657207489, 0.35444289445877075, 0.393671452999115, 0.43289998173713684, 0.4721285104751587, 0.5113570690155029, 0.5505855679512024, 0.5898141264915466, 0.6290426254272461, 0.6682711839675903, 0.7074997425079346, 0.746728241443634, 0.7859567999839783, 0.8251853585243225, 0.864413857460022, 0.9036424160003662, 0.9428709745407104, 0.9820994734764099, 1.0213279724121094, 1.0605565309524536, 1.0997850894927979]}, "parameters/feed_forward.2.bias": {"_type": "histogram", "values": [2.0, 2.0, 0.0, 1.0, 2.0, 1.0, 0.0, 1.0, 0.0, 3.0, 1.0, 0.0, 1.0, 2.0, 2.0, 0.0, 3.0, 2.0, 0.0, 2.0, 1.0, 0.0, 3.0, 2.0, 3.0, 1.0, 2.0, 4.0, 2.0, 3.0, 0.0, 1.0, 3.0, 5.0, 2.0, 6.0, 5.0, 3.0, 6.0, 3.0, 3.0, 5.0, 8.0, 9.0, 11.0, 9.0, 5.0, 9.0, 3.0, 6.0, 3.0, 3.0, 5.0, 3.0, 3.0, 6.0, 3.0, 4.0, 3.0, 2.0, 1.0, 1.0, 2.0, 1.0], "bins": [-0.5521594285964966, -0.5408689975738525, -0.5295785069465637, -0.5182880759239197, -0.5069976449012756, -0.4957071840763092, -0.4844167232513428, -0.47312626242637634, -0.4618358314037323, -0.45054537057876587, -0.43925490975379944, -0.4279644787311554, -0.41667401790618896, -0.40538355708122253, -0.3940931260585785, -0.38280266523361206, -0.371512234210968, -0.3602217733860016, -0.34893131256103516, -0.3376408815383911, -0.3263504207134247, -0.31505995988845825, -0.3037695288658142, -0.2924790680408478, -0.28118860721588135, -0.2698981761932373, -0.2586077153682709, -0.24731726944446564, -0.2360268086194992, -0.22473636269569397, -0.21344591677188873, -0.2021554559469223, -0.19086499512195587, -0.17957454919815063, -0.1682840883731842, -0.15699364244937897, -0.14570319652557373, -0.1344127357006073, -0.12312228977680206, -0.11183184385299683, -0.10054139047861099, -0.08925093710422516, -0.07796049118041992, -0.06667003780603409, -0.05537958815693855, -0.04408913850784302, -0.032798685133457184, -0.02150823548436165, -0.010217785835266113, 0.0010726647451519966, 0.012363115325570107, 0.02365356683731079, 0.034944016486406326, 0.04623446613550186, 0.057524919509887695, 0.06881536543369293, 0.08010581880807877, 0.0913962721824646, 0.10268671810626984, 0.11397717148065567, 0.1252676248550415, 0.13655807077884674, 0.14784851670265198, 0.1591389775276184, 0.17042942345142365]}, "parameters/feed_forward.4.weight": {"_type": "histogram", "values": [1.0, 0.0, 0.0, 0.0, 0.0, 0.0, 1.0, 0.0, 2.0, 0.0, 1.0, 1.0, 2.0, 3.0, 2.0, 5.0, 2.0, 7.0, 6.0, 15.0, 18.0, 18.0, 25.0, 35.0, 41.0, 69.0, 108.0, 159.0, 247.0, 426.0, 644.0, 1539.0, 4167.0, 8604.0, 9175.0, 5436.0, 2000.0, 841.0, 492.0, 349.0, 234.0, 191.0, 123.0, 101.0, 59.0, 48.0, 44.0, 29.0, 16.0, 21.0, 5.0, 7.0, 4.0, 8.0, 2.0, 3.0, 1.0, 3.0, 0.0, 0.0, 0.0, 1.0, 1.0, 2.0], "bins": [-1.2397503852844238, -1.2034227848052979, -1.1670953035354614, -1.1307677030563354, -1.094440221786499, -1.058112621307373, -1.021785020828247, -0.9854574799537659, -0.9491299390792847, -0.9128023982048035, -0.8764748573303223, -0.8401472568511963, -0.8038197159767151, -0.7674921751022339, -0.7311645746231079, -0.6948370337486267, -0.6585094928741455, -0.6221819519996643, -0.5858544111251831, -0.5495268106460571, -0.5131992697715759, -0.4768717288970947, -0.44054415822029114, -0.40421658754348755, -0.36788904666900635, -0.33156150579452515, -0.29523393511772156, -0.25890636444091797, -0.22257882356643677, -0.18625126779079437, -0.14992371201515198, -0.11359615623950958, -0.07726848125457764, -0.04094092547893524, -0.004613369703292847, 0.03171418607234955, 0.06804174184799194, 0.10436929762363434, 0.14069685339927673, 0.17702440917491913, 0.21335196495056152, 0.24967952072620392, 0.2860070765018463, 0.3223346471786499, 0.3586621880531311, 0.3949897289276123, 0.4313172996044159, 0.4676448702812195, 0.5039724111557007, 0.5402999520301819, 0.5766274929046631, 0.6129550933837891, 0.6492826342582703, 0.6856101751327515, 0.7219377756118774, 0.7582653164863586, 0.7945928573608398, 0.830920398235321, 0.8672479391098022, 0.9035755395889282, 0.9399030804634094, 0.9762306213378906, 1.0125582218170166, 1.048885703086853, 1.085213303565979]}, "parameters/feed_forward.4.bias": {"_type": "histogram", "values": [1.0, 0.0, 0.0, 3.0, 1.0, 0.0, 1.0, 2.0, 1.0, 0.0, 3.0, 0.0, 2.0, 2.0, 3.0, 1.0, 1.0, 0.0, 4.0, 4.0, 0.0, 2.0, 0.0, 2.0, 0.0, 0.0, 0.0, 0.0, 3.0, 0.0, 0.0, 2.0, 1.0, 2.0, 3.0, 1.0, 0.0, 3.0, 3.0, 4.0, 5.0, 4.0, 4.0, 10.0, 4.0, 8.0, 9.0, 8.0, 11.0, 7.0, 8.0, 8.0, 9.0, 11.0, 9.0, 2.0, 6.0, 3.0, 4.0, 1.0, 1.0, 0.0, 0.0, 1.0], "bins": [-0.4776715338230133, -0.4680703282356262, -0.45846912264823914, -0.44886794686317444, -0.43926674127578735, -0.42966553568840027, -0.4200643301010132, -0.4104631543159485, -0.4008619487285614, -0.3912607431411743, -0.38165953755378723, -0.37205833196640015, -0.36245715618133545, -0.35285595059394836, -0.3432547450065613, -0.3336535394191742, -0.3240523338317871, -0.3144511580467224, -0.3048499524593353, -0.29524874687194824, -0.28564754128456116, -0.27604636549949646, -0.2664451599121094, -0.2568439543247223, -0.2472427487373352, -0.23764155805110931, -0.22804035246372223, -0.21843916177749634, -0.20883795619010925, -0.19923676550388336, -0.18963555991649628, -0.18003436923027039, -0.1704331785440445, -0.1608319729566574, -0.15123078227043152, -0.14162957668304443, -0.13202838599681854, -0.12242718040943146, -0.11282598227262497, -0.10322478413581848, -0.093623585999012, -0.0840223878622055, -0.07442118972539902, -0.06481999158859253, -0.05521878972649574, -0.045617591589689255, -0.03601638972759247, -0.02641519159078598, -0.016813993453979492, -0.0072127943858504295, 0.002388404682278633, 0.011989603750407696, 0.02159080281853676, 0.031192000955343246, 0.04079320281744003, 0.05039440095424652, 0.05999559909105301, 0.0695967972278595, 0.07919799536466599, 0.08879919350147247, 0.09840039908885956, 0.10800159722566605, 0.11760279536247253, 0.12720398604869843, 0.1368051916360855]}, "parameters/feed_forward.6.guard_dense.weight": {"_type": "histogram", "values": [1.0, 0.0, 0.0, 0.0, 1.0, 1.0, 2.0, 3.0, 5.0, 1.0, 7.0, 7.0, 21.0, 36.0, 65.0, 76.0, 115.0, 581.0, 133.0, 77.0, 54.0, 24.0, 30.0, 23.0, 11.0, 9.0, 11.0, 9.0, 4.0, 2.0, 2.0, 1.0, 3.0, 0.0, 0.0, 0.0, 0.0, 0.0, 0.0, 0.0, 0.0, 0.0, 0.0, 0.0, 0.0, 0.0, 0.0, 0.0, 0.0, 0.0, 0.0, 0.0, 0.0, 0.0, 0.0, 0.0, 0.0, 0.0, 0.0, 0.0, 0.0, 0.0, 0.0, 1.0], "bins": [-1.6713298559188843, -1.5763229131698608, -1.481316089630127, -1.3863091468811035, -1.29130220413208, -1.1962953805923462, -1.1012884378433228, -1.0062814950942993, -0.9112746119499207, -0.816267728805542, -0.7212607860565186, -0.6262539029121399, -0.5312470197677612, -0.4362400770187378, -0.34123319387435913, -0.24622628092765808, -0.15121936798095703, -0.05621246248483658, 0.038794443011283875, 0.13380134105682373, 0.22880825400352478, 0.32381516695022583, 0.4188220500946045, 0.5138289928436279, 0.6088358759880066, 0.7038427591323853, 0.7988497018814087, 0.8938565850257874, 0.988863468170166, 1.0838704109191895, 1.178877353668213, 1.2738841772079468, 1.3688910007476807, 1.463897943496704, 1.558904767036438, 1.6539117097854614, 1.7489186525344849, 1.8439254760742188, 1.9389324188232422, 2.0339393615722656, 2.128946304321289, 2.2239532470703125, 2.318959951400757, 2.4139668941497803, 2.5089738368988037, 2.603980779647827, 2.6989877223968506, 2.793994665145874, 2.8890013694763184, 2.984008312225342, 3.0790152549743652, 3.1740221977233887, 3.269029140472412, 3.3640360832214355, 3.459043025970459, 3.5540497303009033, 3.6490566730499268, 3.74406361579895, 3.8390705585479736, 3.934077501296997, 4.029084205627441, 4.124091148376465, 4.219098091125488, 4.314105033874512, 4.409111976623535]}, "parameters/feed_forward.6.guard_dense.bias": {"_type": "histogram", "values": [1.0, 0.0, 1.0, 0.0, 0.0, 0.0, 0.0, 0.0, 0.0, 0.0, 0.0, 0.0, 0.0, 0.0, 0.0, 0.0, 0.0, 0.0, 0.0, 0.0, 0.0, 0.0, 0.0, 0.0, 0.0, 0.0, 0.0, 0.0, 0.0, 0.0, 0.0, 0.0, 0.0, 0.0, 0.0, 0.0, 0.0, 0.0, 0.0, 0.0, 0.0, 1.0, 0.0, 0.0, 0.0, 0.0, 0.0, 0.0, 1.0, 0.0, 0.0, 0.0, 0.0, 0.0, 1.0, 0.0, 0.0, 0.0, 1.0, 0.0, 0.0, 0.0, 0.0, 1.0], "bins": [-0.7066569328308105, -0.6891436576843262, -0.671630322933197, -0.6541170477867126, -0.6366037130355835, -0.6190904378890991, -0.6015771627426147, -0.5840638279914856, -0.5665505528450012, -0.5490372776985168, -0.5315239429473877, -0.5140106678009033, -0.49649736285209656, -0.4789840579032898, -0.4614707827568054, -0.44395747780799866, -0.4264441728591919, -0.40893086791038513, -0.39141756296157837, -0.373904287815094, -0.35639098286628723, -0.33887767791748047, -0.3213644027709961, -0.30385109782218933, -0.28633779287338257, -0.2688244879245758, -0.25131118297576904, -0.23379790782928467, -0.2162846028804779, -0.19877129793167114, -0.18125800788402557, -0.16374471783638, -0.14623147249221802, -0.12871816754341125, -0.11120487749576569, -0.09369157999753952, -0.07617828249931335, -0.05866498500108719, -0.04115168750286102, -0.023638390004634857, -0.006125092506408691, 0.011388204991817474, 0.02890150249004364, 0.046414799988269806, 0.06392809748649597, 0.08144139498472214, 0.0989546924829483, 0.11646798998117447, 0.13398128747940063, 0.1514945924282074, 0.16900788247585297, 0.18652117252349854, 0.2040344774723053, 0.22154778242111206, 0.23906107246875763, 0.2565743625164032, 0.27408766746520996, 0.2916009724140167, 0.3091142773628235, 0.32662755250930786, 0.3441408574581146, 0.3616541624069214, 0.37916743755340576, 0.3966807425022125, 0.4141940474510193]}, "gradients/feed_forward.6.guard_dense.bias": {"_type": "histogram", "values": [4.0, 1.0, 1.0, 0.0, 0.0, 0.0, 0.0, 0.0, 0.0, 0.0, 0.0, 0.0, 0.0, 0.0, 0.0, 0.0, 0.0, 0.0, 0.0, 0.0, 0.0, 0.0, 0.0, 0.0, 0.0, 0.0, 0.0, 0.0, 0.0, 0.0, 0.0, 0.0, 0.0, 0.0, 0.0, 0.0, 0.0, 0.0, 0.0, 0.0, 0.0, 0.0, 0.0, 0.0, 0.0, 0.0, 0.0, 0.0, 0.0, 0.0, 0.0, 0.0, 0.0, 0.0, 0.0, 0.0, 0.0, 0.0, 0.0, 0.0, 0.0, 0.0, 0.0, 1.0], "bins": [-3.039065404664143e-06, 0.0008913662168197334, 0.0017857715720310807, 0.002680176869034767, 0.0035745820496231318, 0.004468987230211496, 0.005363392643630505, 0.006257798057049513, 0.007152203470468521, 0.008046608418226242, 0.008941014297306538, 0.009835419245064259, 0.01072982419282198, 0.011624230071902275, 0.012518635019659996, 0.013413039967417717, 0.014307445846498013, 0.015201850794255733, 0.01609625667333603, 0.01699066162109375, 0.01788506656885147, 0.018779471516609192, 0.019673878327012062, 0.020568283274769783, 0.021462688222527504, 0.022357093170285225, 0.023251498118042946, 0.024145903065800667, 0.025040309876203537, 0.025934714823961258, 0.02682911977171898, 0.0277235247194767, 0.02861792966723442, 0.02951233461499214, 0.030406739562749863, 0.031301144510507584, 0.032195549458265305, 0.033089954406023026, 0.033984363079071045, 0.034878768026828766, 0.03577317297458649, 0.03666757792234421, 0.03756198287010193, 0.03845638781785965, 0.03935079276561737, 0.04024519771337509, 0.04113960266113281, 0.04203400760889053, 0.042928412556648254, 0.043822821229696274, 0.044717226177453995, 0.045611631125211716, 0.04650603607296944, 0.04740044102072716, 0.04829484596848488, 0.0491892509162426, 0.05008365586400032, 0.05097806081175804, 0.05187246575951576, 0.05276687443256378, 0.0536612793803215, 0.054555684328079224, 0.055450089275836945, 0.056344494223594666, 0.057238899171352386]}, "gradients/feed_forward.6.guard_dense.weight": {"_type": "histogram", "values": [14.0, 6.0, 10.0, 5.0, 4.0, 0.0, 2.0, 2.0, 4.0, 2.0, 0.0, 1.0, 3.0, 7.0, 15.0, 12.0, 13.0, 52.0, 1115.0, 20.0, 17.0, 4.0, 3.0, 0.0, 0.0, 1.0, 1.0, 0.0, 0.0, 0.0, 0.0, 0.0, 1.0, 0.0, 0.0, 0.0, 0.0, 0.0, 0.0, 0.0, 0.0, 0.0, 0.0, 0.0, 0.0, 0.0, 1.0, 0.0, 0.0, 0.0, 0.0, 0.0, 0.0, 0.0, 0.0, 0.0, 0.0, 0.0, 0.0, 0.0, 0.0, 0.0, 0.0, 1.0], "bins": [-0.017618436366319656, -0.016664622351527214, -0.01571081019937992, -0.014756997115910053, -0.013803184032440186, -0.012849370017647743, -0.011895556934177876, -0.010941743850708008, -0.00998793076723814, -0.009034117683768272, -0.008080304600298405, -0.00712649105116725, -0.006172677967697382, -0.005218864884227514, -0.004265051335096359, -0.0033112382516264915, -0.002357425168156624, -0.0014036119682714343, -0.0004497987683862448, 0.0005040144314989448, 0.0014578276313841343, 0.002411640714854002, 0.0033654540311545134, 0.004319267347455025, 0.005273080430924892, 0.00622689351439476, 0.007180706597864628, 0.008134519681334496, 0.009088333696126938, 0.010042146779596806, 0.010995959863066673, 0.011949772946536541, 0.012903586030006409, 0.013857399113476276, 0.014811212196946144, 0.015765026211738586, 0.01671883836388588, 0.017672652378678322, 0.018626464530825615, 0.019580278545618057, 0.02053409069776535, 0.021487904712557793, 0.022441718727350235, 0.023395530879497528, 0.02434934489428997, 0.025303157046437263, 0.026256971061229706, 0.027210783213377, 0.02816459722816944, 0.029118411242961884, 0.030072223395109177, 0.03102603740990162, 0.03197985142469406, 0.032933663576841354, 0.03388747572898865, 0.03484128788113594, 0.03579510375857353, 0.036748915910720825, 0.03770272806286812, 0.03865654394030571, 0.039610356092453, 0.040564168244600296, 0.04151798039674759, 0.04247179627418518, 0.043425608426332474]}, "gradients/feed_forward.4.bias": {"_type": "histogram", "values": [1.0, 0.0, 0.0, 0.0, 0.0, 0.0, 0.0, 0.0, 0.0, 0.0, 0.0, 1.0, 0.0, 0.0, 0.0, 0.0, 0.0, 0.0, 1.0, 2.0, 33.0, 90.0, 49.0, 5.0, 1.0, 2.0, 0.0, 2.0, 0.0, 0.0, 0.0, 0.0, 0.0, 0.0, 0.0, 0.0, 0.0, 0.0, 0.0, 0.0, 0.0, 0.0, 0.0, 0.0, 0.0, 0.0, 0.0, 0.0, 0.0, 0.0, 0.0, 0.0, 0.0, 0.0, 0.0, 0.0, 0.0, 0.0, 0.0, 0.0, 0.0, 0.0, 0.0, 1.0], "bins": [-0.0017751653213053942, -0.0016934333834797144, -0.0016117015620693564, -0.0015299696242436767, -0.0014482378028333187, -0.001366505865007639, -0.001284774043597281, -0.0012030421057716012, -0.0011213102843612432, -0.0010395783465355635, -0.0009578464669175446, -0.0008761145872995257, -0.000794382649473846, -0.0007126507698558271, -0.0006309188902378082, -0.0005491870106197894, -0.0004674551310017705, -0.00038572325138375163, -0.00030399137176573277, -0.00022225946304388344, -0.00014052758342586458, -5.87956965318881e-05, 2.2936190362088382e-05, 0.00010466807725606486, 0.00018639996415004134, 0.0002681318437680602, 0.0003498637233860791, 0.0004315956321079284, 0.0005133275408297777, 0.0005950594204477966, 0.0006767913000658154, 0.0007585231796838343, 0.0008402550593018532, 0.000921986938919872, 0.001003718818537891, 0.0010854507563635707, 0.0011671825777739286, 0.0012489145155996084, 0.0013306463370099664, 0.0014123782748356462, 0.001494110096246004, 0.0015758420340716839, 0.0016575739718973637, 0.0017393057933077216, 0.0018210377311334014, 0.0019027695525437593, 0.001984501490369439, 0.002066233428195119, 0.002147965133190155, 0.002229697071015835, 0.0023114290088415146, 0.0023931609466671944, 0.002474892884492874, 0.0025566245894879103, 0.00263835652731359, 0.00272008846513927, 0.0028018204029649496, 0.0028835523407906294, 0.0029652840457856655, 0.0030470159836113453, 0.003128747921437025, 0.003210479859262705, 0.003292211564257741, 0.0033739435020834208, 0.0034556754399091005]}, "gradients/feed_forward.4.weight": {"_type": "histogram", "values": [1.0, 0.0, 0.0, 0.0, 0.0, 1.0, 0.0, 0.0, 0.0, 0.0, 0.0, 0.0, 7.0, 14.0, 23.0, 13.0, 9.0, 19.0, 13.0, 12.0, 33.0, 121.0, 3191.0, 31584.0, 126.0, 62.0, 34.0, 38.0, 28.0, 2.0, 1.0, 3.0, 4.0, 1.0, 0.0, 0.0, 0.0, 2.0, 0.0, 0.0, 0.0, 0.0, 0.0, 0.0, 0.0, 0.0, 0.0, 0.0, 0.0, 0.0, 0.0, 0.0, 0.0, 1.0, 0.0, 0.0, 0.0, 0.0, 0.0, 0.0, 0.0, 0.0, 0.0, 1.0], "bins": [-0.002339566359296441, -0.002238419372588396, -0.002137272385880351, -0.002036125399172306, -0.001934978412464261, -0.001833831425756216, -0.001732684439048171, -0.001631537452340126, -0.001530390465632081, -0.001429243478924036, -0.001328096492215991, -0.001226949505507946, -0.001125802518799901, -0.001024655532091856, -0.000923508545383811, -0.000822361558675766, -0.000721214571967721, -0.000620067585259676, -0.000518920598551631, -0.00041777361184358597, -0.00031662662513554096, -0.00021547963842749596, -0.00011433265171945095, -1.3185665011405945e-05, 8.796132169663906e-05, 0.00018910830840468407, 0.00029025529511272907, 0.0003914022818207741, 0.0004925492685288191, 0.0005936962552368641, 0.0006948432419449091, 0.0007959902286529541, 0.0008971374481916428, 0.0009982844348996878, 0.0010994314216077328, 0.0012005784083157778, 0.0013017253950238228, 0.0014028723817318678, 0.0015040193684399128, 0.0016051663551479578, 0.0017063133418560028, 0.0018074603285640478, 0.0019086073152720928, 0.002009754301980138, 0.002110901288688183, 0.002212048275396228, 0.002313195262104273, 0.002414342248812318, 0.002515489235520363, 0.002616636222228408, 0.002717783208936453, 0.002818930195644498, 0.002920077182352543, 0.003021224169060588, 0.003122371155768633, 0.003223518142476678, 0.003324665129184723, 0.003425812115892768, 0.003526959102600813, 0.003628106089308858, 0.003729253076016903, 0.003830400062724948, 0.003931547049432993, 0.004032693803310394, 0.004133841022849083]}, "gradients/feed_forward.2.bias": {"_type": "histogram", "values": [1.0, 0.0, 0.0, 1.0, 0.0, 0.0, 0.0, 0.0, 0.0, 0.0, 0.0, 0.0, 0.0, 0.0, 1.0, 0.0, 0.0, 0.0, 0.0, 1.0, 2.0, 1.0, 1.0, 0.0, 1.0, 1.0, 0.0, 1.0, 1.0, 4.0, 1.0, 5.0, 7.0, 11.0, 17.0, 18.0, 22.0, 28.0, 17.0, 17.0, 11.0, 6.0, 4.0, 1.0, 2.0, 0.0, 0.0, 1.0, 0.0, 0.0, 1.0, 0.0, 0.0, 0.0, 0.0, 0.0, 0.0, 1.0, 0.0, 1.0, 0.0, 0.0, 0.0, 1.0], "bins": [-0.0013159725349396467, -0.0012803516583517194, -0.0012447308981791139, -0.0012091100215911865, -0.0011734891450032592, -0.0011378683848306537, -0.0011022475082427263, -0.001066626631654799, -0.0010310058714821935, -0.0009953849948942661, -0.0009597641765139997, -0.0009241433581337333, -0.0008885224815458059, -0.0008529016631655395, -0.0008172808447852731, -0.0007816599681973457, -0.0007460391498170793, -0.0007104183314368129, -0.0006747974548488855, -0.0006391766364686191, -0.0006035558180883527, -0.0005679349415004253, -0.0005323141231201589, -0.0004966933047398925, -0.0004610724572557956, -0.0004254516097716987, -0.0003898307913914323, -0.0003542099439073354, -0.0003185890964232385, -0.0002829682780429721, -0.0002473474305588752, -0.00021172659762669355, -0.0001761058229021728, -0.00014048498996999115, -0.00010486414976185188, -6.92433095537126e-05, -3.362247662153095e-05, 1.9983599486295134e-06, 3.761919651878998e-05, 7.324003672692925e-05, 0.0001088608696591109, 0.00014448170259129256, 0.00018010253552347422, 0.0002157233830075711, 0.000251344230491668, 0.0002869650488719344, 0.0003225858963560313, 0.0003582067147362977, 0.0003938275622203946, 0.0004294484097044915, 0.0004650692280847579, 0.0005006900755688548, 0.0005363108939491212, 0.0005719317705370486, 0.000607552588917315, 0.0006431734072975814, 0.0006787942256778479, 0.0007144151022657752, 0.0007500359206460416, 0.0007856567390263081, 0.0008212776156142354, 0.0008568984339945018, 0.0008925192523747683, 0.0009281401289626956, 0.000963760947342962]}, "gradients/feed_forward.2.weight": {"_type": "histogram", "values": [2.0, 1.0, 2.0, 3.0, 1.0, 2.0, 3.0, 3.0, 5.0, 7.0, 4.0, 6.0, 12.0, 15.0, 16.0, 31.0, 32.0, 52.0, 66.0, 81.0, 134.0, 199.0, 344.0, 776.0, 2421.0, 13507.0, 19484.0, 2970.0, 906.0, 415.0, 253.0, 142.0, 104.0, 71.0, 56.0, 36.0, 21.0, 21.0, 23.0, 16.0, 14.0, 11.0, 6.0, 6.0, 5.0, 3.0, 0.0, 1.0, 3.0, 1.0, 1.0, 2.0, 0.0, 0.0, 0.0, 0.0, 0.0, 1.0, 0.0, 0.0, 2.0, 0.0, 0.0, 1.0], "bins": [-0.00047957085189409554, -0.0004611766489688307, -0.0004427824751473963, -0.0004243882722221315, -0.00040599406929686666, -0.0003875998954754323, -0.00036920569255016744, -0.0003508114896249026, -0.00033241731580346823, -0.0003140231128782034, -0.00029562890995293856, -0.0002772347070276737, -0.00025884053320623934, -0.0002404463302809745, -0.0002220521419076249, -0.00020365793898236006, -0.00018526375060901046, -0.00016686956223566085, -0.00014847535931039602, -0.0001300811709370464, -0.00011168697528773919, -9.329277963843197e-05, -7.489859126508236e-05, -5.650439561577514e-05, -3.811019996646792e-05, -1.97160061361501e-05, -1.3218123058322817e-06, 1.7072381524485536e-05, 3.5466575354803354e-05, 5.3860771004110575e-05, 7.225495937746018e-05, 9.06491550267674e-05, 0.00010904337977990508, 0.0001274375681532547, 0.00014583177107851952, 0.00016422595945186913, 0.00018262016237713397, 0.00020101435075048357, 0.00021940853912383318, 0.00023780274204909801, 0.00025619694497436285, 0.00027459111879579723, 0.00029298532172106206, 0.0003113795246463269, 0.0003297736984677613, 0.0003481679013930261, 0.00036656210431829095, 0.00038495627813972533, 0.00040335048106499016, 0.000421744683990255, 0.0004401388578116894, 0.0004585330607369542, 0.00047692726366221905, 0.0004953214665874839, 0.0005137156695127487, 0.0005321098142303526, 0.0005505040171556175, 0.0005688982200808823, 0.0005872924230061471, 0.000605686625931412, 0.0006240808288566768, 0.0006424749735742807, 0.0006608691764995456, 0.0006792633794248104, 0.0006976575823500752]}, "gradients/feed_forward.0.weight_ih_l0": {"_type": "histogram", "values": [1.0, 2.0, 0.0, 0.0, 0.0, 0.0, 0.0, 0.0, 0.0, 0.0, 1.0, 1.0, 0.0, 0.0, 1.0, 0.0, 0.0, 0.0, 1.0, 0.0, 1.0, 0.0, 2.0, 1.0, 5.0, 5.0, 1.0, 2.0, 2.0, 4.0, 2.0, 3.0, 5.0, 2.0, 6.0, 4.0, 14.0, 27.0, 89.0, 61.0, 23.0, 10.0, 7.0, 2.0, 4.0, 2.0, 1.0, 4.0, 2.0, 3.0, 3.0, 2.0, 1.0, 0.0, 0.0, 1.0, 4.0, 1.0, 0.0, 1.0, 0.0, 0.0, 0.0, 1.0], "bins": [-0.0031082103960216045, -0.0030281697399914265, -0.002948129316791892, -0.002868088660761714, -0.0027880482375621796, -0.0027080075815320015, -0.002627967158332467, -0.002547926502302289, -0.0024678860791027546, -0.0023878454230725765, -0.0023078047670423985, -0.002227764343842864, -0.002147723687812686, -0.0020676832646131516, -0.0019876426085829735, -0.0019076020689681172, -0.001827561529353261, -0.0017475209897384048, -0.0016674804501235485, -0.0015874399105086923, -0.001507399370893836, -0.001427358714863658, -0.0013473181752488017, -0.0012672776356339455, -0.0011872370960190892, -0.001107196556404233, -0.0010271560167893767, -0.0009471154189668596, -0.0008670748793520033, -0.0007870343397371471, -0.0007069937419146299, -0.0006269532022997737, -0.0005469124298542738, -0.00046687189023941755, -0.00038683132152073085, -0.00030679075280204415, -0.0002267502131871879, -0.00014670965902041644, -6.666910485364497e-05, 1.3371449313126504e-05, 9.341200347989798e-05, 0.00017345255764666945, 0.0002534931118134409, 0.0003335336805321276, 0.00041357422014698386, 0.0004936147597618401, 0.0005736553575843573, 0.0006536958971992135, 0.0007337364368140697, 0.000813776976428926, 0.0008938175160437822, 0.0009738581138662994, 0.0010538985952734947, 0.0011339392513036728, 0.001213979790918529, 0.0012940203305333853, 0.0013740608701482415, 0.0014541014097630978, 0.001534141949377954, 0.0016141824889928102, 0.0016942231450229883, 0.0017742636846378446, 0.0018543042242527008, 0.001934344763867557, 0.0020143853034824133]}, "gradients/feed_forward.0.bias_ih_l0": {"_type": "histogram", "values": [1.0, 0.0, 0.0, 0.0, 0.0, 0.0, 0.0, 0.0, 0.0, 0.0, 0.0, 1.0, 0.0, 0.0, 0.0, 0.0, 0.0, 0.0, 0.0, 1.0, 0.0, 0.0, 0.0, 1.0, 0.0, 1.0, 0.0, 1.0, 0.0, 1.0, 0.0, 2.0, 1.0, 0.0, 2.0, 7.0, 5.0, 5.0, 5.0, 1.0, 1.0, 3.0, 1.0, 1.0, 1.0, 0.0, 0.0, 0.0, 0.0, 1.0, 1.0, 0.0, 0.0, 0.0, 0.0, 0.0, 0.0, 0.0, 0.0, 0.0, 0.0, 0.0, 0.0, 1.0], "bins": [-0.0013975889887660742, -0.0013586214045062661, -0.0013196539366617799, -0.0012806863524019718, -0.0012417188845574856, -0.0012027513002976775, -0.0011637837160378695, -0.0011248162481933832, -0.0010858486639335752, -0.001046881196089089, -0.0010079136118292809, -0.0009689460857771337, -0.0009299785597249866, -0.0008910110336728394, -0.0008520434494130313, -0.0008130759233608842, -0.000774108397308737, -0.0007351408712565899, -0.0006961733452044427, -0.0006572057609446347, -0.0006182382348924875, -0.0005792707088403404, -0.0005403031827881932, -0.0005013356567360461, -0.00046236810158006847, -0.0004234005755279213, -0.0003844330203719437, -0.00034546549431979656, -0.0003064979682676494, -0.0002675304131116718, -0.00022856288705952466, -0.00018959534645546228, -0.0001506278058513999, -0.00011166026524733752, -7.269273191923276e-05, -3.3725194953149185e-05, 5.242342012934387e-06, 4.420987897901796e-05, 8.317741594510153e-05, 0.0001221449492732063, 0.00016111248987726867, 0.00020008003048133105, 0.00023904757108539343, 0.0002780150971375406, 0.00031698262318968773, 0.00035595017834566534, 0.0003949177043978125, 0.0004338852595537901, 0.00047285278560593724, 0.0005118203116580844, 0.0005507878377102315, 0.0005897554219700396, 0.0006287229480221868, 0.0006676904740743339, 0.0007066580001264811, 0.0007456255261786282, 0.0007845930522307754, 0.0008235606364905834, 0.0008625281625427306, 0.0009014956885948777, 0.0009404632146470249, 0.000979430740699172, 0.00101839832495898, 0.0010573657928034663, 0.0010963333770632744]}, "gradients/feed_forward.0.bias_ih_l1": {"_type": "histogram", "values": [1.0, 0.0, 0.0, 0.0, 0.0, 0.0, 0.0, 0.0, 0.0, 0.0, 0.0, 0.0, 0.0, 1.0, 0.0, 0.0, 0.0, 0.0, 0.0, 0.0, 0.0, 0.0, 1.0, 0.0, 0.0, 0.0, 1.0, 0.0, 1.0, 0.0, 0.0, 0.0, 1.0, 3.0, 5.0, 4.0, 5.0, 7.0, 3.0, 2.0, 2.0, 1.0, 1.0, 0.0, 0.0, 1.0, 0.0, 0.0, 1.0, 0.0, 0.0, 0.0, 1.0, 0.0, 0.0, 0.0, 0.0, 0.0, 0.0, 0.0, 0.0, 0.0, 2.0, 1.0], "bins": [-0.002005822490900755, -0.0019508885452523828, -0.0018959544831886888, -0.0018410205375403166, -0.0017860865918919444, -0.0017311525298282504, -0.0016762185841798782, -0.001621284638531506, -0.0015663506928831339, -0.0015114166308194399, -0.0014564826851710677, -0.0014015487395226955, -0.0013466146774590015, -0.0012916807318106294, -0.0012367467861622572, -0.0011818127240985632, -0.001126878778450191, -0.0010719448328018188, -0.0010170107707381248, -0.0009620768250897527, -0.0009071428794413805, -0.0008522088755853474, -0.0007972748717293143, -0.0007423409260809422, -0.0006874069222249091, -0.000632472918368876, -0.0005775389727205038, -0.0005226049688644707, -0.0004676709941122681, -0.00041273701936006546, -0.0003578030155040324, -0.00030286904075182974, -0.0002479350659996271, -0.00019300109124742448, -0.00013806710194330662, -8.313311991514638e-05, -2.8199137886986136e-05, 2.6734844141174108e-05, 8.166882616933435e-05, 0.0001366028154734522, 0.00019153679022565484, 0.00024647076497785747, 0.0003014047397300601, 0.0003563387435860932, 0.0004112727183382958, 0.00046620669309049845, 0.0005211406969465315, 0.0005760746425949037, 0.0006310086464509368, 0.0006859426503069699, 0.0007408765959553421, 0.0007958105998113751, 0.0008507445454597473, 0.0009056785493157804, 0.0009606125531718135, 0.0010155464988201857, 0.0010704805608838797, 0.0011254145065322518, 0.001180348452180624, 0.0012352823978289962, 0.0012902164598926902, 0.0013451504055410624, 0.0014000843511894345, 0.0014550184132531285, 0.0015099523589015007]}, "gradients/feed_forward.0.bias_hh_l2": {"_type": "histogram", "values": [1.0, 0.0, 0.0, 0.0, 0.0, 0.0, 0.0, 0.0, 0.0, 0.0, 0.0, 0.0, 0.0, 0.0, 0.0, 0.0, 0.0, 0.0, 0.0, 0.0, 0.0, 0.0, 0.0, 0.0, 0.0, 0.0, 0.0, 0.0, 0.0, 0.0, 0.0, 0.0, 0.0, 0.0, 0.0, 1.0, 0.0, 0.0, 0.0, 0.0, 0.0, 0.0, 0.0, 0.0, 0.0, 0.0, 1.0, 1.0, 0.0, 0.0, 2.0, 2.0, 4.0, 1.0, 5.0, 8.0, 7.0, 6.0, 2.0, 1.0, 0.0, 1.0, 0.0, 2.0], "bins": [-0.004587123636156321, -0.004503684584051371, -0.004420245531946421, -0.004336806479841471, -0.004253367427736521, -0.004169928375631571, -0.004086489323526621, -0.004003049805760384, -0.003919610753655434, -0.0038361719343811274, -0.0037527326494455338, -0.003669293597340584, -0.003585854545235634, -0.003502415493130684, -0.003418976441025734, -0.003335537388920784, -0.003252098336815834, -0.0031686590518802404, -0.0030852199997752905, -0.0030017809476703405, -0.0029183418955653906, -0.0028349028434604406, -0.0027514637913554907, -0.002668024506419897, -0.002584585454314947, -0.002501146402209997, -0.0024177073501050472, -0.0023342682980000973, -0.0022508292458951473, -0.0021673899609595537, -0.0020839509088546038, -0.002000511856749654, -0.001917072688229382, -0.001833633636124432, -0.0017501944676041603, -0.0016667554154992104, -0.0015833163633942604, -0.0014998771948739886, -0.0014164381427690387, -0.0013329990906640887, -0.001249559922143817, -0.001166120870038867, -0.001082681817933917, -0.000999242765828967, -0.0009158035973086953, -0.0008323645452037454, -0.0007489254348911345, -0.0006654863827861845, -0.0005820472724735737, -0.0004986081621609628, -0.00041516911005601287, -0.000331729999743402, -0.0002482909185346216, -0.0001648518373258412, -8.141274156514555e-05, 2.02634691959247e-06, 8.546543540433049e-05, 0.0001689045166131109, 0.0002523435978218913, 0.00033578270813450217, 0.0004192217893432826, 0.000502660870552063, 0.0005860999808646739, 0.0006695390329696238, 0.0007529781432822347]}, "gradients/feed_forward.0.bias_ih_l2": {"_type": "histogram", "values": [1.0, 0.0, 0.0, 0.0, 0.0, 0.0, 0.0, 0.0, 0.0, 0.0, 0.0, 0.0, 0.0, 0.0, 0.0, 0.0, 0.0, 0.0, 0.0, 0.0, 0.0, 0.0, 0.0, 0.0, 0.0, 0.0, 0.0, 0.0, 0.0, 0.0, 0.0, 0.0, 1.0, 0.0, 0.0, 1.0, 0.0, 0.0, 0.0, 0.0, 0.0, 0.0, 0.0, 0.0, 0.0, 0.0, 0.0, 2.0, 1.0, 0.0, 0.0, 2.0, 0.0, 1.0, 2.0, 1.0, 9.0, 13.0, 6.0, 1.0, 0.0, 1.0, 1.0, 2.0], "bins": [-0.008091927506029606, -0.007949518039822578, -0.007807109039276838, -0.007664700038731098, -0.007522290572524071, -0.007379881571978331, -0.007237472105771303, -0.007095063105225563, -0.006952653639018536, -0.0068102446384727955, -0.006667835172265768, -0.006525426171720028, -0.0063830167055130005, -0.00624060770496726, -0.006098198238760233, -0.005955789238214493, -0.005813379772007465, -0.005670970771461725, -0.005528561770915985, -0.005386152304708958, -0.0052437433041632175, -0.00510133383795619, -0.00495892483741045, -0.0048165153712034225, -0.004674106370657682, -0.004531696904450655, -0.004389287903904915, -0.004246878437697887, -0.004104469437152147, -0.00396205997094512, -0.0038196509703993797, -0.003677241737022996, -0.003534832503646612, -0.0033924232702702284, -0.0032500140368938446, -0.003107604803517461, -0.002965195570141077, -0.0028227863367646933, -0.0026803771033883095, -0.0025379678700119257, -0.002395558636635542, -0.002253149403259158, -0.0021107401698827744, -0.0019683309365063906, -0.0018259217031300068, -0.0016835125861689448, -0.001541103352792561, -0.0013986941194161773, -0.0012562848860397935, -0.0011138756526634097, -0.0009714664192870259, -0.0008290572441183031, -0.0006866480107419193, -0.0005442387773655355, -0.0004018295730929822, -0.00025942036882042885, -0.00011701113544404507, 2.5398083380423486e-05, 0.00016780730220489204, 0.00031021650647744536, 0.00045262573985382915, 0.0005950349732302129, 0.0007374441483989358, 0.0008798533817753196, 0.0010222626151517034]}, "gradients/feed_forward.0.weight_hh_l2": {"_type": "histogram", "values": [1.0, 0.0, 0.0, 0.0, 1.0, 0.0, 0.0, 0.0, 0.0, 0.0, 0.0, 0.0, 0.0, 0.0, 0.0, 0.0, 0.0, 1.0, 0.0, 0.0, 0.0, 0.0, 0.0, 0.0, 2.0, 1.0, 4.0, 0.0, 2.0, 2.0, 2.0, 3.0, 2.0, 10.0, 8.0, 9.0, 12.0, 18.0, 24.0, 54.0, 167.0, 216.0, 53.0, 18.0, 10.0, 11.0, 8.0, 8.0, 6.0, 4.0, 3.0, 2.0, 5.0, 1.0, 0.0, 1.0, 0.0, 0.0, 1.0, 0.0, 0.0, 0.0, 0.0, 5.0], "bins": [-0.001171355601400137, -0.0011428316356614232, -0.0011143075535073876, -0.001085783587768674, -0.0010572595056146383, -0.0010287355398759246, -0.001000211457721889, -0.0009716874337755144, -0.0009431634098291397, -0.000914639444090426, -0.0008861154201440513, -0.0008575913961976767, -0.000829067372251302, -0.0008005433483049273, -0.0007720193243585527, -0.000743495300412178, -0.0007149712764658034, -0.0006864472525194287, -0.0006579232285730541, -0.0006293992046266794, -0.0006008751806803048, -0.0005723511567339301, -0.0005438271327875555, -0.0005153031088411808, -0.0004867791139986366, -0.00045825509005226195, -0.0004297310661058873, -0.00040120704215951264, -0.00037268304731696844, -0.0003441590233705938, -0.00031563499942421913, -0.0002871109754778445, -0.0002585868933238089, -0.00023006286937743425, -0.0002015388454310596, -0.00017301483603660017, -0.00014449081209022552, -0.00011596678814385086, -8.744277147343382e-05, -5.8918751165037975e-05, -3.0394730856642127e-05, -1.8707105482462794e-06, 2.665330976014957e-05, 5.5177330068545416e-05, 8.370135037694126e-05, 0.00011222537432331592, 0.00014074938371777534, 0.00016927340766415, 0.00019779743161052465, 0.0002263214555568993, 0.00025484547950327396, 0.0002833695034496486, 0.0003118935273960233, 0.00034041752223856747, 0.0003689415461849421, 0.0003974655701313168, 0.00042598959407769144, 0.0004545136180240661, 0.00048303764197044075, 0.0005115616368129849, 0.0005400856607593596, 0.0005686096847057343, 0.0005971337086521089, 0.0006256577325984836, 0.0006541817565448582]}, "gradients/feed_forward.0.weight_ih_l2": {"_type": "histogram", "values": [1.0, 0.0, 1.0, 0.0, 2.0, 1.0, 2.0, 0.0, 1.0, 0.0, 3.0, 1.0, 4.0, 2.0, 4.0, 4.0, 1.0, 8.0, 7.0, 11.0, 10.0, 18.0, 24.0, 220.0, 233.0, 33.0, 11.0, 13.0, 11.0, 4.0, 7.0, 7.0, 1.0, 6.0, 7.0, 2.0, 3.0, 3.0, 0.0, 0.0, 2.0, 1.0, 1.0, 0.0, 0.0, 1.0, 0.0, 0.0, 0.0, 1.0, 0.0, 0.0, 0.0, 0.0, 0.0, 0.0, 0.0, 2.0, 0.0, 0.0, 0.0, 0.0, 0.0, 1.0], "bins": [-0.0029833372682332993, -0.0028592036105692387, -0.002735069952905178, -0.0026109362952411175, -0.002486802637577057, -0.0023626689799129963, -0.0022385353222489357, -0.002114401664584875, -0.0019902680069208145, -0.001866134232841432, -0.0017420005751773715, -0.001617866917513311, -0.0014937331434339285, -0.001369599485769868, -0.0012454658281058073, -0.0011213321704417467, -0.0009971985127776861, -0.0008730648551136255, -0.0007489311974495649, -0.0006247974815778434, -0.0005006638239137828, -0.00037653016624972224, -0.0002523964794818312, -0.00012826280726585537, -4.129135049879551e-06, 0.00012000453716609627, 0.0002441382093820721, 0.00036827189614996314, 0.0004924055538140237, 0.0006165392114780843, 0.0007406729273498058, 0.0008648065850138664, 0.000988940242677927, 0.0011130739003419876, 0.0012372075580060482, 0.0013613412156701088, 0.0014854748733341694, 0.0016096086474135518, 0.0017337423050776124, 0.001857875962741673, 0.0019820095039904118, 0.002106143394485116, 0.0022302770521491766, 0.002354410709813237, 0.0024785443674772978, 0.0026026780251413584, 0.002726811682805419, 0.0028509453404694796, 0.00297507899813354, 0.0030992126557976007, 0.0032233463134616613, 0.003347479971125722, 0.0034716136287897825, 0.003595747286453843, 0.0037198809441179037, 0.0038440146017819643, 0.0039681484922766685, 0.004092282149940729, 0.00421641580760479, 0.00434054946526885, 0.004464683122932911, 0.0045888167805969715, 0.004712950438261032, 0.004837084095925093, 0.004961217753589153]}, "gradients/feed_forward.0.weight_hh_l1": {"_type": "histogram", "values": [1.0, 0.0, 0.0, 0.0, 0.0, 0.0, 1.0, 0.0, 0.0, 0.0, 0.0, 0.0, 0.0, 0.0, 0.0, 0.0, 0.0, 0.0, 0.0, 1.0, 1.0, 3.0, 3.0, 4.0, 7.0, 6.0, 3.0, 6.0, 11.0, 21.0, 16.0, 28.0, 75.0, 149.0, 161.0, 74.0, 23.0, 18.0, 9.0, 10.0, 6.0, 4.0, 4.0, 5.0, 3.0, 3.0, 5.0, 4.0, 0.0, 0.0, 2.0, 0.0, 3.0, 1.0, 0.0, 1.0, 0.0, 1.0, 0.0, 0.0, 0.0, 1.0, 0.0, 1.0], "bins": [-0.0011006969725713134, -0.001068313024006784, -0.0010359290754422545, -0.0010035451268777251, -0.0009711611783131957, -0.0009387771715410054, -0.000906393222976476, -0.0008740092744119465, -0.0008416253258474171, -0.0008092413772828877, -0.0007768574287183583, -0.0007444734801538289, -0.0007120894733816385, -0.0006797055248171091, -0.0006473215762525797, -0.0006149376276880503, -0.0005825536791235209, -0.0005501697305589914, -0.000517785781994462, -0.00048540180432610214, -0.0004530178557615727, -0.0004206339071970433, -0.0003882499295286834, -0.000355865980964154, -0.0003234820323996246, -0.00029109808383509517, -0.00025871413527056575, -0.00022633015760220587, -0.00019394620903767645, -0.00016156226047314703, -0.0001291782973567024, -9.679434151621535e-05, -6.441038567572832e-05, -3.202642983524129e-05, 3.575260052457452e-07, 3.274148184573278e-05, 6.512543768621981e-05, 9.750939352670684e-05, 0.00012989334936719388, 0.00016227731248363853, 0.00019466126104816794, 0.00022704520961269736, 0.0002594291581772268, 0.00029181313584558666, 0.0003241970844101161, 0.0003565810329746455, 0.00038896501064300537, 0.0004213489592075348, 0.0004537329077720642, 0.00048611685633659363, 0.000518500804901123, 0.0005508847534656525, 0.0005832687020301819, 0.0006156527088023722, 0.0006480366573669016, 0.0006804206059314311, 0.0007128045544959605, 0.0007451885030604899, 0.0007775724516250193, 0.0008099564001895487, 0.0008423404069617391, 0.0008747243555262685, 0.0009071083040907979, 0.0009394922526553273, 0.0009718762012198567]}, "gradients/feed_forward.0.bias_hh_l1": {"_type": "histogram", "values": [1.0, 0.0, 0.0, 0.0, 0.0, 0.0, 0.0, 0.0, 0.0, 0.0, 0.0, 1.0, 0.0, 0.0, 0.0, 0.0, 0.0, 0.0, 1.0, 0.0, 0.0, 0.0, 0.0, 2.0, 4.0, 3.0, 3.0, 5.0, 2.0, 5.0, 3.0, 1.0, 0.0, 3.0, 2.0, 2.0, 2.0, 0.0, 0.0, 0.0, 0.0, 0.0, 0.0, 1.0, 0.0, 0.0, 0.0, 0.0, 0.0, 0.0, 0.0, 0.0, 1.0, 0.0, 1.0, 0.0, 0.0, 1.0, 0.0, 0.0, 0.0, 0.0, 0.0, 1.0], "bins": [-0.0009411763749085367, -0.0009079345618374646, -0.0008746928069740534, -0.0008414509939029813, -0.0008082091808319092, -0.000774967425968498, -0.0007417256128974259, -0.0007084837998263538, -0.0006752420449629426, -0.0006420002318918705, -0.0006087584188207984, -0.0005755166057497263, -0.0005422748508863151, -0.000509033037815243, -0.00047579125384800136, -0.00044254944077692926, -0.0004093076568096876, -0.00037606587284244597, -0.00034282405977137387, -0.0003095822758041322, -0.0002763404627330601, -0.00024309867876581848, -0.00020985689479857683, -0.00017661509627941996, -0.00014337329776026309, -0.00011013149924110621, -7.688970799790695e-05, -4.364791311672889e-05, -1.040611823555082e-05, 2.2835676645627245e-05, 5.607747152680531e-05, 8.931926277000457e-05, 0.00012256100308150053, 0.0001558028016006574, 0.00018904460011981428, 0.00022228638408705592, 0.000255528197158128, 0.00028876998112536967, 0.0003220117650926113, 0.0003552535781636834, 0.00038849536213092506, 0.0004217371460981667, 0.0004549789591692388, 0.00048822074313648045, 0.0005214625271037221, 0.0005547043401747942, 0.0005879461532458663, 0.0006211879081092775, 0.0006544297211803496, 0.0006876715342514217, 0.0007209132891148329, 0.000754155102185905, 0.0007873969152569771, 0.0008206386701203883, 0.0008538804831914604, 0.0008871222962625325, 0.0009203640511259437, 0.0009536058641970158, 0.0009868476772680879, 0.00102008949033916, 0.001053331303410232, 0.0010865730000659823, 0.0011198148131370544, 0.0011530566262081265, 0.0011862984392791986]}, "gradients/feed_forward.0.weight_ih_l1": {"_type": "histogram", "values": [1.0, 0.0, 0.0, 0.0, 1.0, 0.0, 0.0, 0.0, 3.0, 3.0, 3.0, 0.0, 3.0, 1.0, 3.0, 5.0, 5.0, 1.0, 8.0, 3.0, 7.0, 7.0, 7.0, 12.0, 20.0, 42.0, 132.0, 212.0, 67.0, 27.0, 22.0, 9.0, 7.0, 4.0, 11.0, 6.0, 6.0, 5.0, 5.0, 1.0, 5.0, 2.0, 2.0, 5.0, 1.0, 1.0, 1.0, 3.0, 2.0, 0.0, 0.0, 1.0, 1.0, 0.0, 0.0, 0.0, 0.0, 0.0, 0.0, 0.0, 0.0, 0.0, 0.0, 2.0], "bins": [-0.0018448601476848125, -0.0017770595150068402, -0.001709258882328868, -0.0016414582496508956, -0.0015736576169729233, -0.0015058568678796291, -0.0014380562352016568, -0.0013702556025236845, -0.0013024549698457122, -0.0012346543371677399, -0.0011668537044897676, -0.0010990530718117952, -0.001031252322718501, -0.0009634517482481897, -0.0008956510573625565, -0.0008278504246845841, -0.0007600497920066118, -0.0006922491593286395, -0.0006244485266506672, -0.000556647835765034, -0.0004888472030870616, -0.0004210465704090893, -0.00035324590862728655, -0.0002854452468454838, -0.00021764461416751146, -0.00014984396693762392, -8.204331970773637e-05, -1.4242672477848828e-05, 5.355797475203872e-05, 0.00012135862198192626, 0.0001891592692118138, 0.0002569599309936166, 0.00032476033084094524, 0.00039256096351891756, 0.00046036162530072033, 0.0005281622870825231, 0.0005959629197604954, 0.0006637635524384677, 0.000731564243324101, 0.0007993648760020733, 0.0008671655086800456, 0.0009349661413580179, 0.0010027667740359902, 0.0010705674067139626, 0.0011383681558072567, 0.001206168788485229, 0.0012739694211632013, 0.0013417700538411736, 0.001409570686519146, 0.0014773713191971183, 0.0015451719518750906, 0.001612972584553063, 0.0016807732172310352, 0.0017485739663243294, 0.0018163745990023017, 0.001884175231680274, 0.0019519758643582463, 0.0020197764970362186, 0.002087577246129513, 0.0021553777623921633, 0.0022231785114854574, 0.002290979027748108, 0.002358779776841402, 0.0024265802931040525, 0.0024943810421973467]}, "gradients/feed_forward.0.weight_hh_l0": {"_type": "histogram", "values": [1.0, 0.0, 0.0, 0.0, 0.0, 0.0, 0.0, 1.0, 2.0, 0.0, 0.0, 5.0, 1.0, 4.0, 0.0, 4.0, 0.0, 1.0, 3.0, 5.0, 11.0, 20.0, 23.0, 31.0, 68.0, 169.0, 126.0, 70.0, 40.0, 33.0, 9.0, 6.0, 8.0, 10.0, 3.0, 2.0, 4.0, 3.0, 2.0, 0.0, 2.0, 2.0, 0.0, 1.0, 0.0, 1.0, 0.0, 0.0, 0.0, 0.0, 0.0, 1.0, 0.0, 1.0, 0.0, 1.0, 0.0, 0.0, 0.0, 0.0, 0.0, 0.0, 0.0, 1.0], "bins": [-0.0008457310614176095, -0.0008129235939122736, -0.0007801160681992769, -0.0007473086006939411, -0.0007145011331886053, -0.0006816936074756086, -0.0006488861399702728, -0.0006160786142572761, -0.0005832711467519403, -0.0005504636792466044, -0.0005176561535336077, -0.0004848486860282719, -0.00045204118941910565, -0.0004192336928099394, -0.0003864262253046036, -0.0003536187286954373, -0.00032081123208627105, -0.0002880037354771048, -0.0002551962388679385, -0.0002223887713626027, -0.00018958127475343645, -0.00015677377814427018, -0.00012396629608701915, -9.11588067538105e-05, -5.8351317420601845e-05, -2.5543828087393194e-05, 7.263661245815456e-06, 4.0071150579024106e-05, 7.287863991223276e-05, 0.00010568612924544141, 0.00013849361857865006, 0.0001713011006359011, 0.00020410853903740644, 0.0002369160356465727, 0.000269723532255739, 0.0003025309997610748, 0.00033533849637024105, 0.0003681459929794073, 0.0004009534604847431, 0.0004337609570939094, 0.00046656845370307565, 0.0004993759212084115, 0.0005321834469214082, 0.000564990914426744, 0.0005977983819320798, 0.0006306059076450765, 0.0006634133751504123, 0.000696220900863409, 0.0007290283683687449, 0.0007618358358740807, 0.0007946433615870774, 0.0008274508290924132, 0.0008602583548054099, 0.0008930658223107457, 0.0009258732898160815, 0.0009586808155290782, 0.000991488341242075, 0.0010242958087474108, 0.0010571032762527466, 0.0010899107437580824, 0.0011227182112634182, 0.001155525678768754, 0.0011883332626894116, 0.0012211407301947474, 0.0012539481977000833]}, "gradients/feed_forward.0.bias_hh_l0": {"_type": "histogram", "values": [1.0, 0.0, 0.0, 0.0, 1.0, 0.0, 0.0, 0.0, 0.0, 0.0, 0.0, 0.0, 0.0, 1.0, 1.0, 1.0, 0.0, 0.0, 2.0, 3.0, 8.0, 2.0, 4.0, 4.0, 0.0, 5.0, 4.0, 2.0, 1.0, 1.0, 2.0, 0.0, 0.0, 0.0, 0.0, 1.0, 0.0, 0.0, 0.0, 0.0, 0.0, 0.0, 0.0, 0.0, 0.0, 0.0, 0.0, 0.0, 0.0, 0.0, 0.0, 0.0, 0.0, 0.0, 0.0, 0.0, 0.0, 0.0, 0.0, 0.0, 0.0, 0.0, 0.0, 1.0], "bins": [-0.0005068646278232336, -0.00048243318451568484, -0.0004580017412081361, -0.00043357026879675686, -0.0004091388254892081, -0.00038470738218165934, -0.0003602759097702801, -0.00033584446646273136, -0.0003114130231551826, -0.00028698157984763384, -0.0002625501365400851, -0.00023811866412870586, -0.0002136872208211571, -0.00018925577751360834, -0.00016482431965414435, -0.00014039286179468036, -0.0001159614184871316, -9.152996790362522e-05, -6.709851732011884e-05, -4.266706673661247e-05, -1.8235616153106093e-05, 6.195834430400282e-06, 3.062728501390666e-05, 5.505873559741303e-05, 7.949018618091941e-05, 0.00010392163676442578, 0.00012835308734793216, 0.00015278454520739615, 0.0001772159885149449, 0.00020164743182249367, 0.00022607888968195766, 0.00025051034754142165, 0.0002749417908489704, 0.0002993732341565192, 0.00032380467746406794, 0.00034823614987544715, 0.0003726675931829959, 0.0003970990364905447, 0.0004215305089019239, 0.00044596195220947266, 0.0004703933955170214, 0.0004948248388245702, 0.0005192562821321189, 0.0005436877254396677, 0.0005681192269548774, 0.0005925506702624261, 0.0006169821135699749, 0.0006414135568775237, 0.0006658450001850724, 0.0006902764434926212, 0.0007147078868001699, 0.0007391393301077187, 0.0007635707734152675, 0.0007880022749304771, 0.0008124337182380259, 0.0008368651615455747, 0.0008612966048531234, 0.0008857280481606722, 0.000910159491468221, 0.0009345909347757697, 0.0009590224362909794, 0.0009834538213908672, 0.001007885322906077, 0.0010323167080059648, 0.0010567482095211744]}, "_wandb": {"runtime": 157}}