{"train_loss": 0.0003333495884773231, "_timestamp": 1725260687.5799923, "_runtime": 131.54920029640198, "_step": 825, "val_loss": 0.00039582331919518765, "best_val_loss": 0.0003355099152031471, "parameters/feed_forward.0.weight_ih_l0": {"_type": "histogram", "values": [2.0, 0.0, 0.0, 0.0, 0.0, 2.0, 0.0, 0.0, 1.0, 1.0, 2.0, 4.0, 2.0, 3.0, 1.0, 2.0, 4.0, 11.0, 13.0, 8.0, 13.0, 14.0, 9.0, 15.0, 16.0, 10.0, 11.0, 17.0, 18.0, 14.0, 11.0, 11.0, 12.0, 13.0, 17.0, 12.0, 9.0, 1.0, 4.0, 4.0, 5.0, 3.0, 1.0, 2.0, 3.0, 2.0, 3.0, 1.0, 1.0, 0.0, 1.0, 2.0, 1.0, 0.0, 0.0, 0.0, 0.0, 1.0, 0.0, 0.0, 0.0, 0.0, 0.0, 2.0], "bins": [-0.9004287123680115, -0.8692669868469238, -0.838105320930481, -0.8069435954093933, -0.7757818698883057, -0.7446202039718628, -0.7134584784507751, -0.6822968125343323, -0.6511350870132446, -0.619973361492157, -0.5888116955757141, -0.5576499700546265, -0.5264883041381836, -0.49532657861709595, -0.4641648530960083, -0.43300315737724304, -0.4018414616584778, -0.3706797659397125, -0.33951807022094727, -0.3083563446998596, -0.27719464898109436, -0.2460329532623291, -0.21487124264240265, -0.1837095320224762, -0.15254783630371094, -0.12138613313436508, -0.09022442996501923, -0.05906272679567337, -0.027901023626327515, 0.003260679543018341, 0.0344223827123642, 0.06558408588171005, 0.09674572944641113, 0.1279074251651764, 0.15906913578510284, 0.1902308464050293, 0.22139254212379456, 0.2525542378425598, 0.28371596336364746, 0.3148776590824127, 0.346039354801178, 0.37720105051994324, 0.4083627462387085, 0.43952447175979614, 0.4706861674785614, 0.5018478631973267, 0.5330095887184143, 0.5641712546348572, 0.5953329801559448, 0.6264947056770325, 0.6576563715934753, 0.688818097114563, 0.7199797630310059, 0.7511414885520935, 0.7823032140731812, 0.813464879989624, 0.8446266055107117, 0.8757883310317993, 0.9069499969482422, 0.9381117224693298, 0.9692734479904175, 1.0004351139068604, 1.0315967798233032, 1.0627585649490356, 1.0939202308654785]}, "parameters/feed_forward.0.weight_hh_l0": {"_type": "histogram", "values": [1.0, 0.0, 0.0, 0.0, 1.0, 0.0, 0.0, 2.0, 2.0, 5.0, 3.0, 2.0, 2.0, 7.0, 6.0, 8.0, 7.0, 12.0, 8.0, 13.0, 11.0, 20.0, 17.0, 21.0, 24.0, 19.0, 26.0, 29.0, 38.0, 30.0, 27.0, 27.0, 30.0, 26.0, 32.0, 23.0, 24.0, 20.0, 20.0, 16.0, 20.0, 18.0, 10.0, 16.0, 9.0, 11.0, 6.0, 1.0, 3.0, 4.0, 2.0, 5.0, 4.0, 2.0, 0.0, 1.0, 1.0, 0.0, 1.0, 0.0, 1.0, 0.0, 0.0, 1.0], "bins": [-0.7863703966140747, -0.7610417008399963, -0.7357129454612732, -0.7103842496871948, -0.6850554943084717, -0.6597267985343933, -0.6343981027603149, -0.6090693473815918, -0.5837406516075134, -0.5584118962287903, -0.5330832004547119, -0.5077545046806335, -0.4824257493019104, -0.45709702372550964, -0.4317683279514313, -0.4064396023750305, -0.38111087679862976, -0.355782151222229, -0.33045342564582825, -0.3051247298717499, -0.2797960042953491, -0.25446727871894836, -0.2291385531425476, -0.20380984246730804, -0.1784811168909073, -0.15315239131450653, -0.12782368063926697, -0.10249495506286621, -0.07716623693704605, -0.05183751881122589, -0.026508796960115433, -0.0011800769716501236, 0.024148643016815186, 0.049477361142635345, 0.0748060792684555, 0.10013480484485626, 0.12546351552009583, 0.15079224109649658, 0.17612096667289734, 0.2014496773481369, 0.22677840292453766, 0.2521071135997772, 0.277435839176178, 0.30276456475257874, 0.3280932903289795, 0.35342201590538025, 0.3787507116794586, 0.4040794372558594, 0.42940816283226013, 0.4547368884086609, 0.48006561398506165, 0.5053943395614624, 0.5307230353355408, 0.5560517907142639, 0.5813804864883423, 0.6067091822624207, 0.6320379376411438, 0.6573666334152222, 0.6826953887939453, 0.7080240845680237, 0.733352780342102, 0.7586815357208252, 0.7840102314949036, 0.8093389868736267, 0.8346676826477051]}, "parameters/feed_forward.0.bias_ih_l0": {"_type": "histogram", "values": [1.0, 0.0, 0.0, 1.0, 0.0, 0.0, 0.0, 1.0, 1.0, 0.0, 0.0, 0.0, 1.0, 1.0, 0.0, 0.0, 0.0, 2.0, 1.0, 0.0, 1.0, 1.0, 1.0, 0.0, 0.0, 0.0, 0.0, 0.0, 0.0, 1.0, 0.0, 0.0, 1.0, 0.0, 0.0, 0.0, 0.0, 1.0, 1.0, 0.0, 3.0, 2.0, 2.0, 0.0, 1.0, 2.0, 2.0, 0.0, 3.0, 2.0, 1.0, 1.0, 1.0, 1.0, 0.0, 1.0, 0.0, 1.0, 1.0, 1.0, 1.0, 1.0, 1.0, 1.0], "bins": [-1.2252060174942017, -1.2008219957351685, -1.1764379739761353, -1.152053952217102, -1.1276699304580688, -1.1032859086990356, -1.0789018869400024, -1.0545178651809692, -1.030133843421936, -1.0057498216629028, -0.9813658595085144, -0.9569818377494812, -0.932597815990448, -0.9082137942314148, -0.8838297724723816, -0.8594457507133484, -0.83506178855896, -0.8106777667999268, -0.7862937450408936, -0.7619097232818604, -0.7375257015228271, -0.713141679763794, -0.6887576580047607, -0.6643736362457275, -0.6399896144866943, -0.6156055927276611, -0.5912215709686279, -0.5668376088142395, -0.5424535870552063, -0.5180695652961731, -0.4936855435371399, -0.4693015217781067, -0.4449175000190735, -0.4205334782600403, -0.3961494565010071, -0.37176546454429626, -0.34738144278526306, -0.32299742102622986, -0.29861339926719666, -0.27422937750816345, -0.24984537065029144, -0.22546134889125824, -0.20107734203338623, -0.17669332027435303, -0.15230929851531982, -0.12792529165744781, -0.10354126989841461, -0.079157255589962, -0.0547732412815094, -0.030389225110411644, -0.0060052089393138885, 0.018378807231783867, 0.04276282340288162, 0.06714683771133423, 0.09153085947036743, 0.11591487377882004, 0.14029888808727264, 0.16468290984630585, 0.18906691670417786, 0.21345093846321106, 0.23783496022224426, 0.26221898198127747, 0.2866029739379883, 0.3109869956970215, 0.3353710174560547]}, "parameters/feed_forward.0.bias_hh_l0": {"_type": "histogram", "values": [1.0, 0.0, 0.0, 0.0, 0.0, 1.0, 0.0, 0.0, 0.0, 0.0, 0.0, 0.0, 2.0, 0.0, 0.0, 1.0, 0.0, 0.0, 0.0, 0.0, 0.0, 0.0, 0.0, 0.0, 1.0, 1.0, 2.0, 0.0, 1.0, 0.0, 1.0, 1.0, 0.0, 0.0, 1.0, 1.0, 1.0, 0.0, 0.0, 0.0, 4.0, 2.0, 0.0, 0.0, 4.0, 0.0, 0.0, 0.0, 3.0, 1.0, 0.0, 0.0, 3.0, 1.0, 1.0, 3.0, 0.0, 0.0, 2.0, 1.0, 1.0, 1.0, 1.0, 2.0], "bins": [-1.3289669752120972, -1.3033177852630615, -1.2776684761047363, -1.2520192861557007, -1.2263699769973755, -1.2007207870483398, -1.1750715970993042, -1.149422287940979, -1.1237730979919434, -1.0981237888336182, -1.0724745988845825, -1.0468254089355469, -1.0211760997772217, -0.9955268502235413, -0.9698776602745056, -0.9442284107208252, -0.9185791611671448, -0.8929299116134644, -0.8672806620597839, -0.8416314721107483, -0.8159822225570679, -0.7903329730033875, -0.764683723449707, -0.7390344738960266, -0.7133852243423462, -0.6877360343933105, -0.6620867848396301, -0.6364375352859497, -0.6107882857322693, -0.5851390361785889, -0.5594898462295532, -0.5338405966758728, -0.5081913471221924, -0.48254212737083435, -0.4568929076194763, -0.4312436580657959, -0.4055944085121155, -0.37994518876075745, -0.354295939207077, -0.328646719455719, -0.3029974699020386, -0.27734822034835815, -0.2516990005970001, -0.2260497510433197, -0.20040051639080048, -0.17475128173828125, -0.14910203218460083, -0.1234527975320816, -0.09780356287956238, -0.07215432822704315, -0.04650508612394333, -0.020855847746133804, 0.00479339063167572, 0.030442629009485245, 0.05609186738729477, 0.08174110949039459, 0.10739034414291382, 0.13303957879543304, 0.15868881344795227, 0.1843380630016327, 0.20998729765415192, 0.23563653230667114, 0.26128578186035156, 0.2869350016117096, 0.31258425116539]}, "parameters/feed_forward.0.weight_ih_l1": {"_type": "histogram", "values": [1.0, 0.0, 2.0, 2.0, 1.0, 0.0, 1.0, 3.0, 3.0, 5.0, 6.0, 3.0, 6.0, 6.0, 8.0, 12.0, 13.0, 9.0, 16.0, 8.0, 14.0, 18.0, 21.0, 26.0, 14.0, 27.0, 17.0, 15.0, 28.0, 25.0, 28.0, 17.0, 25.0, 18.0, 27.0, 22.0, 13.0, 28.0, 25.0, 14.0, 18.0, 20.0, 14.0, 13.0, 15.0, 11.0, 6.0, 9.0, 9.0, 3.0, 7.0, 3.0, 4.0, 2.0, 3.0, 2.0, 5.0, 1.0, 1.0, 1.0, 0.0, 0.0, 0.0, 1.0], "bins": [-0.8405173420906067, -0.8143541812896729, -0.788191020488739, -0.7620278596878052, -0.7358646392822266, -0.7097014784812927, -0.6835383176803589, -0.657375156879425, -0.6312119960784912, -0.6050488352775574, -0.5788856148719788, -0.5527224540710449, -0.5265592932701111, -0.5003961324691772, -0.4742329716682434, -0.4480697810649872, -0.42190662026405334, -0.3957434594631195, -0.3695802688598633, -0.34341710805892944, -0.3172539472579956, -0.2910907566547394, -0.26492759585380554, -0.2387644350528717, -0.21260125935077667, -0.18643808364868164, -0.1602749228477478, -0.13411174714565277, -0.10794857889413834, -0.0817854106426239, -0.05562223866581917, -0.029459068551659584, -0.0032958984375, 0.022867271676659584, 0.04903044179081917, 0.0751936137676239, 0.10135678201913834, 0.12751995027065277, 0.1536831259727478, 0.17984628677368164, 0.20600946247577667, 0.2321726381778717, 0.25833579897880554, 0.2844989597797394, 0.3106621503829956, 0.33682531118392944, 0.3629884719848633, 0.3891516625881195, 0.41531482338905334, 0.4414779841899872, 0.4676411747932434, 0.49380433559417725, 0.5199674963951111, 0.5461306571960449, 0.5722938179969788, 0.5984570384025574, 0.6246201992034912, 0.650783360004425, 0.6769465208053589, 0.7031096816062927, 0.7292728424072266, 0.7554360628128052, 0.781599223613739, 0.8077623844146729, 0.8339255452156067]}, "parameters/feed_forward.0.weight_hh_l1": {"_type": "histogram", "values": [2.0, 1.0, 1.0, 0.0, 3.0, 2.0, 2.0, 2.0, 3.0, 4.0, 5.0, 3.0, 5.0, 11.0, 8.0, 9.0, 18.0, 12.0, 24.0, 17.0, 15.0, 18.0, 23.0, 31.0, 27.0, 28.0, 26.0, 23.0, 26.0, 25.0, 32.0, 22.0, 28.0, 20.0, 22.0, 33.0, 13.0, 19.0, 8.0, 19.0, 11.0, 21.0, 8.0, 7.0, 7.0, 2.0, 3.0, 3.0, 4.0, 1.0, 3.0, 5.0, 1.0, 0.0, 2.0, 3.0, 0.0, 0.0, 1.0, 0.0, 0.0, 1.0, 0.0, 2.0], "bins": [-0.755012035369873, -0.7278432250022888, -0.7006744742393494, -0.6735056638717651, -0.6463369131088257, -0.6191681027412415, -0.591999351978302, -0.5648305416107178, -0.5376617908477783, -0.5104929804801941, -0.48332419991493225, -0.4561554193496704, -0.4289866089820862, -0.40181782841682434, -0.3746490478515625, -0.34748026728630066, -0.3203114867210388, -0.293142706155777, -0.26597392559051514, -0.2388051301240921, -0.21163634955883026, -0.18446756899356842, -0.15729877352714539, -0.13012999296188354, -0.1029612123966217, -0.07579243183135986, -0.048623643815517426, -0.021454859524965286, 0.005713924765586853, 0.03288270905613899, 0.06005149334669113, 0.08722028136253357, 0.11438906192779541, 0.14155784249305725, 0.1687266230583191, 0.19589541852474213, 0.22306419909000397, 0.250232994556427, 0.27740177512168884, 0.3045705556869507, 0.3317393362522125, 0.35890811681747437, 0.3860768973827362, 0.41324567794799805, 0.4404144883155823, 0.4675832688808441, 0.49475204944610596, 0.5219208002090454, 0.5490896105766296, 0.5762584209442139, 0.6034271717071533, 0.6305959820747375, 0.657764732837677, 0.6849335432052612, 0.7121022939682007, 0.7392711043357849, 0.7664399147033691, 0.7936086654663086, 0.8207774758338928, 0.8479462265968323, 0.8751150369644165, 0.902283787727356, 0.9294525980949402, 0.9566213488578796, 0.9837901592254639]}, "parameters/feed_forward.0.bias_ih_l1": {"_type": "histogram", "values": [1.0, 0.0, 0.0, 0.0, 0.0, 1.0, 0.0, 0.0, 1.0, 0.0, 0.0, 0.0, 0.0, 0.0, 0.0, 0.0, 0.0, 0.0, 1.0, 0.0, 1.0, 2.0, 3.0, 1.0, 2.0, 0.0, 1.0, 0.0, 0.0, 0.0, 0.0, 0.0, 0.0, 0.0, 0.0, 0.0, 1.0, 0.0, 0.0, 1.0, 0.0, 0.0, 2.0, 0.0, 2.0, 1.0, 1.0, 1.0, 2.0, 3.0, 6.0, 1.0, 4.0, 0.0, 1.0, 1.0, 2.0, 1.0, 0.0, 0.0, 0.0, 0.0, 0.0, 1.0], "bins": [-1.2033330202102661, -1.1804860830307007, -1.1576390266418457, -1.1347920894622803, -1.1119451522827148, -1.0890980958938599, -1.0662511587142944, -1.043404221534729, -1.020557165145874, -0.9977102279663086, -0.9748632311820984, -0.9520162343978882, -0.9291692972183228, -0.9063223004341125, -0.8834753036499023, -0.8606283664703369, -0.8377813696861267, -0.8149343729019165, -0.7920874357223511, -0.7692404389381409, -0.7463934421539307, -0.7235465049743652, -0.700699508190155, -0.6778525114059448, -0.6550055742263794, -0.6321585774421692, -0.609311580657959, -0.5864645838737488, -0.5636176466941833, -0.5407706499099731, -0.5179236531257629, -0.4950766861438751, -0.4722297489643097, -0.4493827819824219, -0.42653578519821167, -0.40368881821632385, -0.38084185123443604, -0.35799485445022583, -0.335147887468338, -0.3123008906841278, -0.28945392370224, -0.2666069567203522, -0.24375995993614197, -0.22091299295425415, -0.19806601107120514, -0.17521902918815613, -0.1523720622062683, -0.1295250803232193, -0.10667809844017029, -0.08383111655712128, -0.06098414212465286, -0.03813716396689415, -0.015290185809135437, 0.007556792348623276, 0.03040377050638199, 0.0532507486641407, 0.07609772682189941, 0.09894470870494843, 0.12179168313741684, 0.14463865756988525, 0.16748563945293427, 0.19033262133598328, 0.2131795883178711, 0.2360265702009201, 0.2588735520839691]}, "parameters/feed_forward.0.bias_hh_l1": {"_type": "histogram", "values": [1.0, 0.0, 0.0, 0.0, 1.0, 0.0, 0.0, 0.0, 0.0, 0.0, 0.0, 0.0, 0.0, 0.0, 1.0, 0.0, 1.0, 0.0, 0.0, 0.0, 2.0, 0.0, 0.0, 0.0, 0.0, 0.0, 0.0, 1.0, 0.0, 4.0, 0.0, 1.0, 2.0, 0.0, 1.0, 0.0, 0.0, 0.0, 0.0, 0.0, 1.0, 2.0, 1.0, 0.0, 0.0, 2.0, 1.0, 3.0, 1.0, 0.0, 0.0, 2.0, 2.0, 2.0, 1.0, 4.0, 3.0, 2.0, 0.0, 0.0, 0.0, 0.0, 2.0, 1.0], "bins": [-1.4822285175323486, -1.4543819427490234, -1.4265353679656982, -1.3986886739730835, -1.3708420991897583, -1.342995524406433, -1.315148949623108, -1.2873023748397827, -1.259455680847168, -1.2316091060638428, -1.2037625312805176, -1.1759159564971924, -1.1480693817138672, -1.120222806930542, -1.0923761129379272, -1.064529538154602, -1.0366829633712769, -1.0088363885879517, -0.9809897541999817, -0.9531431794166565, -0.9252965450286865, -0.8974499702453613, -0.8696033954620361, -0.8417567610740662, -0.813910186290741, -0.7860636115074158, -0.7582169771194458, -0.7303704023361206, -0.7025238275527954, -0.6746771931648254, -0.6468306183815002, -0.6189839839935303, -0.5911373496055603, -0.5632907748222351, -0.5354441404342651, -0.5075975656509399, -0.47975096106529236, -0.4519043564796448, -0.4240577816963196, -0.396211177110672, -0.3683645725250244, -0.34051796793937683, -0.31267136335372925, -0.28482478857040405, -0.25697818398475647, -0.2291315793991089, -0.2012849897146225, -0.1734384000301361, -0.14559179544448853, -0.11774519830942154, -0.08989860117435455, -0.06205200403928757, -0.03420540690422058, -0.006358809769153595, 0.02148778736591339, 0.04933438450098038, 0.07718098163604736, 0.10502757877111435, 0.13287417590618134, 0.16072076559066772, 0.1885673701763153, 0.2164139747619629, 0.24426056444644928, 0.27210715413093567, 0.29995375871658325]}, "parameters/feed_forward.0.weight_ih_l2": {"_type": "histogram", "values": [1.0, 0.0, 0.0, 1.0, 1.0, 1.0, 0.0, 1.0, 3.0, 5.0, 6.0, 3.0, 4.0, 6.0, 10.0, 11.0, 10.0, 14.0, 14.0, 33.0, 20.0, 24.0, 24.0, 28.0, 32.0, 17.0, 30.0, 33.0, 16.0, 37.0, 21.0, 25.0, 38.0, 23.0, 29.0, 26.0, 15.0, 22.0, 5.0, 17.0, 14.0, 11.0, 9.0, 8.0, 7.0, 2.0, 5.0, 3.0, 2.0, 2.0, 0.0, 1.0, 0.0, 2.0, 0.0, 1.0, 0.0, 0.0, 0.0, 0.0, 1.0, 0.0, 0.0, 1.0], "bins": [-0.9331746101379395, -0.8985556960105896, -0.8639367818832397, -0.8293178677558899, -0.79469895362854, -0.7600800395011902, -0.7254611253738403, -0.6908422112464905, -0.6562232971191406, -0.621604323387146, -0.5869854092597961, -0.5523664951324463, -0.5177475810050964, -0.4831286668777466, -0.44850975275039673, -0.4138908386230469, -0.379271924495697, -0.34465301036834717, -0.3100340962409973, -0.27541518211364746, -0.2407962530851364, -0.20617733895778656, -0.1715584099292755, -0.13693949580192566, -0.1023205816745758, -0.06770166754722595, -0.0330827459692955, 0.0015361718833446503, 0.0361550897359848, 0.07077400386333466, 0.1053929254412651, 0.14001184701919556, 0.1746307611465454, 0.20924967527389526, 0.24386858940124512, 0.27848750352859497, 0.3131064176559448, 0.34772536158561707, 0.3823442757129669, 0.4169631898403168, 0.4515821039676666, 0.4862010180950165, 0.5208199620246887, 0.5554388761520386, 0.5900577902793884, 0.6246767044067383, 0.6592956185340881, 0.693914532661438, 0.7285334467887878, 0.7631523609161377, 0.7977712750434875, 0.8323901891708374, 0.8670091032981873, 0.9016280174255371, 0.936246931552887, 0.9708658456802368, 1.0054848194122314, 1.0401036739349365, 1.0747226476669312, 1.1093415021896362, 1.1439604759216309, 1.178579330444336, 1.2131983041763306, 1.2478171586990356, 1.2824361324310303]}, "parameters/feed_forward.0.weight_hh_l2": {"_type": "histogram", "values": [2.0, 0.0, 0.0, 0.0, 0.0, 1.0, 2.0, 0.0, 3.0, 3.0, 1.0, 1.0, 2.0, 1.0, 2.0, 3.0, 7.0, 8.0, 11.0, 17.0, 14.0, 23.0, 20.0, 26.0, 31.0, 31.0, 35.0, 40.0, 35.0, 38.0, 39.0, 29.0, 33.0, 28.0, 30.0, 25.0, 12.0, 19.0, 17.0, 14.0, 11.0, 12.0, 5.0, 9.0, 5.0, 8.0, 6.0, 2.0, 3.0, 1.0, 2.0, 2.0, 2.0, 0.0, 0.0, 0.0, 2.0, 0.0, 1.0, 0.0, 0.0, 0.0, 0.0, 1.0], "bins": [-1.0546903610229492, -1.018221378326416, -0.9817524552345276, -0.9452835321426392, -0.908814549446106, -0.8723455667495728, -0.8358766436576843, -0.7994077205657959, -0.7629387378692627, -0.7264697551727295, -0.6900008320808411, -0.6535319089889526, -0.6170629262924194, -0.5805939435958862, -0.5441250205039978, -0.5076560974121094, -0.47118711471557617, -0.43471816182136536, -0.39824920892715454, -0.3617802560329437, -0.3253113031387329, -0.2888423502445221, -0.2523733973503113, -0.21590444445610046, -0.17943549156188965, -0.14296653866767883, -0.10649758577346802, -0.0700286328792572, -0.03355967998504639, 0.0029092729091644287, 0.039378225803375244, 0.07584717869758606, 0.11231625080108643, 0.14878520369529724, 0.18525415658950806, 0.22172310948371887, 0.2581920623779297, 0.2946610152721405, 0.3311299681663513, 0.36759892106056213, 0.40406787395477295, 0.44053682684898376, 0.4770057797431946, 0.513474702835083, 0.5499436855316162, 0.5864126682281494, 0.6228815913200378, 0.6593505144119263, 0.6958194971084595, 0.7322884798049927, 0.7687574028968811, 0.8052263259887695, 0.8416953086853027, 0.8781642913818359, 0.9146332144737244, 0.9511021375656128, 0.987571120262146, 1.0240401029586792, 1.0605089664459229, 1.096977949142456, 1.1334469318389893, 1.1699159145355225, 1.2063848972320557, 1.2428537607192993, 1.2793227434158325]}, "parameters/feed_forward.0.bias_ih_l2": {"_type": "histogram", "values": [1.0, 0.0, 0.0, 0.0, 0.0, 0.0, 0.0, 0.0, 0.0, 0.0, 0.0, 0.0, 0.0, 0.0, 2.0, 0.0, 0.0, 1.0, 0.0, 0.0, 0.0, 0.0, 0.0, 1.0, 0.0, 1.0, 0.0, 0.0, 1.0, 1.0, 1.0, 1.0, 0.0, 0.0, 1.0, 0.0, 1.0, 1.0, 0.0, 2.0, 0.0, 0.0, 3.0, 1.0, 0.0, 5.0, 0.0, 2.0, 2.0, 3.0, 1.0, 2.0, 0.0, 1.0, 2.0, 2.0, 2.0, 1.0, 0.0, 0.0, 0.0, 1.0, 1.0, 1.0], "bins": [-1.550227403640747, -1.5222035646438599, -1.4941797256469727, -1.4661558866500854, -1.4381320476531982, -1.410108208656311, -1.3820843696594238, -1.3540605306625366, -1.3260366916656494, -1.2980128526687622, -1.269989013671875, -1.2419651746749878, -1.2139413356781006, -1.1859174966812134, -1.1578936576843262, -1.129869818687439, -1.1018459796905518, -1.073822021484375, -1.0457981824874878, -1.0177743434906006, -0.9897505640983582, -0.961726725101471, -0.9337028861045837, -0.9056790471076965, -0.8776551485061646, -0.8496313095092773, -0.8216074705123901, -0.7935836315155029, -0.7655597925186157, -0.7375359535217285, -0.7095121145248413, -0.6814882755279541, -0.6534644365310669, -0.6254405975341797, -0.5974167585372925, -0.5693929195404053, -0.5413690805435181, -0.5133452415466309, -0.48532140254974365, -0.45729756355285645, -0.42927372455596924, -0.40124988555908203, -0.3732260465621948, -0.3452022075653076, -0.3171783685684204, -0.2891544997692108, -0.2611306607723236, -0.2331068217754364, -0.2050829827785492, -0.177059143781662, -0.14903530478477478, -0.12101145088672638, -0.09298761188983917, -0.06496377289295197, -0.03693992644548416, -0.008916083723306656, 0.01910775899887085, 0.047131601721048355, 0.07515544444322586, 0.10317929089069366, 0.13120312988758087, 0.15922696888446808, 0.18725082278251648, 0.2152746617794037, 0.2432985007762909]}, "parameters/feed_forward.0.bias_hh_l2": {"_type": "histogram", "values": [1.0, 0.0, 0.0, 0.0, 0.0, 0.0, 0.0, 0.0, 1.0, 0.0, 0.0, 0.0, 0.0, 1.0, 0.0, 1.0, 1.0, 0.0, 0.0, 1.0, 0.0, 0.0, 1.0, 0.0, 0.0, 0.0, 2.0, 1.0, 0.0, 0.0, 1.0, 0.0, 0.0, 0.0, 2.0, 1.0, 0.0, 0.0, 0.0, 1.0, 0.0, 1.0, 2.0, 0.0, 0.0, 2.0, 3.0, 3.0, 2.0, 1.0, 2.0, 0.0, 0.0, 3.0, 2.0, 1.0, 1.0, 1.0, 0.0, 1.0, 2.0, 0.0, 0.0, 3.0], "bins": [-1.528098225593567, -1.4997096061706543, -1.4713211059570312, -1.4429326057434082, -1.4145439863204956, -1.386155366897583, -1.35776686668396, -1.329378366470337, -1.3009897470474243, -1.2726011276245117, -1.2442126274108887, -1.2158241271972656, -1.187435507774353, -1.1590468883514404, -1.1306583881378174, -1.1022698879241943, -1.0738812685012817, -1.0454926490783691, -1.017104148864746, -0.9887155890464783, -0.9603270292282104, -0.9319384694099426, -0.9035499095916748, -0.875161349773407, -0.8467727899551392, -0.8183842301368713, -0.7899956703186035, -0.7616071105003357, -0.7332185506820679, -0.7048299908638, -0.6764414310455322, -0.6480528712272644, -0.6196643710136414, -0.5912758111953735, -0.5628872513771057, -0.5344986915588379, -0.5061101317405701, -0.47772157192230225, -0.4493330121040344, -0.4209444522857666, -0.3925558924674988, -0.36416733264923096, -0.33577877283096313, -0.3073902130126953, -0.2790016531944275, -0.25061309337615967, -0.22222453355789185, -0.19383597373962402, -0.1654474139213562, -0.13705885410308838, -0.10867029428482056, -0.08028173446655273, -0.05189317464828491, -0.02350461483001709, 0.004883944988250732, 0.033272504806518555, 0.06166106462478638, 0.0900496244430542, 0.11843818426132202, 0.14682674407958984, 0.17521530389785767, 0.2036038637161255, 0.2319924235343933, 0.26038098335266113, 0.28876954317092896]}, "parameters/feed_forward.2.weight": {"_type": "histogram", "values": [1.0, 0.0, 0.0, 1.0, 2.0, 1.0, 0.0, 1.0, 4.0, 4.0, 5.0, 7.0, 16.0, 22.0, 32.0, 41.0, 76.0, 109.0, 131.0, 175.0, 215.0, 325.0, 438.0, 626.0, 804.0, 1043.0, 1315.0, 1720.0, 2088.0, 2688.0, 2993.0, 3486.0, 3670.0, 3594.0, 3252.0, 2678.0, 2325.0, 1825.0, 1525.0, 1203.0, 925.0, 712.0, 574.0, 435.0, 356.0, 247.0, 176.0, 125.0, 92.0, 67.0, 46.0, 35.0, 23.0, 15.0, 6.0, 10.0, 4.0, 7.0, 2.0, 0.0, 0.0, 0.0, 0.0, 2.0], "bins": [-0.909159243106842, -0.881294846534729, -0.8534303903579712, -0.8255659937858582, -0.7977015972137451, -0.7698371410369873, -0.7419727444648743, -0.7141083478927612, -0.6862438917160034, -0.6583794951438904, -0.6305150985717773, -0.6026506423950195, -0.5747862458229065, -0.5469218492507935, -0.5190573930740356, -0.4911929965019226, -0.4633285701274872, -0.43546414375305176, -0.4075997471809387, -0.3797353208065033, -0.35187089443206787, -0.32400649785995483, -0.2961420714855194, -0.268277645111084, -0.24041323363780975, -0.21254882216453552, -0.1846843957901001, -0.15681998431682587, -0.12895557284355164, -0.10109114646911621, -0.07322673499584198, -0.04536231607198715, -0.017497897148132324, 0.010366519913077354, 0.03823093697428703, 0.06609535217285156, 0.09395977109670639, 0.12182419002056122, 0.14968860149383545, 0.17755302786827087, 0.2054174393415451, 0.23328185081481934, 0.26114627718925476, 0.2890107035636902, 0.3168751001358032, 0.34473952651023865, 0.3726039528846741, 0.4004683494567871, 0.42833277583122253, 0.45619720220565796, 0.484061598777771, 0.5119260549545288, 0.5397904515266418, 0.5676548480987549, 0.5955193042755127, 0.6233837008476257, 0.6512480974197388, 0.6791125535964966, 0.7069769501686096, 0.7348413467407227, 0.7627058029174805, 0.7905701994895935, 0.8184345960617065, 0.8462990522384644, 0.8741634488105774]}, "parameters/feed_forward.2.bias": {"_type": "histogram", "values": [1.0, 0.0, 0.0, 0.0, 0.0, 2.0, 1.0, 2.0, 1.0, 3.0, 0.0, 3.0, 3.0, 3.0, 1.0, 0.0, 3.0, 4.0, 4.0, 4.0, 3.0, 9.0, 7.0, 5.0, 3.0, 4.0, 3.0, 4.0, 3.0, 7.0, 5.0, 6.0, 8.0, 4.0, 2.0, 4.0, 8.0, 2.0, 6.0, 5.0, 7.0, 4.0, 3.0, 3.0, 4.0, 1.0, 4.0, 0.0, 2.0, 2.0, 5.0, 4.0, 4.0, 0.0, 1.0, 6.0, 1.0, 1.0, 0.0, 0.0, 0.0, 1.0, 0.0, 2.0], "bins": [-0.277637243270874, -0.2718411087989807, -0.2660449743270874, -0.2602488398551941, -0.2544527053833008, -0.24865657091140747, -0.24286042153835297, -0.23706428706645966, -0.23126815259456635, -0.22547201812267303, -0.21967588365077972, -0.2138797491788864, -0.2080836147069931, -0.2022874802350998, -0.19649134576320648, -0.19069521129131317, -0.18489906191825867, -0.17910292744636536, -0.17330679297447205, -0.16751065850257874, -0.16171452403068542, -0.15591838955879211, -0.1501222550868988, -0.1443261206150055, -0.13852998614311218, -0.13273385167121887, -0.12693771719932556, -0.12114157527685165, -0.11534544080495834, -0.10954930633306503, -0.10375316441059113, -0.09795702993869781, -0.09216088801622391, -0.0863647535443306, -0.08056861907243729, -0.07477247714996338, -0.06897634267807007, -0.06318020820617676, -0.05738407373428345, -0.05158793553709984, -0.04579180106520653, -0.03999566659331322, -0.03419952839612961, -0.028403393924236298, -0.022607257589697838, -0.016811121255159378, -0.011014985851943493, -0.00521884998306632, 0.000577285885810852, 0.0063734217546880245, 0.012169557623565197, 0.017965693026781082, 0.023761829361319542, 0.029557965695858, 0.03535410016775131, 0.04115023836493492, 0.04694637283682823, 0.05274250730872154, 0.05853864550590515, 0.06433477997779846, 0.07013091444969177, 0.07592704892158508, 0.08172319084405899, 0.0875193253159523, 0.09331545978784561]}, "parameters/feed_forward.4.weight": {"_type": "histogram", "values": [2.0, 1.0, 0.0, 2.0, 2.0, 0.0, 0.0, 7.0, 9.0, 15.0, 17.0, 24.0, 29.0, 28.0, 50.0, 72.0, 102.0, 110.0, 143.0, 209.0, 251.0, 307.0, 390.0, 515.0, 606.0, 767.0, 928.0, 1128.0, 1314.0, 1527.0, 1686.0, 1944.0, 2048.0, 2184.0, 2307.0, 2197.0, 2204.0, 2123.0, 1935.0, 1607.0, 1492.0, 1185.0, 921.0, 822.0, 603.0, 462.0, 315.0, 224.0, 163.0, 121.0, 72.0, 49.0, 44.0, 25.0, 19.0, 15.0, 6.0, 5.0, 3.0, 2.0, 1.0, 1.0, 1.0, 3.0], "bins": [-0.7997124195098877, -0.7768309712409973, -0.7539495825767517, -0.7310681343078613, -0.7081867456436157, -0.6853052973747253, -0.6624239087104797, -0.6395424604415894, -0.6166610717773438, -0.5937796235084534, -0.570898175239563, -0.5480167865753174, -0.525135338306427, -0.5022539496421814, -0.479372501373291, -0.456491082906723, -0.43360966444015503, -0.41072824597358704, -0.38784682750701904, -0.36496540904045105, -0.34208399057388306, -0.3192025423049927, -0.2963211238384247, -0.2734397053718567, -0.2505582869052887, -0.2276768684387207, -0.2047954499721527, -0.18191401660442352, -0.15903259813785553, -0.13615117967128754, -0.11326975375413895, -0.09038832783699036, -0.06750684976577759, -0.044625427573919296, -0.021744005382061005, 0.001137416809797287, 0.02401883900165558, 0.04690026119351387, 0.06978168338537216, 0.09266310930252075, 0.11554452776908875, 0.13842594623565674, 0.16130736470222473, 0.18418879806995392, 0.2070702165365219, 0.2299516350030899, 0.2528330683708191, 0.2757144868373871, 0.2985959053039551, 0.32147732377052307, 0.34435874223709106, 0.36724016070365906, 0.39012157917022705, 0.41300302743911743, 0.4358844459056854, 0.4587658643722534, 0.4816472828388214, 0.5045287013053894, 0.5274101495742798, 0.5502915382385254, 0.5731729865074158, 0.5960543751716614, 0.6189358234405518, 0.6418172121047974, 0.6646986603736877]}, "parameters/feed_forward.4.bias": {"_type": "histogram", "values": [1.0, 0.0, 0.0, 0.0, 2.0, 0.0, 0.0, 1.0, 1.0, 3.0, 4.0, 1.0, 1.0, 2.0, 3.0, 4.0, 5.0, 9.0, 3.0, 4.0, 2.0, 2.0, 3.0, 4.0, 3.0, 2.0, 5.0, 4.0, 5.0, 5.0, 5.0, 2.0, 8.0, 5.0, 4.0, 4.0, 6.0, 4.0, 1.0, 5.0, 4.0, 6.0, 3.0, 2.0, 6.0, 2.0, 4.0, 4.0, 2.0, 6.0, 5.0, 2.0, 5.0, 2.0, 2.0, 1.0, 2.0, 0.0, 2.0, 0.0, 2.0, 0.0, 1.0, 2.0], "bins": [-0.3182685673236847, -0.31146278977394104, -0.304656982421875, -0.29785120487213135, -0.2910453975200653, -0.28423961997032166, -0.2774338126182556, -0.27062803506851196, -0.2638222575187683, -0.25701645016670227, -0.2502106726169586, -0.24340488016605377, -0.23659908771514893, -0.22979329526424408, -0.22298750281333923, -0.2161817103624344, -0.20937591791152954, -0.2025701403617859, -0.19576434791088104, -0.1889585554599762, -0.18215276300907135, -0.1753469705581665, -0.16854117810726166, -0.161735400557518, -0.15492960810661316, -0.1481238156557083, -0.14131802320480347, -0.13451223075389862, -0.12770643830299377, -0.12090065330266953, -0.11409486085176468, -0.10728907585144043, -0.10048327594995499, -0.09367748349905014, -0.08687169849872589, -0.08006590604782104, -0.0732601135969162, -0.06645432859659195, -0.0596485361456871, -0.05284274369478226, -0.04603695496916771, -0.03923116624355316, -0.032425373792648315, -0.025619585067033768, -0.01881379447877407, -0.012008003890514374, -0.0052022142335772514, 0.0016035758890211582, 0.008409366011619568, 0.015215156599879265, 0.022020947188138962, 0.02882673591375351, 0.035632528364658356, 0.0424383170902729, 0.04924410581588745, 0.0560498982667923, 0.06285569071769714, 0.06966147571802139, 0.07646726816892624, 0.08327306061983109, 0.09007884562015533, 0.09688463807106018, 0.10369043052196503, 0.11049621552228928, 0.11730200797319412]}, "parameters/feed_forward.6.guard_dense.weight": {"_type": "histogram", "values": [2.0, 1.0, 2.0, 2.0, 0.0, 0.0, 2.0, 4.0, 3.0, 3.0, 8.0, 8.0, 6.0, 10.0, 12.0, 17.0, 23.0, 18.0, 41.0, 64.0, 82.0, 121.0, 166.0, 264.0, 368.0, 391.0, 404.0, 296.0, 219.0, 181.0, 101.0, 97.0, 73.0, 48.0, 29.0, 27.0, 23.0, 12.0, 9.0, 8.0, 12.0, 8.0, 6.0, 1.0, 6.0, 2.0, 3.0, 1.0, 3.0, 0.0, 3.0, 2.0, 0.0, 0.0, 1.0, 0.0, 1.0, 0.0, 1.0, 0.0, 0.0, 0.0, 0.0, 1.0], "bins": [-0.8033583760261536, -0.77228182554245, -0.7412052750587463, -0.7101287841796875, -0.6790522336959839, -0.6479756832122803, -0.6168991327285767, -0.585822582244873, -0.5547460317611694, -0.5236695408821106, -0.492592990398407, -0.46151643991470337, -0.43043988943099976, -0.39936336874961853, -0.3682868182659149, -0.3372102975845337, -0.3061337471008301, -0.27505719661712646, -0.24398067593574524, -0.21290412545204163, -0.1818275898694992, -0.1507510542869568, -0.11967451125383377, -0.08859796822071075, -0.057521432638168335, -0.026444893330335617, 0.004631645977497101, 0.03570818528532982, 0.06678472459316254, 0.09786126017570496, 0.12893781065940857, 0.160014346241951, 0.19109082221984863, 0.22216735780239105, 0.25324389338493347, 0.2843204438686371, 0.3153969645500183, 0.3464735150337219, 0.37755006551742554, 0.40862658619880676, 0.4397031366825104, 0.470779687166214, 0.5018562078475952, 0.5329327583312988, 0.5640093088150024, 0.595085859298706, 0.6261623501777649, 0.6572389006614685, 0.6883154511451721, 0.7193920016288757, 0.7504685521125793, 0.7815450429916382, 0.8126215934753418, 0.8436981439590454, 0.874774694442749, 0.9058512449264526, 0.9369277954101562, 0.9680042862892151, 0.9990808367729187, 1.0301573276519775, 1.0612338781356812, 1.0923104286193848, 1.1233869791030884, 1.154463529586792, 1.1855400800704956]}, "parameters/feed_forward.6.guard_dense.bias": {"_type": "histogram", "values": [1.0, 1.0, 0.0, 0.0, 0.0, 0.0, 0.0, 0.0, 1.0, 0.0, 0.0, 2.0, 2.0, 0.0, 0.0, 0.0, 0.0, 1.0, 0.0, 1.0, 2.0, 0.0, 0.0, 0.0, 1.0, 0.0, 1.0, 0.0, 0.0, 1.0, 2.0, 0.0, 0.0, 0.0, 0.0, 0.0, 0.0, 0.0, 0.0, 0.0, 0.0, 0.0, 0.0, 0.0, 0.0, 0.0, 0.0, 0.0, 0.0, 0.0, 0.0, 0.0, 0.0, 0.0, 0.0, 0.0, 0.0, 0.0, 0.0, 0.0, 0.0, 0.0, 0.0, 1.0], "bins": [-0.3429020345211029, -0.3251352310180664, -0.3073683977127075, -0.28960156440734863, -0.27183476090431213, -0.25406795740127563, -0.23630112409591675, -0.21853430569171906, -0.20076748728752136, -0.18300066888332367, -0.16523385047912598, -0.14746703207492828, -0.1297002136707306, -0.1119333952665329, -0.0941665768623352, -0.07639975845813751, -0.05863294005393982, -0.040866121649742126, -0.023099303245544434, -0.005332484841346741, 0.012434333562850952, 0.030201151967048645, 0.04796797037124634, 0.06573478877544403, 0.08350160717964172, 0.10126842558383942, 0.11903524398803711, 0.1368020623922348, 0.1545688807964325, 0.1723356992006302, 0.19010251760482788, 0.20786933600902557, 0.22563618421554565, 0.24340300261974335, 0.26116982102394104, 0.27893662452697754, 0.2967034578323364, 0.3144702911376953, 0.3322370946407318, 0.3500038981437683, 0.3677707314491272, 0.3855375647544861, 0.4033043682575226, 0.4210711717605591, 0.43883800506591797, 0.45660483837127686, 0.47437164187431335, 0.49213844537734985, 0.5099052786827087, 0.5276721119880676, 0.5454388856887817, 0.5632057189941406, 0.5809725522994995, 0.5987393856048584, 0.6165062189102173, 0.6342729926109314, 0.6520398259162903, 0.6698066592216492, 0.6875734329223633, 0.7053402662277222, 0.723107099533081, 0.7408739328384399, 0.7586407661437988, 0.7764075398445129, 0.7941743731498718]}, "gradients/feed_forward.6.guard_dense.bias": {"_type": "histogram", "values": [1.0, 5.0, 0.0, 0.0, 0.0, 1.0, 0.0, 0.0, 1.0, 0.0, 0.0, 0.0, 0.0, 0.0, 0.0, 1.0, 0.0, 1.0, 0.0, 1.0, 1.0, 1.0, 1.0, 0.0, 0.0, 0.0, 0.0, 0.0, 0.0, 0.0, 1.0, 0.0, 0.0, 0.0, 0.0, 0.0, 0.0, 0.0, 0.0, 0.0, 0.0, 0.0, 0.0, 0.0, 1.0, 0.0, 0.0, 0.0, 0.0, 0.0, 0.0, 0.0, 0.0, 0.0, 0.0, 0.0, 0.0, 0.0, 0.0, 0.0, 0.0, 0.0, 0.0, 1.0], "bins": [-1.175201447267682e-07, -5.662568725028905e-08, 4.2687702261900995e-09, 6.516322770266925e-08, 1.260576851791484e-07, 1.869521497610549e-07, 2.478466001321067e-07, 3.087410505031585e-07, 3.696355292959197e-07, 4.305299796669715e-07, 4.914244300380233e-07, 5.523189088307845e-07, 6.132133307801269e-07, 6.741078095728881e-07, 7.350022315222304e-07, 7.958967103149917e-07, 8.567911891077529e-07, 9.176856110570952e-07, 9.785801466932753e-07, 1.0394745686426177e-06, 1.10036899059196e-06, 1.1612634125413024e-06, 1.2221579481774825e-06, 1.2830523701268248e-06, 1.3439467920761672e-06, 1.4048413277123473e-06, 1.4657357496616896e-06, 1.526630171611032e-06, 1.587524707247212e-06, 1.6484191291965544e-06, 1.7093135511458968e-06, 1.7702080867820769e-06, 1.8311025087314192e-06, 1.8919969306807616e-06, 1.952891352630104e-06, 2.013785888266284e-06, 2.074680423902464e-06, 2.1355747321649687e-06, 2.196469267801149e-06, 2.257363803437329e-06, 2.3182581116998335e-06, 2.3791526473360136e-06, 2.4400471829721937e-06, 2.5009414912346983e-06, 2.5618360268708784e-06, 2.6227305625070585e-06, 2.683624870769563e-06, 2.744519406405743e-06, 2.805413714668248e-06, 2.866308250304428e-06, 2.927202785940608e-06, 2.9880970942031126e-06, 3.0489916298392927e-06, 3.109886165475473e-06, 3.1707804737379774e-06, 3.2316750093741575e-06, 3.2925695450103376e-06, 3.3534638532728422e-06, 3.4143583889090223e-06, 3.4752529245452024e-06, 3.536147232807707e-06, 3.597041768443887e-06, 3.657936304080067e-06, 3.718830612342572e-06, 3.779725147978752e-06]}, "gradients/feed_forward.6.guard_dense.weight": {"_type": "histogram", "values": [1.0, 0.0, 0.0, 0.0, 4.0, 3.0, 2.0, 6.0, 12.0, 17.0, 33.0, 69.0, 280.0, 2257.0, 246.0, 84.0, 49.0, 31.0, 20.0, 10.0, 10.0, 7.0, 4.0, 10.0, 4.0, 5.0, 6.0, 1.0, 3.0, 0.0, 3.0, 2.0, 1.0, 0.0, 1.0, 1.0, 2.0, 1.0, 2.0, 0.0, 0.0, 0.0, 0.0, 0.0, 0.0, 1.0, 2.0, 1.0, 0.0, 0.0, 1.0, 0.0, 1.0, 0.0, 0.0, 1.0, 0.0, 0.0, 0.0, 1.0, 0.0, 0.0, 0.0, 1.0], "bins": [-4.648809863283532e-06, -4.309555151849054e-06, -3.970299985667225e-06, -3.631045274232747e-06, -3.291790562798269e-06, -2.952535851363791e-06, -2.6132809125556378e-06, -2.2740259737474844e-06, -1.9347712623130064e-06, -1.5955164371916908e-06, -1.2562616120703751e-06, -9.170067869490595e-07, -5.777519618277438e-07, -2.3849713670642814e-07, 1.0075768841488753e-07, 4.400125135362032e-07, 7.792673386575188e-07, 1.1185221637788345e-06, 1.4577769889001502e-06, 1.7970318140214658e-06, 2.1362866391427815e-06, 2.4755413505772594e-06, 2.814796289385413e-06, 3.154051228193566e-06, 3.493305939628044e-06, 3.832560651062522e-06, 4.171815817244351e-06, 4.511070528678829e-06, 4.850325240113307e-06, 5.189579951547785e-06, 5.528834662982263e-06, 5.8680898291640915e-06, 6.20734499534592e-06, 6.546599706780398e-06, 6.885854418214876e-06, 7.225109584396705e-06, 7.564364295831183e-06, 7.903619007265661e-06, 8.24287417344749e-06, 8.582128430134617e-06, 8.921383596316446e-06, 9.260638762498274e-06, 9.599893019185401e-06, 9.93914818536723e-06, 1.0278403351549059e-05, 1.0617657608236186e-05, 1.0956912774418015e-05, 1.1296167031105142e-05, 1.1635422197286971e-05, 1.19746773634688e-05, 1.2313931620155927e-05, 1.2653186786337756e-05, 1.2992441043024883e-05, 1.3331696209206712e-05, 1.367095137538854e-05, 1.4010205632075667e-05, 1.4349460798257496e-05, 1.4688715964439325e-05, 1.5027970221126452e-05, 1.536722447781358e-05, 1.570648055349011e-05, 1.6045734810177237e-05, 1.6384989066864364e-05, 1.6724245142540894e-05, 1.706349939922802e-05]}, "gradients/feed_forward.4.bias": {"_type": "histogram", "values": [1.0, 0.0, 0.0, 0.0, 0.0, 0.0, 0.0, 1.0, 0.0, 2.0, 0.0, 1.0, 2.0, 1.0, 0.0, 0.0, 2.0, 1.0, 3.0, 1.0, 4.0, 2.0, 6.0, 2.0, 1.0, 4.0, 4.0, 6.0, 6.0, 9.0, 7.0, 9.0, 4.0, 8.0, 5.0, 12.0, 7.0, 8.0, 7.0, 7.0, 8.0, 8.0, 1.0, 7.0, 5.0, 3.0, 3.0, 4.0, 2.0, 2.0, 3.0, 0.0, 1.0, 1.0, 0.0, 0.0, 2.0, 1.0, 1.0, 0.0, 1.0, 0.0, 0.0, 2.0], "bins": [-3.238997123844456e-07, -3.1431889624400355e-07, -3.047380801035615e-07, -2.951572923848289e-07, -2.8557647624438687e-07, -2.7599566010394483e-07, -2.664148439635028e-07, -2.5683402782306075e-07, -2.4725324010432814e-07, -2.376724097530314e-07, -2.2809160782344406e-07, -2.1851079168300203e-07, -2.0892997554256e-07, -1.9934917361297266e-07, -1.8976835747253062e-07, -1.801875555429433e-07, -1.7060673940250126e-07, -1.6102592326205922e-07, -1.514451213324719e-07, -1.4186430519202986e-07, -1.3228350326244254e-07, -1.227026871220005e-07, -1.1312187098155846e-07, -1.0354106194654378e-07, -9.39602529115291e-08, -8.437944387651442e-08, -7.479863484149973e-08, -6.52178187010577e-08, -5.5637009666043014e-08, -4.605620063102833e-08, -3.647538804329997e-08, -2.689457723192845e-08, -1.731379484226636e-08, -7.73298403089484e-09, 1.8478267804766801e-09, 1.1428637591848201e-08, 2.100944840321972e-08, 3.05902574382344e-08, 4.017107002596276e-08, 4.975188261369112e-08, 5.9332691648705804e-08, 6.891350068372049e-08, 7.849430971873517e-08, 8.80751258591772e-08, 9.765593489419189e-08, 1.0723674392920657e-07, 1.1681756006964861e-07, 1.2639836199923593e-07, 1.3597917813967797e-07, 1.4555999428012e-07, 1.5514079620970733e-07, 1.6472161235014937e-07, 1.743024142797367e-07, 1.8388323042017873e-07, 1.9346404656062077e-07, 2.030448484902081e-07, 2.1262566463065014e-07, 2.2220648077109217e-07, 2.317872827006795e-07, 2.4136809884112154e-07, 2.509489149815636e-07, 2.605297311220056e-07, 2.701105188407382e-07, 2.7969133498118026e-07, 2.892721511216223e-07]}, "gradients/feed_forward.4.weight": {"_type": "histogram", "values": [1.0, 0.0, 0.0, 0.0, 1.0, 1.0, 0.0, 0.0, 1.0, 1.0, 2.0, 3.0, 1.0, 4.0, 1.0, 5.0, 9.0, 9.0, 14.0, 20.0, 33.0, 54.0, 78.0, 112.0, 199.0, 369.0, 683.0, 1586.0, 4645.0, 16249.0, 7115.0, 2111.0, 842.0, 457.0, 259.0, 137.0, 85.0, 69.0, 43.0, 28.0, 20.0, 18.0, 16.0, 7.0, 11.0, 10.0, 6.0, 5.0, 1.0, 4.0, 3.0, 3.0, 2.0, 3.0, 1.0, 2.0, 1.0, 0.0, 0.0, 2.0, 1.0, 0.0, 0.0, 1.0], "bins": [-1.28488636619295e-06, -1.2416086292432738e-06, -1.1983308922935976e-06, -1.1550532690307591e-06, -1.111775532081083e-06, -1.0684977951314067e-06, -1.0252200581817306e-06, -9.819423212320544e-07, -9.386646411257971e-07, -8.953869041761209e-07, -8.521092240698636e-07, -8.088314871201874e-07, -7.655537501705112e-07, -7.222760700642539e-07, -6.789983331145777e-07, -6.357206530083204e-07, -5.924429160586442e-07, -5.49165179108968e-07, -5.058874990027107e-07, -4.626097620530345e-07, -4.1933205352506775e-07, -3.76054344997101e-07, -3.327766080474248e-07, -2.8949889951945806e-07, -2.462211909914913e-07, -2.0294348246352456e-07, -1.596657597247031e-07, -1.1638804409130898e-07, -7.311032845791487e-08, -2.9832612824520766e-08, 1.3445102808873344e-08, 5.672281844226745e-08, 1.0000053407566156e-07, 1.4327824260362831e-07, 1.8655596534244978e-07, 2.2983368808127125e-07, 2.73111396609238e-07, 3.1638910513720475e-07, 3.5966684208688093e-07, 4.029445506148477e-07, 4.4622225914281444e-07, 4.894999960924906e-07, 5.327776761987479e-07, 5.760554131484241e-07, 6.193331500981003e-07, 6.626108302043576e-07, 7.058885671540338e-07, 7.491662472602911e-07, 7.924439842099673e-07, 8.357217211596435e-07, 8.789994012659008e-07, 9.22277138215577e-07, 9.655548183218343e-07, 1.0088325552715105e-06, 1.0521102922211867e-06, 1.0953880291708629e-06, 1.138665766120539e-06, 1.1819433893833775e-06, 1.2252211263330537e-06, 1.2684988632827299e-06, 1.311776600232406e-06, 1.3550543371820822e-06, 1.3983319604449207e-06, 1.4416096973945969e-06, 1.484887434344273e-06]}, "gradients/feed_forward.2.bias": {"_type": "histogram", "values": [1.0, 0.0, 0.0, 0.0, 0.0, 1.0, 0.0, 2.0, 0.0, 1.0, 3.0, 1.0, 2.0, 1.0, 4.0, 5.0, 6.0, 4.0, 1.0, 7.0, 4.0, 5.0, 6.0, 11.0, 8.0, 18.0, 12.0, 11.0, 8.0, 9.0, 6.0, 7.0, 5.0, 4.0, 4.0, 3.0, 3.0, 0.0, 4.0, 2.0, 3.0, 3.0, 4.0, 3.0, 1.0, 0.0, 0.0, 2.0, 1.0, 1.0, 0.0, 0.0, 0.0, 0.0, 0.0, 0.0, 0.0, 0.0, 0.0, 0.0, 0.0, 0.0, 0.0, 1.0], "bins": [-2.731958943513746e-07, -2.626304933528445e-07, -2.520650923543144e-07, -2.414996913557843e-07, -2.309342903572542e-07, -2.2036888935872412e-07, -2.0980348836019402e-07, -1.9923808736166393e-07, -1.8867268636313383e-07, -1.7810729957545846e-07, -1.6754189857692836e-07, -1.5697649757839827e-07, -1.4641109657986817e-07, -1.3584569558133808e-07, -1.2528029458280798e-07, -1.1471489358427789e-07, -1.041494925857478e-07, -9.35840915872177e-08, -8.30186905886876e-08, -7.245328959015751e-08, -6.188788859162742e-08, -5.1322491145811e-08, -4.0757093699994584e-08, -3.019169270146449e-08, -1.9626291702934395e-08, -9.06089159258272e-09, 1.5045085177689543e-09, 1.2069908628120629e-08, 2.2635308738472304e-08, 3.32007097370024e-08, 4.3766107182818814e-08, 5.433150818134891e-08, 6.4896909179879e-08, 7.54623101784091e-08, 8.602771117693919e-08, 9.659311217546929e-08, 1.0715851317399938e-07, 1.1772390706710212e-07, 1.2828931517105957e-07, 1.3885471616958966e-07, 1.4942011716811976e-07, 1.5998550395579514e-07, 1.7055090495432523e-07, 1.8111630595285533e-07, 1.9168170695138542e-07, 2.0224710794991552e-07, 2.128125089484456e-07, 2.233779099469757e-07, 2.339433109455058e-07, 2.445086977331812e-07, 2.550740987317113e-07, 2.6563949973024137e-07, 2.7620490072877146e-07, 2.8677030172730156e-07, 2.9733570272583165e-07, 3.0790110372436175e-07, 3.1846650472289184e-07, 3.2903190572142194e-07, 3.3959730671995203e-07, 3.501627077184821e-07, 3.607281087170122e-07, 3.712935097155423e-07, 3.818589107140724e-07, 3.924243117126025e-07, 4.029897127111326e-07]}, "gradients/feed_forward.2.weight": {"_type": "histogram", "values": [1.0, 0.0, 0.0, 2.0, 1.0, 0.0, 2.0, 1.0, 3.0, 7.0, 7.0, 22.0, 20.0, 38.0, 20.0, 52.0, 67.0, 77.0, 97.0, 121.0, 179.0, 217.0, 264.0, 366.0, 461.0, 574.0, 690.0, 961.0, 1159.0, 1511.0, 1781.0, 2182.0, 2680.0, 3265.0, 3863.0, 4149.0, 3448.0, 2922.0, 2349.0, 1934.0, 1539.0, 1202.0, 1059.0, 795.0, 604.0, 487.0, 312.0, 243.0, 172.0, 100.0, 63.0, 65.0, 40.0, 29.0, 20.0, 12.0, 16.0, 12.0, 14.0, 9.0, 6.0, 3.0, 2.0, 3.0], "bins": [-3.197378077857138e-07, -3.1062390348779445e-07, -3.015099991898751e-07, -2.9239609489195573e-07, -2.8328219059403636e-07, -2.74168286296117e-07, -2.6505438199819764e-07, -2.559404777002783e-07, -2.468265734023589e-07, -2.3771265489358484e-07, -2.2859875059566548e-07, -2.1948484629774612e-07, -2.1037092778897204e-07, -2.0125702349105268e-07, -1.9214311919313332e-07, -1.8302921489521395e-07, -1.739153105972946e-07, -1.6480140629937523e-07, -1.5568750200145587e-07, -1.465735977035365e-07, -1.3745969340561714e-07, -1.2834577489684307e-07, -1.192318705989237e-07, -1.1011796630100434e-07, -1.0100406200308498e-07, -9.189015770516562e-08, -8.277625340724626e-08, -7.366234200389954e-08, -6.454843770598018e-08, -5.5434533408060815e-08, -4.6320625557427775e-08, -3.7206717706794734e-08, -2.8092841830584803e-08, -1.89789357563086e-08, -9.8650296820324e-09, -7.511236077561989e-10, 8.362782466520002e-09, 1.7476688540796204e-08, 2.6590594615072405e-08, 3.5704502465705446e-08, 4.481840676362481e-08, 5.393231106154417e-08, 6.304621535946353e-08, 7.216012676281025e-08, 8.127403106072961e-08, 9.038793535864897e-08, 9.95018467619957e-08, 1.0861575105991506e-07, 1.1772965535783442e-07, 1.2684355965575378e-07, 1.3595746395367314e-07, 1.450713682515925e-07, 1.5418527254951186e-07, 1.6329919105828594e-07, 1.724130953562053e-07, 1.8152699965412467e-07, 1.9064090395204403e-07, 1.997548082499634e-07, 2.0886871254788275e-07, 2.179826168458021e-07, 2.270965353545762e-07, 2.3621043965249555e-07, 2.453243439504149e-07, 2.544382482483343e-07, 2.6355215254625364e-07]}, "gradients/feed_forward.0.weight_ih_l0": {"_type": "histogram", "values": [1.0, 0.0, 0.0, 0.0, 0.0, 0.0, 0.0, 0.0, 1.0, 1.0, 0.0, 1.0, 0.0, 0.0, 0.0, 0.0, 0.0, 0.0, 0.0, 0.0, 0.0, 0.0, 0.0, 0.0, 1.0, 1.0, 1.0, 1.0, 1.0, 1.0, 0.0, 0.0, 1.0, 2.0, 0.0, 3.0, 2.0, 2.0, 10.0, 2.0, 3.0, 13.0, 33.0, 147.0, 44.0, 12.0, 8.0, 3.0, 4.0, 2.0, 3.0, 3.0, 2.0, 0.0, 0.0, 1.0, 2.0, 0.0, 0.0, 1.0, 1.0, 0.0, 0.0, 1.0], "bins": [-6.507614216388902e-06, -6.358327482303139e-06, -6.209040748217376e-06, -6.059754014131613e-06, -5.91046728004585e-06, -5.761180545960087e-06, -5.6118938118743245e-06, -5.462607077788562e-06, -5.31332079845015e-06, -5.164034064364387e-06, -5.014747330278624e-06, -4.865460596192861e-06, -4.716173862107098e-06, -4.566887128021335e-06, -4.417600393935572e-06, -4.2683136598498095e-06, -4.119026925764047e-06, -3.969740191678284e-06, -3.820453457592521e-06, -3.671166723506758e-06, -3.521879989420995e-06, -3.3725934827089077e-06, -3.223306748623145e-06, -3.074020014537382e-06, -2.924733280451619e-06, -2.775446546365856e-06, -2.6261598122800933e-06, -2.4768730781943304e-06, -2.327586571482243e-06, -2.17829983739648e-06, -2.0290131033107173e-06, -1.8797263692249544e-06, -1.7304400898865424e-06, -1.5811533558007795e-06, -1.4318666217150167e-06, -1.2825800013160915e-06, -1.1332932672303286e-06, -9.840065331445658e-07, -8.347198559022218e-07, -6.854331786598777e-07, -5.361464445741149e-07, -3.868597389100614e-07, -2.3757303324600798e-07, -8.828632758195454e-08, 6.10003780820989e-08, 2.1028708374615235e-07, 3.595737894102058e-07, 5.088604666525498e-07, 6.581472007383127e-07, 8.074339348240755e-07, 9.567206689098384e-07, 1.1060072893087636e-06, 1.2552940233945264e-06, 1.4045807574802893e-06, 1.5538673778792145e-06, 1.7031541119649773e-06, 1.8524408460507402e-06, 2.001727580136503e-06, 2.151014314222266e-06, 2.300301048308029e-06, 2.4495875550201163e-06, 2.598874289105879e-06, 2.748161023191642e-06, 2.897447757277405e-06, 3.0467344913631678e-06]}, "gradients/feed_forward.0.bias_ih_l0": {"_type": "histogram", "values": [1.0, 0.0, 1.0, 0.0, 0.0, 0.0, 0.0, 0.0, 0.0, 0.0, 0.0, 0.0, 0.0, 0.0, 0.0, 0.0, 0.0, 0.0, 0.0, 0.0, 0.0, 0.0, 0.0, 1.0, 0.0, 0.0, 0.0, 0.0, 0.0, 1.0, 0.0, 0.0, 1.0, 1.0, 1.0, 0.0, 0.0, 0.0, 0.0, 1.0, 1.0, 1.0, 9.0, 10.0, 7.0, 1.0, 1.0, 2.0, 0.0, 1.0, 0.0, 0.0, 0.0, 1.0, 0.0, 1.0, 0.0, 0.0, 1.0, 0.0, 0.0, 0.0, 0.0, 1.0], "bins": [-4.017558239866048e-06, -3.925099463231163e-06, -3.832640686596278e-06, -3.740181909961393e-06, -3.647723133326508e-06, -3.555264356691623e-06, -3.462805580056738e-06, -3.370346803421853e-06, -3.277888026786968e-06, -3.1854290227784077e-06, -3.0929702461435227e-06, -3.0005114695086377e-06, -2.9080526928737527e-06, -2.8155939162388677e-06, -2.7231351396039827e-06, -2.6306763629690977e-06, -2.5382175863342127e-06, -2.4457588096993277e-06, -2.3533000330644427e-06, -2.2608412564295577e-06, -2.1683824797946727e-06, -2.0759237031597877e-06, -1.9834649265249027e-06, -1.89100603620318e-06, -1.798547259568295e-06, -1.70608848293341e-06, -1.613629706298525e-06, -1.52117092966364e-06, -1.4287120393419173e-06, -1.3362532627070323e-06, -1.2437944860721473e-06, -1.1513357094372623e-06, -1.0588771601760527e-06, -9.664183835411677e-07, -8.739596069062827e-07, -7.815007734279789e-07, -6.890419967930939e-07, -5.965832201582089e-07, -5.04124386679905e-07, -4.1166561004502e-07, -3.19206833410135e-07, -2.267480425643953e-07, -1.3428925171865558e-07, -4.1830460872915864e-08, 5.062832997282385e-08, 1.4308712081856356e-07, 2.3554591166430328e-07, 3.280047167208977e-07, 4.204634933557827e-07, 5.129222699906677e-07, 6.053810466255527e-07, 6.978398801038566e-07, 7.902986567387416e-07, 8.827574333736266e-07, 9.752162668519304e-07, 1.0676750434868154e-06, 1.1601338201217004e-06, 1.2525925967565854e-06, 1.3450513733914704e-06, 1.4375101500263554e-06, 1.5299690403480781e-06, 1.6224278169829631e-06, 1.7148865936178481e-06, 1.8073453702527331e-06, 1.8998041468876181e-06]}, "gradients/feed_forward.0.bias_ih_l1": {"_type": "histogram", "values": [1.0, 0.0, 0.0, 0.0, 0.0, 0.0, 0.0, 0.0, 0.0, 0.0, 0.0, 0.0, 0.0, 0.0, 0.0, 0.0, 0.0, 1.0, 0.0, 0.0, 0.0, 0.0, 0.0, 0.0, 1.0, 0.0, 3.0, 2.0, 8.0, 15.0, 4.0, 1.0, 0.0, 1.0, 0.0, 0.0, 1.0, 0.0, 1.0, 0.0, 0.0, 0.0, 1.0, 0.0, 0.0, 0.0, 1.0, 0.0, 0.0, 0.0, 0.0, 0.0, 0.0, 0.0, 0.0, 0.0, 0.0, 0.0, 2.0, 1.0, 0.0, 0.0, 0.0, 1.0], "bins": [-2.5936424208339304e-06, -2.505165866750758e-06, -2.416689312667586e-06, -2.3282127585844137e-06, -2.2397362045012414e-06, -2.1512596504180692e-06, -2.062783096334897e-06, -1.9743065422517247e-06, -1.8858298744817148e-06, -1.7973533203985426e-06, -1.7088767663153703e-06, -1.620400212232198e-06, -1.5319235444621881e-06, -1.443446990379016e-06, -1.3549704362958437e-06, -1.2664938822126715e-06, -1.1780173281294992e-06, -1.089540774046327e-06, -1.0010642199631548e-06, -9.125876090365637e-07, -8.241110549533914e-07, -7.356345008702192e-07, -6.471578899436281e-07, -5.586813358604559e-07, -4.7020478177728364e-07, -3.817282276941114e-07, -2.9325164518922975e-07, -2.047750768952028e-07, -1.1629850860117585e-07, -2.7821940307148907e-08, 6.065462798687804e-08, 1.49131196280905e-07, 2.3760799194860738e-07, 3.260845460317796e-07, 4.1456112853666127e-07, 5.030377110415429e-07, 5.915142651247152e-07, 6.799908192078874e-07, 7.684674301344785e-07, 8.569439842176507e-07, 9.45420538300823e-07, 1.0338970923839952e-06, 1.1223736464671674e-06, 1.2108502005503397e-06, 1.2993268683203496e-06, 1.3878034224035218e-06, 1.476279976486694e-06, 1.5647565305698663e-06, 1.6532330846530385e-06, 1.7417096387362108e-06, 1.830186192819383e-06, 1.9186627469025552e-06, 2.0071393009857275e-06, 2.0956158550688997e-06, 2.184092409152072e-06, 2.272568963235244e-06, 2.3610455173184164e-06, 2.449522298775264e-06, 2.5379988528584363e-06, 2.6264754069416085e-06, 2.7149519610247808e-06, 2.803428515107953e-06, 2.8919050691911252e-06, 2.9803816232742975e-06, 3.0688581773574697e-06]}, "gradients/feed_forward.0.bias_hh_l2": {"_type": "histogram", "values": [1.0, 0.0, 0.0, 0.0, 0.0, 0.0, 0.0, 0.0, 0.0, 0.0, 0.0, 1.0, 0.0, 0.0, 0.0, 0.0, 0.0, 1.0, 1.0, 0.0, 0.0, 0.0, 0.0, 1.0, 3.0, 0.0, 4.0, 3.0, 5.0, 10.0, 4.0, 3.0, 0.0, 3.0, 0.0, 2.0, 0.0, 0.0, 0.0, 0.0, 0.0, 0.0, 0.0, 0.0, 0.0, 0.0, 0.0, 0.0, 1.0, 0.0, 0.0, 1.0, 0.0, 0.0, 0.0, 0.0, 0.0, 0.0, 0.0, 0.0, 0.0, 0.0, 0.0, 1.0], "bins": [-1.2195035878903582e-06, -1.178065645035531e-06, -1.136627588493866e-06, -1.0951896456390386e-06, -1.0537517027842114e-06, -1.0123136462425464e-06, -9.708757033877191e-07, -9.29437703689473e-07, -8.879997039912269e-07, -8.465617042929807e-07, -8.051237045947346e-07, -7.636857617399073e-07, -7.222477620416612e-07, -6.808097623434151e-07, -6.393718194885878e-07, -5.979338197903417e-07, -5.564958200920955e-07, -5.150578203938494e-07, -4.736198491173127e-07, -4.32181877840776e-07, -3.9074387814252987e-07, -3.4930587844428374e-07, -3.0786790716774703e-07, -2.6642993589121033e-07, -2.249919361929642e-07, -1.835539507055728e-07, -1.4211596521818137e-07, -1.0067797973078996e-07, -5.923999424339854e-08, -1.7802008756007126e-08, 2.363597673138429e-08, 6.50739622187757e-08, 1.0651206139300484e-07, 1.4795004688039626e-07, 1.8938803236778767e-07, 2.308260178551791e-07, 2.722640033425705e-07, 3.1370200304081663e-07, 3.5513997431735334e-07, 3.9657794559389004e-07, 4.3801594529213617e-07, 4.794539449903823e-07, 5.208919446886284e-07, 5.623298875434557e-07, 6.037678872417018e-07, 6.45205886939948e-07, 6.866438297947752e-07, 7.280818294930214e-07, 7.695198291912675e-07, 8.109578288895136e-07, 8.523958285877598e-07, 8.93833771442587e-07, 9.352717711408332e-07, 9.767097708390793e-07, 1.0181477136939066e-06, 1.0595857702355715e-06, 1.1010237130903988e-06, 1.142461655945226e-06, 1.183899712486891e-06, 1.2253376553417183e-06, 1.2667755981965456e-06, 1.3082136547382106e-06, 1.3496515975930379e-06, 1.3910896541347029e-06, 1.4325275969895301e-06]}, "gradients/feed_forward.0.bias_ih_l2": {"_type": "histogram", "values": [1.0, 0.0, 0.0, 0.0, 0.0, 0.0, 0.0, 0.0, 0.0, 0.0, 0.0, 0.0, 0.0, 0.0, 0.0, 0.0, 0.0, 0.0, 2.0, 0.0, 0.0, 0.0, 0.0, 0.0, 0.0, 1.0, 0.0, 2.0, 3.0, 13.0, 13.0, 4.0, 1.0, 0.0, 1.0, 0.0, 0.0, 0.0, 0.0, 1.0, 0.0, 1.0, 0.0, 0.0, 0.0, 0.0, 1.0, 0.0, 0.0, 0.0, 0.0, 0.0, 0.0, 0.0, 0.0, 0.0, 0.0, 0.0, 0.0, 0.0, 0.0, 0.0, 0.0, 1.0], "bins": [-3.824489795078989e-06, -3.6972319321648683e-06, -3.569974296624423e-06, -3.4427164337103022e-06, -3.3154585707961814e-06, -3.188200935255736e-06, -3.0609430723416153e-06, -2.9336852094274946e-06, -2.8064273465133738e-06, -2.6791697109729284e-06, -2.5519118480588077e-06, -2.424653985144687e-06, -2.2973963496042415e-06, -2.1701384866901208e-06, -2.042880623776e-06, -1.9156229882355547e-06, -1.7883651253214339e-06, -1.6611073760941508e-06, -1.53384951318003e-06, -1.406591763952747e-06, -1.2793339010386262e-06, -1.1520761518113432e-06, -1.02481840258406e-06, -8.975605965133582e-07, -7.703027904426563e-07, -6.430449843719543e-07, -5.157871783012524e-07, -3.8852942907396937e-07, -2.6127162300326745e-07, -1.3401383114342025e-07, -6.756039283573045e-09, 1.2050175257627416e-07, 2.4775954443612136e-07, 3.750173505068233e-07, 5.022751565775252e-07, 6.295329058048083e-07, 7.567907118755102e-07, 8.840485179462121e-07, 1.0113062671734951e-06, 1.138564130087616e-06, 1.265821879314899e-06, 1.393079628542182e-06, 1.5203374914563028e-06, 1.6475952406835859e-06, 1.774852989910869e-06, 1.9021108528249897e-06, 2.0293687157391105e-06, 2.156626351279556e-06, 2.2838842141936766e-06, 2.4111420771077974e-06, 2.5383997126482427e-06, 2.6656575755623635e-06, 2.7929154384764843e-06, 2.9201730740169296e-06, 3.0474309369310504e-06, 3.174688799845171e-06, 3.3019464353856165e-06, 3.4292042982997373e-06, 3.556462161213858e-06, 3.683720024127979e-06, 3.810977659668424e-06, 3.9382352952088695e-06, 4.06549315812299e-06, 4.192751021037111e-06, 4.320008883951232e-06]}, "gradients/feed_forward.0.weight_hh_l2": {"_type": "histogram", "values": [1.0, 0.0, 0.0, 0.0, 0.0, 0.0, 0.0, 0.0, 0.0, 0.0, 1.0, 1.0, 1.0, 1.0, 1.0, 4.0, 0.0, 1.0, 0.0, 2.0, 4.0, 1.0, 3.0, 1.0, 5.0, 4.0, 4.0, 4.0, 9.0, 8.0, 7.0, 10.0, 17.0, 19.0, 40.0, 88.0, 200.0, 75.0, 40.0, 22.0, 16.0, 10.0, 9.0, 13.0, 3.0, 6.0, 4.0, 4.0, 6.0, 3.0, 7.0, 0.0, 4.0, 2.0, 1.0, 1.0, 3.0, 3.0, 2.0, 1.0, 1.0, 0.0, 0.0, 2.0], "bins": [-1.0242076768918196e-06, -9.96217067950056e-07, -9.682264590082923e-07, -9.402358500665287e-07, -9.12245241124765e-07, -8.842546321830014e-07, -8.562640232412377e-07, -8.282734142994741e-07, -8.002828053577105e-07, -7.722921964159468e-07, -7.443015874741832e-07, -7.163109785324195e-07, -6.883203695906559e-07, -6.603297606488923e-07, -6.323391517071286e-07, -6.04348542765365e-07, -5.763579338236013e-07, -5.483673248818377e-07, -5.203767159400741e-07, -4.923861069983104e-07, -4.643954980565468e-07, -4.3640488911478315e-07, -4.084142801730195e-07, -3.8042367123125587e-07, -3.5243306228949223e-07, -3.244424533477286e-07, -2.9645184440596495e-07, -2.684612354642013e-07, -2.4047062652243767e-07, -2.1248001758067403e-07, -1.844894086389104e-07, -1.5649879969714675e-07, -1.285081907553831e-07, -1.0051758181361947e-07, -7.252697287185583e-08, -4.453636393009219e-08, -1.6545754988328554e-08, 1.1444853953435086e-08, 3.9435462895198725e-08, 6.742607183696236e-08, 9.5416680778726e-08, 1.2340728972048964e-07, 1.5139789866225328e-07, 1.7938850760401692e-07, 2.0737911654578056e-07, 2.353697254875442e-07, 2.6336033442930784e-07, 2.913509433710715e-07, 3.193415523128351e-07, 3.4733216125459876e-07, 3.753227701963624e-07, 4.0331337913812604e-07, 4.313039880798897e-07, 4.592945970216533e-07, 4.87285205963417e-07, 5.152758149051806e-07, 5.432664238469442e-07, 5.712570327887079e-07, 5.992476417304715e-07, 6.272382506722352e-07, 6.552288596139988e-07, 6.832194685557624e-07, 7.112100774975261e-07, 7.392006864392897e-07, 7.671912953810534e-07]}, "gradients/feed_forward.0.weight_ih_l2": {"_type": "histogram", "values": [1.0, 0.0, 0.0, 0.0, 0.0, 0.0, 0.0, 0.0, 0.0, 0.0, 0.0, 0.0, 0.0, 0.0, 1.0, 1.0, 0.0, 0.0, 0.0, 0.0, 2.0, 1.0, 2.0, 0.0, 1.0, 0.0, 3.0, 5.0, 4.0, 9.0, 4.0, 7.0, 13.0, 5.0, 9.0, 9.0, 43.0, 340.0, 110.0, 27.0, 13.0, 12.0, 3.0, 8.0, 8.0, 8.0, 5.0, 5.0, 1.0, 4.0, 2.0, 0.0, 1.0, 2.0, 0.0, 1.0, 1.0, 0.0, 1.0, 0.0, 0.0, 0.0, 0.0, 3.0], "bins": [-3.5084701721643796e-06, -3.4153720207541483e-06, -3.322273869343917e-06, -3.2291757179336855e-06, -3.1360773391497787e-06, -3.0429791877395473e-06, -2.949881036329316e-06, -2.8567828849190846e-06, -2.7636847335088532e-06, -2.670586582098622e-06, -2.577488203314715e-06, -2.4843900519044837e-06, -2.3912919004942523e-06, -2.298193749084021e-06, -2.2050955976737896e-06, -2.1119974462635582e-06, -2.0188990674796514e-06, -1.92580091606942e-06, -1.8327027646591887e-06, -1.7396046132489573e-06, -1.646506461838726e-06, -1.5534081967416569e-06, -1.4603100453314255e-06, -1.3672118939211941e-06, -1.274113628824125e-06, -1.1810154774138937e-06, -1.0879173260036623e-06, -9.94819174593431e-07, -9.017209094963619e-07, -8.086227580861305e-07, -7.155245498324803e-07, -6.224263984222489e-07, -5.293281901685987e-07, -4.3623001033665787e-07, -3.4313183050471707e-07, -2.5003362225106684e-07, -1.5693544241912605e-07, -6.383725548175789e-08, 2.9260931455610262e-08, 1.2235912549840577e-07, 2.1545730533034657e-07, 3.0855548516228737e-07, 4.0165366499422817e-07, 4.947518732478784e-07, 5.878500815015286e-07, 6.8094823291176e-07, 7.740464411654102e-07, 8.671445925756416e-07, 9.602428008292918e-07, 1.0533409522395232e-06, 1.1464392173365923e-06, 1.2395373687468236e-06, 1.332635520157055e-06, 1.425733785254124e-06, 1.5188319366643555e-06, 1.6119300880745868e-06, 1.705028353171656e-06, 1.7981265045818873e-06, 1.8912246559921186e-06, 1.98432280740235e-06, 2.0774209588125814e-06, 2.170519337596488e-06, 2.2636174890067196e-06, 2.356715640416951e-06, 2.4498137918271823e-06]}, "gradients/feed_forward.0.weight_hh_l1": {"_type": "histogram", "values": [1.0, 0.0, 0.0, 0.0, 0.0, 0.0, 1.0, 0.0, 1.0, 0.0, 2.0, 0.0, 1.0, 0.0, 0.0, 0.0, 1.0, 0.0, 1.0, 1.0, 3.0, 2.0, 0.0, 1.0, 4.0, 8.0, 8.0, 2.0, 5.0, 7.0, 12.0, 12.0, 17.0, 32.0, 36.0, 130.0, 194.0, 62.0, 30.0, 30.0, 15.0, 12.0, 5.0, 0.0, 8.0, 7.0, 4.0, 3.0, 2.0, 3.0, 1.0, 0.0, 2.0, 0.0, 2.0, 2.0, 0.0, 0.0, 0.0, 2.0, 0.0, 1.0, 0.0, 2.0], "bins": [-1.3460081618177355e-06, -1.3087744719086913e-06, -1.2715408956864849e-06, -1.2343073194642784e-06, -1.1970736295552342e-06, -1.15983993964619e-06, -1.1226063634239836e-06, -1.085372787201777e-06, -1.048139097292733e-06, -1.0109054073836887e-06, -9.736718311614823e-07, -9.364381980958569e-07, -8.992045650302316e-07, -8.619709319646063e-07, -8.24737298898981e-07, -7.875036658333556e-07, -7.502700327677303e-07, -7.13036399702105e-07, -6.758027666364796e-07, -6.385691335708543e-07, -6.01335500505229e-07, -5.641018674396037e-07, -5.268682343739783e-07, -4.89634601308353e-07, -4.524009682427277e-07, -4.1516733517710236e-07, -3.7793370211147703e-07, -3.407000690458517e-07, -3.034664359802264e-07, -2.6623280291460105e-07, -2.2899916984897573e-07, -1.917655367833504e-07, -1.5453179003088735e-07, -1.1729815696526202e-07, -8.00645238996367e-08, -4.283089083401137e-08, -5.597257768386044e-09, 3.163637529723928e-08, 6.887000836286461e-08, 1.0610364142848994e-07, 1.4333727449411526e-07, 1.805709075597406e-07, 2.1780454062536592e-07, 2.5503817369099124e-07, 2.9227180675661657e-07, 3.295054398222419e-07, 3.667390728878672e-07, 4.0397270595349255e-07, 4.412063390191179e-07, 4.784399720847432e-07, 5.156736051503685e-07, 5.529072382159939e-07, 5.901408712816192e-07, 6.273745043472445e-07, 6.646081374128698e-07, 7.018417704784952e-07, 7.390754035441205e-07, 7.763090366097458e-07, 8.135426696753711e-07, 8.507763027409965e-07, 8.880099358066218e-07, 9.252435688722471e-07, 9.624772019378725e-07, 9.997108918469166e-07, 1.036944468069123e-06]}, "gradients/feed_forward.0.bias_hh_l1": {"_type": "histogram", "values": [1.0, 0.0, 0.0, 0.0, 0.0, 0.0, 0.0, 0.0, 0.0, 0.0, 0.0, 0.0, 0.0, 0.0, 0.0, 0.0, 0.0, 0.0, 0.0, 0.0, 0.0, 0.0, 0.0, 1.0, 0.0, 0.0, 0.0, 2.0, 1.0, 0.0, 2.0, 13.0, 7.0, 5.0, 4.0, 1.0, 0.0, 0.0, 1.0, 0.0, 2.0, 0.0, 0.0, 0.0, 0.0, 1.0, 0.0, 1.0, 0.0, 0.0, 0.0, 0.0, 0.0, 0.0, 0.0, 1.0, 1.0, 0.0, 0.0, 0.0, 0.0, 0.0, 0.0, 1.0], "bins": [-1.5436500007126597e-06, -1.4959123291191645e-06, -1.4481746575256693e-06, -1.4004369859321741e-06, -1.352699314338679e-06, -1.3049616427451838e-06, -1.2572239711516886e-06, -1.2094862995581934e-06, -1.1617486279646982e-06, -1.114010956371203e-06, -1.0662732847777079e-06, -1.0185356131842127e-06, -9.707979415907175e-07, -9.230602699972223e-07, -8.753225984037272e-07, -8.27584926810232e-07, -7.798472552167368e-07, -7.321095836232416e-07, -6.843719120297465e-07, -6.366342404362513e-07, -5.888965688427561e-07, -5.411588972492609e-07, -4.934212256557657e-07, -4.4568355406227056e-07, -3.979458824687754e-07, -3.502082108752802e-07, -3.02470539281785e-07, -2.5473286768828984e-07, -2.0699519609479466e-07, -1.5925752450129949e-07, -1.115198529078043e-07, -6.378218131430913e-08, -1.6044396033976227e-08, 3.169327555951895e-08, 7.943094715301413e-08, 1.271686187465093e-07, 1.749062903400045e-07, 2.2264396193349967e-07, 2.7038163352699485e-07, 3.1811930512049e-07, 3.658569767139852e-07, 4.135946483074804e-07, 4.6133231990097556e-07, 5.090699914944707e-07, 5.568076630879659e-07, 6.045453346814611e-07, 6.522830062749563e-07, 7.000206778684515e-07, 7.477583494619466e-07, 7.954960210554418e-07, 8.43233692648937e-07, 8.909713642424322e-07, 9.387090358359274e-07, 9.864467074294225e-07, 1.0341843790229177e-06, 1.0819220506164129e-06, 1.129659722209908e-06, 1.1773973938034032e-06, 1.2251350653968984e-06, 1.2728727369903936e-06, 1.3206104085838888e-06, 1.368348080177384e-06, 1.4160857517708791e-06, 1.4638234233643743e-06, 1.5115610949578695e-06]}, "gradients/feed_forward.0.weight_ih_l1": {"_type": "histogram", "values": [1.0, 0.0, 1.0, 0.0, 0.0, 0.0, 0.0, 0.0, 0.0, 0.0, 0.0, 0.0, 0.0, 1.0, 3.0, 1.0, 2.0, 3.0, 2.0, 2.0, 1.0, 2.0, 3.0, 3.0, 4.0, 1.0, 4.0, 5.0, 14.0, 8.0, 17.0, 16.0, 52.0, 305.0, 126.0, 24.0, 12.0, 8.0, 5.0, 5.0, 9.0, 6.0, 6.0, 4.0, 4.0, 2.0, 0.0, 1.0, 0.0, 2.0, 3.0, 0.0, 0.0, 1.0, 0.0, 0.0, 2.0, 1.0, 1.0, 1.0, 0.0, 0.0, 0.0, 1.0], "bins": [-2.923043439295725e-06, -2.8366357582854107e-06, -2.7502280772750964e-06, -2.6638206236384576e-06, -2.5774129426281434e-06, -2.491005261617829e-06, -2.404597580607515e-06, -2.3181898995972006e-06, -2.2317822185868863e-06, -2.1453747649502475e-06, -2.0589670839399332e-06, -1.972559402929619e-06, -1.8861517219193047e-06, -1.7997441545958281e-06, -1.7133364735855139e-06, -1.6269289062620373e-06, -1.540521225251723e-06, -1.4541135442414088e-06, -1.3677059769179323e-06, -1.281298295907618e-06, -1.1948907285841415e-06, -1.1084830475738272e-06, -1.022075366563513e-06, -9.356677423966175e-07, -8.492601182297221e-07, -7.628524940628267e-07, -6.764448698959313e-07, -5.900371888856171e-07, -5.036295647187217e-07, -4.1722194055182626e-07, -3.3081428796322143e-07, -2.444066353746166e-07, -1.5799923858139664e-07, -7.159160020364652e-08, 1.4816038174103596e-08, 1.0122367655185371e-07, 1.8763131492960383e-07, 2.7403893909649923e-07, 3.6044659168510407e-07, 4.468542442737089e-07, 5.332618684406043e-07, 6.196694926074997e-07, 7.060771167743951e-07, 7.924847977847094e-07, 8.788924219516048e-07, 9.653000461185002e-07, 1.0517077271288144e-06, 1.138115294452291e-06, 1.2245229754626052e-06, 1.3109306564729195e-06, 1.397338223796396e-06, 1.4837459048067103e-06, 1.5701534721301869e-06, 1.6565611531405011e-06, 1.7429688341508154e-06, 1.829376401474292e-06, 1.915784196171444e-06, 2.0021916498080827e-06, 2.088599330818397e-06, 2.1750070118287113e-06, 2.2614146928390255e-06, 2.3478223738493398e-06, 2.4342298274859786e-06, 2.520637508496293e-06, 2.607045189506607e-06]}, "gradients/feed_forward.0.weight_hh_l0": {"_type": "histogram", "values": [1.0, 0.0, 0.0, 1.0, 0.0, 1.0, 1.0, 0.0, 1.0, 2.0, 0.0, 0.0, 1.0, 1.0, 3.0, 2.0, 2.0, 0.0, 4.0, 5.0, 1.0, 2.0, 5.0, 9.0, 8.0, 11.0, 10.0, 13.0, 22.0, 50.0, 87.0, 208.0, 91.0, 45.0, 22.0, 8.0, 4.0, 15.0, 5.0, 8.0, 2.0, 2.0, 4.0, 5.0, 3.0, 4.0, 2.0, 0.0, 1.0, 1.0, 0.0, 1.0, 0.0, 0.0, 0.0, 0.0, 0.0, 0.0, 0.0, 0.0, 0.0, 0.0, 0.0, 1.0], "bins": [-1.336505306426261e-06, -1.2939885891682934e-06, -1.2514718719103257e-06, -1.208955154652358e-06, -1.1664384373943903e-06, -1.1239217201364227e-06, -1.081405002878455e-06, -1.0388882856204873e-06, -9.963714546756819e-07, -9.538547374177142e-07, -9.113380770031654e-07, -8.688213597451977e-07, -8.263045856438112e-07, -7.837878683858435e-07, -7.412711511278758e-07, -6.987544338699081e-07, -6.562377166119404e-07, -6.137209993539727e-07, -5.71204282096005e-07, -5.286875648380374e-07, -4.861708475800697e-07, -4.4365410190039256e-07, -4.0113735622071545e-07, -3.5862063896274776e-07, -3.161039217047801e-07, -2.735872044468124e-07, -2.3107047297799e-07, -1.885537415091676e-07, -1.460370242511999e-07, -1.0352029988780487e-07, -6.100357552440983e-08, -1.8486851161014783e-08, 2.402998688921798e-08, 6.654671125261302e-08, 1.0906343561600806e-07, 1.5158016708483046e-07, 1.9409688434279815e-07, 2.3661360160076583e-07, 2.7913034728044295e-07, 3.2164706453841063e-07, 3.641637817963783e-07, 4.06680499054346e-07, 4.491972163123137e-07, 4.917139335702814e-07, 5.342307076716679e-07, 5.767474249296356e-07, 6.192641421876033e-07, 6.61780859445571e-07, 7.042975767035387e-07, 7.468142939615063e-07, 7.89331011219474e-07, 8.318477284774417e-07, 8.743644457354094e-07, 9.168812198367959e-07, 9.593978802513448e-07, 1.0019145975093124e-06, 1.0444314284541178e-06, 1.0869481457120855e-06, 1.1294648629700532e-06, 1.171981580228021e-06, 1.2144982974859886e-06, 1.2570150147439563e-06, 1.299531732001924e-06, 1.3420484492598916e-06, 1.3845651665178593e-06]}, "gradients/feed_forward.0.bias_hh_l0": {"_type": "histogram", "values": [1.0, 0.0, 0.0, 0.0, 0.0, 0.0, 0.0, 0.0, 0.0, 0.0, 0.0, 0.0, 0.0, 0.0, 0.0, 0.0, 0.0, 0.0, 1.0, 0.0, 0.0, 0.0, 0.0, 0.0, 0.0, 0.0, 0.0, 0.0, 0.0, 0.0, 0.0, 1.0, 0.0, 0.0, 1.0, 0.0, 0.0, 2.0, 0.0, 0.0, 1.0, 3.0, 1.0, 0.0, 1.0, 2.0, 6.0, 3.0, 4.0, 9.0, 3.0, 0.0, 1.0, 0.0, 0.0, 1.0, 0.0, 0.0, 1.0, 1.0, 0.0, 1.0, 0.0, 1.0], "bins": [-2.026194124482572e-06, -1.9844901544274762e-06, -1.942786411746056e-06, -1.9010825553777977e-06, -1.8593785853227018e-06, -1.8176747289544437e-06, -1.7759708725861856e-06, -1.7342670162179274e-06, -1.6925631598496693e-06, -1.6508593034814112e-06, -1.6091553334263153e-06, -1.5674514770580572e-06, -1.525747620689799e-06, -1.484043764321541e-06, -1.4423399079532828e-06, -1.4006360515850247e-06, -1.3589321952167666e-06, -1.3172282251616707e-06, -1.2755243687934126e-06, -1.2338205124251544e-06, -1.1921166560568963e-06, -1.1504127996886382e-06, -1.10870894332038e-06, -1.0670049732652842e-06, -1.025301116897026e-06, -9.83597260528768e-07, -9.418934041605098e-07, -9.001895477922517e-07, -8.584856345805747e-07, -8.167817782123166e-07, -7.750779218440584e-07, -7.333740086323814e-07, -6.916701522641233e-07, -6.499662958958652e-07, -6.082623826841882e-07, -5.665585263159301e-07, -5.248546699476719e-07, -4.831507567359949e-07, -4.414469003677368e-07, -3.997430439994787e-07, -3.580391592095111e-07, -3.1633527441954357e-07, -2.7463141805128544e-07, -2.3292753326131788e-07, -1.9122366268220503e-07, -1.4951979210309219e-07, -1.0781591441855198e-07, -6.611203673401178e-08, -2.4408166154898936e-08, 1.7295707976927588e-08, 5.899958210875411e-08, 1.0070345979329431e-07, 1.4240733037240716e-07, 1.8411120095152e-07, 2.2581508574148756e-07, 2.675189421097457e-07, 3.0922282689971325e-07, 3.509267116896808e-07, 3.9263056805793894e-07, 4.343344528479065e-07, 4.7603833763787406e-07, 5.177421940061322e-07, 5.594460503743903e-07, 6.011499635860673e-07, 6.428538199543254e-07]}, "_wandb": {"runtime": 131}}