{"train_loss": 0.041064970597040416, "_timestamp": 1725259777.4369433, "_runtime": 151.319185256958, "_step": 845, "val_loss": 0.04006815716051138, "best_val_loss": 0.04001355013595177, "parameters/feed_forward.0.weight_ih_l0": {"_type": "histogram", "values": [1.0, 0.0, 0.0, 1.0, 0.0, 0.0, 0.0, 1.0, 0.0, 3.0, 4.0, 2.0, 1.0, 5.0, 1.0, 2.0, 3.0, 5.0, 4.0, 4.0, 4.0, 6.0, 7.0, 9.0, 7.0, 8.0, 6.0, 6.0, 9.0, 9.0, 9.0, 10.0, 14.0, 19.0, 20.0, 16.0, 9.0, 13.0, 18.0, 6.0, 12.0, 12.0, 10.0, 8.0, 7.0, 3.0, 2.0, 2.0, 4.0, 3.0, 2.0, 2.0, 1.0, 1.0, 0.0, 0.0, 0.0, 0.0, 0.0, 0.0, 3.0, 0.0, 0.0, 1.0], "bins": [-0.9823436737060547, -0.9533763527870178, -0.9244089722633362, -0.8954416513442993, -0.8664742708206177, -0.8375069499015808, -0.8085395693778992, -0.7795722484588623, -0.7506048679351807, -0.7216375470161438, -0.6926702260971069, -0.6637028455734253, -0.6347355246543884, -0.6057681441307068, -0.5768008232116699, -0.5478334426879883, -0.5188661217689514, -0.48989877104759216, -0.4609314203262329, -0.43196406960487366, -0.4029967188835144, -0.37402939796447754, -0.3450620472431183, -0.31609469652175903, -0.2871273458003998, -0.2581599950790405, -0.22919264435768127, -0.20022530853748322, -0.17125795781612396, -0.1422906070947647, -0.11332326382398605, -0.0843559205532074, -0.055388569831848145, -0.02642122283577919, 0.0025461241602897644, 0.03151347115635872, 0.06048081815242767, 0.08944816887378693, 0.11841551214456558, 0.14738285541534424, 0.1763502061367035, 0.20531755685806274, 0.234284907579422, 0.26325225830078125, 0.2922195792198181, 0.32118692994117737, 0.3501542806625366, 0.3791216313838959, 0.4080889821052551, 0.4370563328266144, 0.46602368354797363, 0.4949910342693329, 0.5239583849906921, 0.552925705909729, 0.5818930864334106, 0.6108604073524475, 0.6398277282714844, 0.668795108795166, 0.6977624297142029, 0.7267298102378845, 0.7556971311569214, 0.784664511680603, 0.8136318325996399, 0.8425992131233215, 0.8715665340423584]}, "parameters/feed_forward.0.weight_hh_l0": {"_type": "histogram", "values": [1.0, 0.0, 0.0, 1.0, 0.0, 0.0, 0.0, 0.0, 0.0, 0.0, 0.0, 2.0, 2.0, 3.0, 3.0, 0.0, 1.0, 1.0, 3.0, 6.0, 8.0, 11.0, 11.0, 20.0, 16.0, 9.0, 11.0, 25.0, 18.0, 23.0, 18.0, 32.0, 31.0, 21.0, 34.0, 35.0, 29.0, 34.0, 40.0, 28.0, 28.0, 29.0, 17.0, 24.0, 18.0, 15.0, 9.0, 9.0, 11.0, 7.0, 9.0, 3.0, 2.0, 5.0, 1.0, 2.0, 1.0, 1.0, 0.0, 3.0, 1.0, 1.0, 1.0, 1.0], "bins": [-1.1642590761184692, -1.132123351097107, -1.0999876260757446, -1.0678519010543823, -1.03571617603302, -1.0035804510116577, -0.9714446663856506, -0.9393089413642883, -0.907173216342926, -0.8750374913215637, -0.8429017663002014, -0.8107660412788391, -0.778630256652832, -0.7464945316314697, -0.7143588066101074, -0.6822230815887451, -0.6500873565673828, -0.6179516315460205, -0.5858159065246582, -0.5536801815032959, -0.5215444564819336, -0.4894087016582489, -0.4572729468345642, -0.4251372218132019, -0.3930014967918396, -0.3608657717704773, -0.328730046749115, -0.2965942919254303, -0.264458566904068, -0.2323228418827057, -0.2001871019601822, -0.1680513620376587, -0.13591551780700684, -0.10377978533506393, -0.07164405286312103, -0.03950832039117813, -0.0073725879192352295, 0.024763144552707672, 0.056898877024650574, 0.08903460949659348, 0.12117034196853638, 0.15330606698989868, 0.18544180691242218, 0.21757754683494568, 0.24971327185630798, 0.2818489968776703, 0.313984751701355, 0.3461204767227173, 0.3782562017440796, 0.4103919267654419, 0.4425276517868042, 0.4746634066104889, 0.5067991018295288, 0.5389348864555359, 0.5710706114768982, 0.6032063364982605, 0.6353420615196228, 0.6674777865409851, 0.6996135115623474, 0.7317492365837097, 0.7638850212097168, 0.7960207462310791, 0.8281564712524414, 0.8602921962738037, 0.892427921295166]}, "parameters/feed_forward.0.bias_ih_l0": {"_type": "histogram", "values": [1.0, 1.0, 0.0, 0.0, 0.0, 0.0, 0.0, 1.0, 1.0, 1.0, 1.0, 0.0, 1.0, 1.0, 2.0, 0.0, 0.0, 1.0, 1.0, 2.0, 1.0, 1.0, 2.0, 1.0, 0.0, 2.0, 0.0, 0.0, 1.0, 1.0, 0.0, 1.0, 1.0, 1.0, 0.0, 1.0, 1.0, 0.0, 0.0, 0.0, 0.0, 2.0, 1.0, 1.0, 1.0, 0.0, 1.0, 1.0, 1.0, 0.0, 1.0, 1.0, 1.0, 0.0, 0.0, 0.0, 1.0, 2.0, 1.0, 0.0, 0.0, 0.0, 0.0, 2.0], "bins": [-0.6858207583427429, -0.668713390827179, -0.6516059637069702, -0.6344985961914062, -0.6173912286758423, -0.6002838611602783, -0.5831764936447144, -0.5660690665245056, -0.5489616990089417, -0.5318543314933777, -0.514746904373169, -0.497639536857605, -0.480532169342041, -0.46342480182647705, -0.4463174045085907, -0.42921000719070435, -0.4121026396751404, -0.3949952721595764, -0.37788787484169006, -0.3607804775238037, -0.34367311000823975, -0.3265657424926758, -0.30945834517478943, -0.2923509478569031, -0.2752435803413391, -0.25813621282577515, -0.2410288155078888, -0.22392143309116364, -0.20681405067443848, -0.18970666825771332, -0.17259928584098816, -0.155491903424263, -0.13838449120521545, -0.1212771087884903, -0.10416972637176514, -0.08706234395503998, -0.06995496153831482, -0.05284757912158966, -0.0357401967048645, -0.018632814288139343, -0.0015254318714141846, 0.015581950545310974, 0.03268933296203613, 0.04979671537876129, 0.06690409779548645, 0.08401148021221161, 0.10111886262893677, 0.11822624504566193, 0.13533362746238708, 0.15244100987911224, 0.1695483922958374, 0.18665577471256256, 0.20376315712928772, 0.22087053954601288, 0.23797792196273804, 0.255085289478302, 0.27219268679618835, 0.2893000841140747, 0.30640745162963867, 0.32351481914520264, 0.340622216463089, 0.35772961378097534, 0.3748369812965393, 0.39194434881210327, 0.4090517461299896]}, "parameters/feed_forward.0.bias_hh_l0": {"_type": "histogram", "values": [1.0, 0.0, 0.0, 0.0, 0.0, 1.0, 0.0, 1.0, 0.0, 0.0, 0.0, 0.0, 0.0, 1.0, 2.0, 0.0, 1.0, 0.0, 1.0, 2.0, 0.0, 1.0, 0.0, 2.0, 0.0, 1.0, 0.0, 1.0, 2.0, 0.0, 0.0, 0.0, 0.0, 2.0, 1.0, 0.0, 2.0, 1.0, 2.0, 2.0, 1.0, 0.0, 0.0, 1.0, 0.0, 2.0, 0.0, 1.0, 0.0, 1.0, 2.0, 0.0, 0.0, 1.0, 0.0, 1.0, 3.0, 0.0, 0.0, 1.0, 0.0, 1.0, 0.0, 3.0], "bins": [-0.7903879284858704, -0.7722873687744141, -0.7541868090629578, -0.7360862493515015, -0.7179856896400452, -0.6998851299285889, -0.6817845702171326, -0.6636840105056763, -0.6455833911895752, -0.6274828314781189, -0.6093822717666626, -0.5912817120552063, -0.57318115234375, -0.5550805926322937, -0.5369800329208374, -0.5188794732093811, -0.5007789134979248, -0.4826783537864685, -0.4645777940750122, -0.4464772343635559, -0.4283766746520996, -0.4102760851383209, -0.3921755254268646, -0.3740749657154083, -0.355974406003952, -0.3378738462924957, -0.31977328658103943, -0.30167272686958313, -0.28357213735580444, -0.26547157764434814, -0.24737101793289185, -0.22927045822143555, -0.21116986870765686, -0.19306930899620056, -0.17496874928474426, -0.15686817467212677, -0.13876761496067047, -0.12066705524921417, -0.10256648808717728, -0.08446592092514038, -0.06636536121368408, -0.048264797776937485, -0.030164234340190887, -0.01206367090344429, 0.006036892533302307, 0.024137455970048904, 0.0422380194067955, 0.0603385828435421, 0.0784391462802887, 0.096539705991745, 0.11464027315378189, 0.1327408403158188, 0.15084140002727509, 0.16894195973873138, 0.18704253435134888, 0.20514309406280518, 0.22324365377426147, 0.24134421348571777, 0.2594447731971741, 0.27754533290863037, 0.29564589262008667, 0.31374648213386536, 0.33184704184532166, 0.34994760155677795, 0.36804816126823425]}, "parameters/feed_forward.0.weight_ih_l1": {"_type": "histogram", "values": [1.0, 0.0, 0.0, 0.0, 1.0, 0.0, 0.0, 0.0, 1.0, 0.0, 0.0, 2.0, 0.0, 1.0, 0.0, 1.0, 0.0, 4.0, 4.0, 7.0, 5.0, 10.0, 8.0, 8.0, 15.0, 17.0, 15.0, 29.0, 22.0, 25.0, 30.0, 30.0, 27.0, 34.0, 34.0, 38.0, 31.0, 38.0, 33.0, 24.0, 25.0, 26.0, 21.0, 25.0, 12.0, 15.0, 10.0, 7.0, 8.0, 4.0, 6.0, 6.0, 3.0, 4.0, 1.0, 1.0, 3.0, 0.0, 0.0, 2.0, 0.0, 0.0, 0.0, 1.0], "bins": [-1.4165937900543213, -1.3761355876922607, -1.3356773853302002, -1.2952191829681396, -1.254760980606079, -1.2143027782440186, -1.1738446950912476, -1.133386492729187, -1.0929282903671265, -1.052470088005066, -1.0120118856430054, -0.9715536832809448, -0.9310954809188843, -0.8906372785568237, -0.850179135799408, -0.8097209334373474, -0.7692627310752869, -0.7288045287132263, -0.6883463263511658, -0.64788818359375, -0.6074299812316895, -0.5669717788696289, -0.5265135765075684, -0.4860554039478302, -0.44559720158576965, -0.4051389992237091, -0.36468082666397095, -0.3242226243019104, -0.28376442193984985, -0.2433062493801117, -0.20284804701805115, -0.1623898595571518, -0.12193167209625244, -0.08147348463535309, -0.04101528972387314, -0.0005570985376834869, 0.039901092648506165, 0.08035928010940552, 0.12081747502088547, 0.16127566993236542, 0.20173385739326477, 0.24219204485416412, 0.2826502323150635, 0.323108434677124, 0.36356663703918457, 0.40402480959892273, 0.4444830119609833, 0.48494118452072144, 0.525399386882782, 0.5658575892448425, 0.6063157916069031, 0.6467739343643188, 0.6872321367263794, 0.7276903390884399, 0.7681485414505005, 0.808606743812561, 0.8490649461746216, 0.8895230889320374, 0.9299812912940979, 0.9704394936561584, 1.0108976364135742, 1.0513558387756348, 1.0918140411376953, 1.1322722434997559, 1.1727304458618164]}, "parameters/feed_forward.0.weight_hh_l1": {"_type": "histogram", "values": [1.0, 1.0, 4.0, 1.0, 4.0, 2.0, 2.0, 2.0, 4.0, 6.0, 7.0, 2.0, 7.0, 7.0, 14.0, 13.0, 19.0, 26.0, 16.0, 24.0, 30.0, 29.0, 39.0, 31.0, 45.0, 26.0, 38.0, 37.0, 33.0, 25.0, 26.0, 26.0, 24.0, 20.0, 18.0, 15.0, 10.0, 12.0, 6.0, 3.0, 4.0, 6.0, 5.0, 0.0, 0.0, 0.0, 0.0, 1.0, 1.0, 0.0, 1.0, 0.0, 0.0, 0.0, 0.0, 0.0, 0.0, 1.0, 0.0, 0.0, 0.0, 0.0, 0.0, 1.0], "bins": [-0.9317735433578491, -0.8963115811347961, -0.8608496189117432, -0.8253875970840454, -0.7899256348609924, -0.7544636726379395, -0.7190016508102417, -0.6835396885871887, -0.6480777263641357, -0.6126157641410828, -0.5771538019180298, -0.541691780090332, -0.506229817867279, -0.4707678556442261, -0.4353058636188507, -0.39984387159347534, -0.36438190937042236, -0.3289199471473694, -0.293457955121994, -0.25799596309661865, -0.22253400087356567, -0.1870720237493515, -0.15161004662513733, -0.11614806950092316, -0.08068609237670898, -0.04522411525249481, -0.00976213812828064, 0.025699838995933533, 0.061161816120147705, 0.09662379324436188, 0.13208577036857605, 0.16754774749279022, 0.20300984382629395, 0.23847182095050812, 0.2739337980747223, 0.30939579010009766, 0.34485775232315063, 0.3803197145462036, 0.415781706571579, 0.45124369859695435, 0.4867056608200073, 0.5221676230430603, 0.5576295852661133, 0.593091607093811, 0.628553569316864, 0.664015531539917, 0.6994775533676147, 0.7349395155906677, 0.7704014778137207, 0.8058634400367737, 0.8413254022598267, 0.8767874240875244, 0.9122493863105774, 0.9477113485336304, 0.9831733703613281, 1.0186352729797363, 1.054097294807434, 1.0895593166351318, 1.12502121925354, 1.1604832410812378, 1.1959452629089355, 1.2314071655273438, 1.2668691873550415, 1.3023310899734497, 1.3377931118011475]}, "parameters/feed_forward.0.bias_ih_l1": {"_type": "histogram", "values": [1.0, 0.0, 0.0, 0.0, 0.0, 0.0, 0.0, 0.0, 0.0, 0.0, 0.0, 1.0, 0.0, 0.0, 1.0, 1.0, 0.0, 0.0, 2.0, 1.0, 1.0, 1.0, 1.0, 0.0, 0.0, 0.0, 0.0, 1.0, 0.0, 1.0, 0.0, 1.0, 2.0, 0.0, 3.0, 0.0, 1.0, 0.0, 1.0, 2.0, 1.0, 3.0, 0.0, 1.0, 0.0, 1.0, 2.0, 2.0, 0.0, 1.0, 0.0, 1.0, 0.0, 0.0, 0.0, 2.0, 1.0, 0.0, 1.0, 1.0, 3.0, 1.0, 0.0, 2.0], "bins": [-0.7650789022445679, -0.7490293383598328, -0.7329798340797424, -0.7169302701950073, -0.700880765914917, -0.6848312020301819, -0.6687816977500916, -0.6527321338653564, -0.6366826295852661, -0.620633065700531, -0.6045835018157959, -0.5885339975357056, -0.5724844336509705, -0.5564349293708801, -0.540385365486145, -0.5243358612060547, -0.5082862973213196, -0.49223676323890686, -0.47618722915649414, -0.4601376950740814, -0.4440881609916687, -0.4280385971069336, -0.4119890630245209, -0.39593952894210815, -0.37988999485969543, -0.3638404607772827, -0.34779092669487, -0.3317413926124573, -0.31569182872772217, -0.29964229464530945, -0.28359276056289673, -0.267543226480484, -0.2514936327934265, -0.2354440987110138, -0.21939456462860107, -0.20334501564502716, -0.18729548156261444, -0.17124594748020172, -0.1551963984966278, -0.1391468644142151, -0.12309733033180237, -0.10704779624938965, -0.09099825471639633, -0.07494871318340302, -0.058899179100990295, -0.04284964129328728, -0.02680010348558426, -0.01075056567788124, 0.005298972129821777, 0.021348509937524796, 0.037398047745227814, 0.05344758555293083, 0.06949712336063385, 0.08554665744304657, 0.10159619897603989, 0.1176457405090332, 0.13369527459144592, 0.14974480867385864, 0.16579434275627136, 0.18184389173984528, 0.197893425822258, 0.21394295990467072, 0.22999250888824463, 0.24604204297065735, 0.26209157705307007]}, "parameters/feed_forward.0.bias_hh_l1": {"_type": "histogram", "values": [2.0, 1.0, 1.0, 0.0, 0.0, 1.0, 0.0, 1.0, 0.0, 1.0, 2.0, 0.0, 0.0, 0.0, 0.0, 0.0, 0.0, 2.0, 1.0, 0.0, 2.0, 0.0, 0.0, 2.0, 0.0, 0.0, 2.0, 5.0, 1.0, 2.0, 1.0, 3.0, 1.0, 1.0, 0.0, 1.0, 0.0, 2.0, 1.0, 1.0, 0.0, 0.0, 1.0, 0.0, 1.0, 2.0, 1.0, 1.0, 0.0, 0.0, 0.0, 0.0, 0.0, 0.0, 0.0, 1.0, 0.0, 0.0, 0.0, 0.0, 0.0, 0.0, 0.0, 1.0], "bins": [-0.7113011479377747, -0.6886829137802124, -0.6660646796226501, -0.6434465050697327, -0.6208282709121704, -0.5982100367546082, -0.5755918025970459, -0.5529736280441284, -0.5303553938865662, -0.5077371597290039, -0.48511892557144165, -0.4625007212162018, -0.4398824870586395, -0.41726428270339966, -0.3946460485458374, -0.37202784419059753, -0.3494096100330353, -0.326791375875473, -0.30417317152023315, -0.2815549373626709, -0.25893673300743103, -0.23631849884986877, -0.2137002795934677, -0.19108206033706665, -0.1684638410806656, -0.14584562182426453, -0.12322740256786346, -0.1006091758608818, -0.07799095660448074, -0.05537273734807968, -0.03275451436638832, -0.01013629324734211, 0.012481927871704102, 0.035100147128105164, 0.057718370109796524, 0.08033659309148788, 0.10295481234788895, 0.1255730390548706, 0.14819125831127167, 0.17080947756767273, 0.1934276968240738, 0.21604591608047485, 0.23866413533687592, 0.261282354593277, 0.28390058875083923, 0.3065187931060791, 0.32913702726364136, 0.3517552316188812, 0.3743734657764435, 0.39699169993400574, 0.4196099042892456, 0.44222813844680786, 0.46484634280204773, 0.48746457695961, 0.5100827813148499, 0.5327010154724121, 0.5553192496299744, 0.5779374837875366, 0.6005556583404541, 0.6231738924980164, 0.6457921266555786, 0.6684103608131409, 0.6910285353660583, 0.7136467695236206, 0.7362650036811829]}, "parameters/feed_forward.0.weight_ih_l2": {"_type": "histogram", "values": [1.0, 0.0, 0.0, 1.0, 0.0, 0.0, 0.0, 0.0, 0.0, 0.0, 0.0, 0.0, 0.0, 2.0, 1.0, 5.0, 3.0, 5.0, 5.0, 9.0, 6.0, 11.0, 13.0, 15.0, 12.0, 24.0, 23.0, 22.0, 27.0, 35.0, 31.0, 26.0, 41.0, 29.0, 33.0, 21.0, 26.0, 37.0, 36.0, 33.0, 22.0, 23.0, 18.0, 15.0, 10.0, 13.0, 8.0, 7.0, 0.0, 3.0, 6.0, 4.0, 3.0, 4.0, 1.0, 0.0, 2.0, 0.0, 0.0, 1.0, 1.0, 0.0, 0.0, 1.0], "bins": [-1.1990201473236084, -1.165058970451355, -1.131097674369812, -1.0971364974975586, -1.0631752014160156, -1.0292140245437622, -0.9952528476715088, -0.9612916111946106, -0.9273303747177124, -0.8933691382408142, -0.859407901763916, -0.8254467248916626, -0.7914854884147644, -0.7575242519378662, -0.7235630750656128, -0.6896018385887146, -0.6556406021118164, -0.6216793656349182, -0.58771812915802, -0.5537569522857666, -0.5197957158088684, -0.4858344793319702, -0.4518732726573944, -0.4179120659828186, -0.3839508295059204, -0.3499895930290222, -0.3160283863544464, -0.2820671796798706, -0.2481059432029724, -0.2141447216272354, -0.1801835000514984, -0.1462222784757614, -0.11226093769073486, -0.07829971611499786, -0.044338494539260864, -0.010377272963523865, 0.023583948612213135, 0.057545170187950134, 0.09150639176368713, 0.12546761333942413, 0.15942883491516113, 0.19339005649089813, 0.22735127806663513, 0.26131248474121094, 0.29527372121810913, 0.3292349576950073, 0.36319616436958313, 0.39715737104415894, 0.43111860752105713, 0.4650798439979553, 0.49904105067253113, 0.5330022573471069, 0.5669634938240051, 0.6009247303009033, 0.6348859071731567, 0.6688471436500549, 0.7028083801269531, 0.7367696166038513, 0.7707308530807495, 0.8046920299530029, 0.8386532664299011, 0.8726145029067993, 0.9065756797790527, 0.9405369162559509, 0.9744981527328491]}, "parameters/feed_forward.0.weight_hh_l2": {"_type": "histogram", "values": [1.0, 0.0, 0.0, 0.0, 0.0, 0.0, 2.0, 1.0, 0.0, 0.0, 2.0, 2.0, 3.0, 4.0, 4.0, 4.0, 4.0, 8.0, 14.0, 16.0, 16.0, 17.0, 31.0, 29.0, 18.0, 31.0, 27.0, 22.0, 27.0, 38.0, 45.0, 35.0, 40.0, 29.0, 24.0, 19.0, 29.0, 15.0, 17.0, 13.0, 14.0, 17.0, 9.0, 10.0, 8.0, 5.0, 4.0, 4.0, 4.0, 1.0, 3.0, 2.0, 0.0, 0.0, 0.0, 3.0, 3.0, 0.0, 0.0, 0.0, 0.0, 0.0, 0.0, 1.0], "bins": [-1.0218185186386108, -0.9875531196594238, -0.9532877802848816, -0.9190223813056946, -0.8847569823265076, -0.8504916429519653, -0.8162262439727783, -0.7819608449935913, -0.7476954460144043, -0.7134301066398621, -0.679164707660675, -0.644899308681488, -0.6106339693069458, -0.5763685703277588, -0.5421031713485718, -0.5078378319740295, -0.47357243299484253, -0.4393070638179779, -0.4050416648387909, -0.37077629566192627, -0.33651089668273926, -0.30224552750587463, -0.26798015832901, -0.2337147742509842, -0.19944939017295837, -0.16518400609493256, -0.13091862201690674, -0.09665325284004211, -0.062387868762016296, -0.028122488409280777, 0.006142891943454742, 0.04040827229619026, 0.07467365264892578, 0.1089390367269516, 0.14320442080497742, 0.17746978998184204, 0.21173517405986786, 0.24600055813789368, 0.2802659273147583, 0.3145313262939453, 0.34879669547080994, 0.38306206464767456, 0.4173274636268616, 0.4515928328037262, 0.4858582019805908, 0.5201236009597778, 0.5543889999389648, 0.5886543393135071, 0.6229197382926941, 0.6571851372718811, 0.6914504766464233, 0.7257158756256104, 0.7599812746047974, 0.7942466139793396, 0.8285120129585266, 0.8627774119377136, 0.8970427513122559, 0.9313081502914429, 0.9655735492706299, 0.9998389482498169, 1.034104347229004, 1.0683696269989014, 1.1026350259780884, 1.1369004249572754, 1.1711658239364624]}, "parameters/feed_forward.0.bias_ih_l2": {"_type": "histogram", "values": [1.0, 0.0, 0.0, 0.0, 0.0, 0.0, 0.0, 0.0, 1.0, 1.0, 0.0, 0.0, 0.0, 0.0, 0.0, 0.0, 1.0, 2.0, 0.0, 0.0, 0.0, 1.0, 1.0, 0.0, 0.0, 0.0, 0.0, 1.0, 1.0, 1.0, 1.0, 1.0, 1.0, 1.0, 1.0, 1.0, 1.0, 1.0, 2.0, 0.0, 3.0, 0.0, 0.0, 3.0, 2.0, 1.0, 1.0, 2.0, 2.0, 0.0, 0.0, 1.0, 1.0, 0.0, 1.0, 1.0, 1.0, 0.0, 1.0, 2.0, 0.0, 0.0, 1.0, 1.0], "bins": [-0.867367148399353, -0.8490868806838989, -0.8308066129684448, -0.8125263452529907, -0.7942460179328918, -0.7759657502174377, -0.7576854825019836, -0.7394052147865295, -0.7211249470710754, -0.7028446793556213, -0.6845643520355225, -0.6662840843200684, -0.6480038166046143, -0.6297235488891602, -0.611443281173706, -0.593163013458252, -0.5748827457427979, -0.556602418422699, -0.5383221507072449, -0.5200418829917908, -0.5017616152763367, -0.4834813177585602, -0.4652010500431061, -0.446920782327652, -0.4286404848098755, -0.4103602170944214, -0.3920799493789673, -0.3737996816635132, -0.3555193841457367, -0.3372391164302826, -0.3189588487148285, -0.300678551197052, -0.2823982834815979, -0.2641180157661438, -0.2458377331495285, -0.2275574505329132, -0.2092771828174591, -0.1909969002008438, -0.17271661758422852, -0.15443634986877441, -0.13615606725215912, -0.11787579208612442, -0.09959551692008972, -0.08131523430347443, -0.06303495913743973, -0.04475468397140503, -0.026474405080080032, -0.008194128051400185, 0.010086148977279663, 0.02836642600595951, 0.04664670303463936, 0.06492698192596436, 0.08320725709199905, 0.10148753225803375, 0.11976781487464905, 0.13804808259010315, 0.15632836520671844, 0.17460864782333374, 0.19288891553878784, 0.21116919815540314, 0.22944948077201843, 0.24772974848747253, 0.26601001620292664, 0.2842903137207031, 0.3025705814361572]}, "parameters/feed_forward.0.bias_hh_l2": {"_type": "histogram", "values": [1.0, 0.0, 1.0, 0.0, 0.0, 1.0, 1.0, 0.0, 0.0, 0.0, 1.0, 0.0, 1.0, 0.0, 0.0, 0.0, 0.0, 0.0, 0.0, 1.0, 1.0, 1.0, 0.0, 0.0, 0.0, 1.0, 0.0, 1.0, 0.0, 0.0, 1.0, 2.0, 1.0, 0.0, 1.0, 0.0, 0.0, 2.0, 1.0, 0.0, 2.0, 1.0, 2.0, 0.0, 1.0, 1.0, 1.0, 2.0, 2.0, 1.0, 0.0, 0.0, 1.0, 1.0, 1.0, 0.0, 0.0, 1.0, 1.0, 2.0, 0.0, 2.0, 2.0, 2.0], "bins": [-0.7840858101844788, -0.7690738439559937, -0.7540618777275085, -0.7390499711036682, -0.7240380048751831, -0.709026038646698, -0.6940140724182129, -0.6790021061897278, -0.6639901995658875, -0.6489782333374023, -0.6339662671089172, -0.6189543008804321, -0.603942334651947, -0.5889304280281067, -0.5739184617996216, -0.5589064955711365, -0.5438945293426514, -0.5288825631141663, -0.5138706564903259, -0.4988586902618408, -0.4838467240333557, -0.468834787607193, -0.4538228213787079, -0.4388108551502228, -0.42379891872406006, -0.40878695249557495, -0.39377501606941223, -0.3787630498409271, -0.363751083612442, -0.3487391471862793, -0.3337271809577942, -0.31871524453163147, -0.303703248500824, -0.28869131207466125, -0.27367934584617615, -0.2586674094200134, -0.24365544319152832, -0.2286434918642044, -0.2136315405368805, -0.19861958920955658, -0.18360763788223267, -0.16859567165374756, -0.15358372032642365, -0.13857176899909973, -0.12355981767177582, -0.10854785889387131, -0.0935359075665474, -0.07852394878864288, -0.06351199746131897, -0.04850004240870476, -0.033488087356090546, -0.018476136028766632, -0.00346418097615242, 0.011547773145139217, 0.026559727266430855, 0.04157168045639992, 0.05658363550901413, 0.07159558683633804, 0.08660754561424255, 0.10161949694156647, 0.11663144826889038, 0.1316433995962143, 0.1466553658246994, 0.16166731715202332, 0.17667926847934723]}, "parameters/feed_forward.2.weight": {"_type": "histogram", "values": [1.0, 1.0, 1.0, 2.0, 5.0, 2.0, 4.0, 1.0, 6.0, 8.0, 11.0, 12.0, 11.0, 33.0, 36.0, 47.0, 62.0, 82.0, 88.0, 116.0, 186.0, 219.0, 354.0, 497.0, 745.0, 1002.0, 1482.0, 2075.0, 3021.0, 4065.0, 4893.0, 5111.0, 4608.0, 3655.0, 2655.0, 2032.0, 1432.0, 1001.0, 718.0, 509.0, 396.0, 283.0, 227.0, 130.0, 138.0, 84.0, 57.0, 58.0, 29.0, 28.0, 20.0, 16.0, 12.0, 7.0, 4.0, 8.0, 4.0, 2.0, 2.0, 1.0, 1.0, 1.0, 1.0, 2.0], "bins": [-1.063128113746643, -1.0288643836975098, -0.9946005940437317, -0.9603368043899536, -0.9260730743408203, -0.8918092846870422, -0.8575454950332642, -0.8232817649841309, -0.7890179753303528, -0.7547541856765747, -0.7204904556274414, -0.6862266659736633, -0.6519628763198853, -0.617699146270752, -0.5834353566169739, -0.5491716265678406, -0.5149078369140625, -0.4806440770626068, -0.4463803172111511, -0.41211652755737305, -0.37785276770591736, -0.34358900785446167, -0.3093252182006836, -0.2750614583492279, -0.24079769849777222, -0.20653393864631653, -0.17227016389369965, -0.13800638914108276, -0.10374262928962708, -0.06947886198759079, -0.035215094685554504, -0.000951327383518219, 0.033312320709228516, 0.0675760880112648, 0.10183985531330109, 0.13610363006591797, 0.17036738991737366, 0.20463114976882935, 0.23889492452144623, 0.2731586992740631, 0.3074224591255188, 0.3416862189769745, 0.3759499788284302, 0.41021376848220825, 0.44447752833366394, 0.47874128818511963, 0.5130050778388977, 0.547268807888031, 0.5815325975418091, 0.6157963871955872, 0.6500601172447205, 0.6843239068984985, 0.7185876369476318, 0.7528514266014099, 0.787115216255188, 0.8213789463043213, 0.8556427359580994, 0.8899065256118774, 0.9241702556610107, 0.9584340453147888, 0.9926978349685669, 1.0269615650177002, 1.0612252950668335, 1.0954891443252563, 1.1297528743743896]}, "parameters/feed_forward.2.bias": {"_type": "histogram", "values": [1.0, 3.0, 0.0, 2.0, 2.0, 3.0, 3.0, 4.0, 6.0, 6.0, 6.0, 3.0, 5.0, 7.0, 7.0, 11.0, 5.0, 2.0, 4.0, 2.0, 5.0, 5.0, 2.0, 5.0, 1.0, 3.0, 3.0, 3.0, 7.0, 6.0, 4.0, 2.0, 6.0, 12.0, 4.0, 8.0, 3.0, 4.0, 2.0, 7.0, 2.0, 2.0, 3.0, 2.0, 0.0, 1.0, 0.0, 2.0, 0.0, 0.0, 0.0, 0.0, 0.0, 1.0, 0.0, 0.0, 0.0, 0.0, 0.0, 0.0, 0.0, 0.0, 0.0, 1.0], "bins": [-0.3220003843307495, -0.3126137852668762, -0.30322718620300293, -0.29384058713912964, -0.28445398807525635, -0.27506741881370544, -0.26568081974983215, -0.25629422068595886, -0.24690762162208557, -0.23752102255821228, -0.228134423494339, -0.2187478393316269, -0.2093612402677536, -0.1999746412038803, -0.1905880570411682, -0.18120145797729492, -0.17181485891342163, -0.16242825984954834, -0.15304166078567505, -0.14365507662296295, -0.13426847755908966, -0.12488187849521637, -0.11549528688192368, -0.10610869526863098, -0.09672209620475769, -0.0873354971408844, -0.0779489055275917, -0.06856231391429901, -0.05917571485042572, -0.04978911951184273, -0.040402524173259735, -0.031015928834676743, -0.02162933349609375, -0.012242738157510757, -0.002856142818927765, 0.006530452519655228, 0.01591704785823822, 0.025303643196821213, 0.034690238535404205, 0.0440768338739872, 0.05346342921257019, 0.06285002827644348, 0.07223661988973618, 0.08162321150302887, 0.09100981056690216, 0.10039640963077545, 0.10978300124406815, 0.11916959285736084, 0.12855619192123413, 0.13794279098510742, 0.1473293900489807, 0.1567159742116928, 0.1661025732755661, 0.1754891723394394, 0.1848757565021515, 0.19426235556602478, 0.20364895462989807, 0.21303555369377136, 0.22242215275764465, 0.23180873692035675, 0.24119533598423004, 0.25058192014694214, 0.25996851921081543, 0.2693551182746887, 0.278741717338562]}, "parameters/feed_forward.4.weight": {"_type": "histogram", "values": [1.0, 1.0, 3.0, 2.0, 1.0, 4.0, 2.0, 10.0, 3.0, 1.0, 10.0, 9.0, 10.0, 17.0, 15.0, 34.0, 24.0, 54.0, 64.0, 93.0, 130.0, 199.0, 231.0, 339.0, 512.0, 715.0, 1057.0, 1428.0, 2144.0, 2795.0, 3320.0, 3620.0, 3680.0, 3371.0, 2855.0, 2242.0, 1755.0, 1248.0, 979.0, 673.0, 462.0, 331.0, 248.0, 180.0, 125.0, 84.0, 58.0, 51.0, 33.0, 32.0, 19.0, 17.0, 12.0, 15.0, 9.0, 8.0, 1.0, 3.0, 3.0, 1.0, 0.0, 0.0, 0.0, 1.0], "bins": [-0.9766637682914734, -0.9460681080818176, -0.9154724478721619, -0.8848768472671509, -0.8542811870574951, -0.8236855268478394, -0.7930898666381836, -0.7624942064285278, -0.7318985462188721, -0.7013029456138611, -0.6707072854042053, -0.6401116251945496, -0.6095159649848938, -0.578920304775238, -0.548324704170227, -0.5177290439605713, -0.4871333837509155, -0.45653772354125977, -0.4259420931339264, -0.39534643292427063, -0.36475080251693726, -0.3341551423072815, -0.30355948209762573, -0.27296385169029236, -0.2423681914806366, -0.21177254617214203, -0.18117690086364746, -0.1505812406539917, -0.11998559534549713, -0.08938995003700256, -0.0587942972779274, -0.028198648244142532, 0.002397000789642334, 0.0329926498234272, 0.06358829885721207, 0.09418395161628723, 0.1247795969247818, 0.15537524223327637, 0.18597090244293213, 0.2165665477514267, 0.24716219305992126, 0.277757853269577, 0.3083534836769104, 0.33894914388656616, 0.3695448040962219, 0.4001404345035553, 0.43073609471321106, 0.46133172512054443, 0.4919273853302002, 0.522523045539856, 0.5531187057495117, 0.5837143063545227, 0.6143099665641785, 0.6449056267738342, 0.67550128698349, 0.7060969471931458, 0.7366925477981567, 0.7672882080078125, 0.7978838682174683, 0.828479528427124, 0.8590751886367798, 0.8896708488464355, 0.9202664494514465, 0.9508621096611023, 0.9814577698707581]}, "parameters/feed_forward.4.bias": {"_type": "histogram", "values": [1.0, 0.0, 0.0, 0.0, 0.0, 0.0, 0.0, 0.0, 0.0, 0.0, 1.0, 1.0, 1.0, 0.0, 0.0, 0.0, 0.0, 3.0, 0.0, 0.0, 4.0, 0.0, 1.0, 2.0, 3.0, 2.0, 7.0, 4.0, 7.0, 3.0, 14.0, 6.0, 8.0, 6.0, 7.0, 9.0, 14.0, 10.0, 5.0, 3.0, 3.0, 4.0, 8.0, 5.0, 3.0, 3.0, 4.0, 6.0, 3.0, 4.0, 1.0, 4.0, 4.0, 1.0, 1.0, 2.0, 1.0, 0.0, 2.0, 2.0, 1.0, 0.0, 2.0, 2.0], "bins": [-0.44062721729278564, -0.4308779537677765, -0.42112869024276733, -0.4113794267177582, -0.401630163192749, -0.39188089966773987, -0.3821316361427307, -0.37238237261772156, -0.3626331090927124, -0.35288384556770325, -0.3431345820426941, -0.33338531851768494, -0.3236360549926758, -0.3138867914676666, -0.30413752794265747, -0.2943882644176483, -0.28463900089263916, -0.2748897671699524, -0.26514050364494324, -0.2553912401199341, -0.24564196169376373, -0.23589269816875458, -0.22614343464374542, -0.21639417111873627, -0.2066449224948883, -0.19689565896987915, -0.18714639544487, -0.17739713191986084, -0.16764786839485168, -0.15789860486984253, -0.14814934134483337, -0.13840007781982422, -0.12865079939365387, -0.11890153586864471, -0.10915227234363556, -0.0994030088186264, -0.08965374529361725, -0.07990448921918869, -0.07015522569417953, -0.06040596216917038, -0.050656698644161224, -0.04090743511915207, -0.031158173456788063, -0.021408911794424057, -0.011659648269414902, -0.001910385675728321, 0.00783887691795826, 0.017588138580322266, 0.02733740210533142, 0.037086665630340576, 0.04683592915534973, 0.05658518895506859, 0.06633445620536804, 0.0760837122797966, 0.08583297580480576, 0.09558223932981491, 0.10533150285482407, 0.11508076637983322, 0.12483002990484238, 0.13457928597927094, 0.1443285495042801, 0.15407781302928925, 0.1638270765542984, 0.17357634007930756, 0.1833256036043167]}, "parameters/feed_forward.6.guard_dense.weight": {"_type": "histogram", "values": [1.0, 0.0, 0.0, 0.0, 0.0, 0.0, 0.0, 0.0, 1.0, 0.0, 0.0, 0.0, 0.0, 1.0, 0.0, 2.0, 1.0, 0.0, 0.0, 0.0, 1.0, 0.0, 0.0, 2.0, 1.0, 2.0, 5.0, 3.0, 2.0, 0.0, 2.0, 6.0, 1.0, 6.0, 6.0, 9.0, 11.0, 21.0, 29.0, 37.0, 44.0, 72.0, 115.0, 240.0, 200.0, 141.0, 100.0, 57.0, 59.0, 38.0, 22.0, 21.0, 31.0, 11.0, 4.0, 3.0, 1.0, 2.0, 1.0, 0.0, 1.0, 1.0, 1.0, 1.0], "bins": [-1.5059834718704224, -1.4717199802398682, -1.4374566078186035, -1.4031931161880493, -1.3689296245574951, -1.3346662521362305, -1.3004027605056763, -1.266139268875122, -1.2318758964538574, -1.1976124048233032, -1.163348913192749, -1.1290854215621948, -1.0948220491409302, -1.060558557510376, -1.0262950658798218, -0.9920316338539124, -0.9577682018280029, -0.9235047698020935, -0.8892412781715393, -0.8549778461456299, -0.8207143545150757, -0.7864509224891663, -0.7521874904632568, -0.7179239988327026, -0.6836605668067932, -0.6493971347808838, -0.6151336431503296, -0.5808702111244202, -0.5466067790985107, -0.5123432874679565, -0.4780798554420471, -0.4438163936138153, -0.40955281257629395, -0.37528935074806213, -0.3410258889198303, -0.3067624568939209, -0.2724989950656891, -0.23823553323745728, -0.20397208631038666, -0.16970863938331604, -0.13544517755508423, -0.10118172317743301, -0.0669182687997818, -0.032654814422130585, 0.0016086399555206299, 0.035872094333171844, 0.07013554871082306, 0.10439900308847427, 0.1386624574661255, 0.1729259192943573, 0.20718936622142792, 0.24145281314849854, 0.27571627497673035, 0.30997973680496216, 0.3442431688308716, 0.3785066306591034, 0.4127700924873352, 0.447033554315567, 0.48129701614379883, 0.5155604481697083, 0.5498238801956177, 0.5840873718261719, 0.6183508038520813, 0.6526142954826355, 0.6868777275085449]}, "parameters/feed_forward.6.guard_dense.bias": {"_type": "histogram", "values": [1.0, 0.0, 0.0, 0.0, 0.0, 0.0, 0.0, 0.0, 0.0, 0.0, 0.0, 0.0, 0.0, 1.0, 0.0, 0.0, 0.0, 0.0, 0.0, 0.0, 1.0, 0.0, 0.0, 0.0, 0.0, 0.0, 0.0, 0.0, 0.0, 0.0, 0.0, 0.0, 0.0, 1.0, 0.0, 0.0, 0.0, 0.0, 0.0, 0.0, 0.0, 0.0, 1.0, 0.0, 0.0, 0.0, 0.0, 0.0, 0.0, 0.0, 0.0, 1.0, 0.0, 0.0, 0.0, 0.0, 0.0, 0.0, 0.0, 0.0, 0.0, 0.0, 0.0, 1.0], "bins": [-0.26884859800338745, -0.2639237940311432, -0.2589990198612213, -0.25407421588897705, -0.24914944171905518, -0.2442246526479721, -0.23929986357688904, -0.23437507450580597, -0.2294502854347229, -0.22452549636363983, -0.21960070729255676, -0.2146759182214737, -0.20975112915039062, -0.20482634007930756, -0.1999015510082245, -0.19497676193714142, -0.19005197286605835, -0.1851271688938141, -0.18020237982273102, -0.17527759075164795, -0.17035280168056488, -0.1654280126094818, -0.16050322353839874, -0.15557843446731567, -0.1506536453962326, -0.14572885632514954, -0.14080406725406647, -0.1358792781829834, -0.13095448911190033, -0.12602970004081726, -0.12110491096973419, -0.11618012189865112, -0.11125532537698746, -0.10633053630590439, -0.10140574723482132, -0.09648095816373825, -0.09155616909265518, -0.08663138002157211, -0.08170659095048904, -0.07678180187940598, -0.07185700535774231, -0.06693221628665924, -0.06200743094086647, -0.0570826418697834, -0.052157849073410034, -0.047233060002326965, -0.042308270931243896, -0.03738348186016083, -0.03245869278907776, -0.02753390371799469, -0.02260911464691162, -0.017684323713183403, -0.012759534642100334, -0.007834745571017265, -0.002909955568611622, 0.0020148339681327343, 0.0069396235048770905, 0.01186441257596016, 0.016789201647043228, 0.021713992580771446, 0.026638781651854515, 0.03156357258558273, 0.0364883616566658, 0.04141315072774887, 0.04633793979883194]}, "gradients/feed_forward.6.guard_dense.bias": {"_type": "histogram", "values": [1.0, 0.0, 0.0, 0.0, 0.0, 0.0, 0.0, 0.0, 0.0, 0.0, 0.0, 0.0, 0.0, 0.0, 0.0, 0.0, 0.0, 0.0, 0.0, 0.0, 0.0, 0.0, 0.0, 0.0, 0.0, 1.0, 2.0, 0.0, 0.0, 0.0, 1.0, 0.0, 0.0, 0.0, 0.0, 0.0, 0.0, 0.0, 0.0, 0.0, 0.0, 0.0, 1.0, 0.0, 0.0, 0.0, 0.0, 0.0, 0.0, 0.0, 0.0, 0.0, 0.0, 0.0, 0.0, 0.0, 0.0, 0.0, 0.0, 0.0, 0.0, 0.0, 0.0, 1.0], "bins": [-0.0001445212255930528, -0.00013910260167904198, -0.0001336839923169464, -0.00012826536840293556, -0.00012284674448892474, -0.00011742813512682915, -0.00011200951121281832, -0.00010659089457476512, -0.00010117227793671191, -9.57536612986587e-05, -9.033504466060549e-05, -8.491642074659467e-05, -7.949780410854146e-05, -7.407918747048825e-05, -6.866056355647743e-05, -6.324194691842422e-05, -5.782333028037101e-05, -5.24047136423178e-05, -4.6986093366285786e-05, -4.156747309025377e-05, -3.614885645220056e-05, -3.073023981414735e-05, -2.5311619538115337e-05, -1.9893001081072725e-05, -1.4474382624030113e-05, -9.055764166987501e-06, -3.637145709944889e-06, 1.7814727470977232e-06, 7.200091204140335e-06, 1.2618709661182947e-05, 1.803732811822556e-05, 2.3455946575268172e-05, 2.8874550480395555e-05, 3.4293167118448764e-05, 3.971178739448078e-05, 4.5130407670512795e-05, 5.0549024308566004e-05, 5.596764094661921e-05, 6.138626486063004e-05, 6.680488149868324e-05, 7.222349813673645e-05, 7.764211477478966e-05, 8.306073141284287e-05, 8.847935532685369e-05, 9.38979719649069e-05, 9.931658860296011e-05, 0.00010473521251697093, 0.00011015382915502414, 0.00011557244579307735, 0.00012099106243113056, 0.00012640967906918377, 0.0001318283029831946, 0.00013724691234529018, 0.000142665536259301, 0.00014808416017331183, 0.00015350276953540742, 0.00015892139344941825, 0.00016434001736342907, 0.00016975862672552466, 0.0001751772506395355, 0.0001805958745535463, 0.0001860144839156419, 0.00019143310782965273, 0.00019685171719174832, 0.00020227034110575914]}, "gradients/feed_forward.6.guard_dense.weight": {"_type": "histogram", "values": [1.0, 0.0, 0.0, 0.0, 0.0, 0.0, 0.0, 0.0, 0.0, 1.0, 1.0, 2.0, 0.0, 1.0, 1.0, 0.0, 0.0, 2.0, 1.0, 1.0, 2.0, 2.0, 3.0, 4.0, 37.0, 50.0, 149.0, 835.0, 100.0, 83.0, 8.0, 4.0, 8.0, 4.0, 2.0, 1.0, 0.0, 0.0, 2.0, 2.0, 0.0, 0.0, 1.0, 1.0, 0.0, 1.0, 2.0, 0.0, 0.0, 0.0, 1.0, 1.0, 1.0, 0.0, 0.0, 0.0, 0.0, 0.0, 0.0, 0.0, 0.0, 0.0, 0.0, 1.0], "bins": [-0.000561266322620213, -0.000540932931471616, -0.000520599540323019, -0.000500266149174422, -0.000479932758025825, -0.000459599366877228, -0.000439265975728631, -0.000418932584580034, -0.000398599193431437, -0.00037826577317900956, -0.00035793238203041255, -0.00033759899088181555, -0.00031726559973321855, -0.00029693220858462155, -0.00027659881743602455, -0.00025626542628742754, -0.00023593203513883054, -0.00021559864399023354, -0.00019526525284163654, -0.00017493186169303954, -0.00015459847054444253, -0.0001342650648439303, -0.0001139316736953333, -9.35982825467363e-05, -7.32648913981393e-05, -5.2931500249542296e-05, -3.259810546296649e-05, -1.2264712495380081e-05, 8.068680472206324e-06, 2.840207343979273e-05, 4.8735466407379135e-05, 6.906886119395494e-05, 8.940225234255195e-05, 0.00010973564349114895, 0.00013006903463974595, 0.00015040242578834295, 0.00017073581693693995, 0.00019106922263745219, 0.0002114026137860492, 0.0002317360049346462, 0.00025206938153132796, 0.0002724028017837554, 0.0002927361929323524, 0.0003130695840809494, 0.00033340297522954643, 0.00035373636637814343, 0.00037406975752674043, 0.00039440314867533743, 0.00041473653982393444, 0.00043506993097253144, 0.00045540332212112844, 0.00047573671326972544, 0.0004960701335221529, 0.0005164035246707499, 0.0005367369158193469, 0.0005570703069679439, 0.0005774036981165409, 0.0005977370892651379, 0.0006180704804137349, 0.0006384038715623319, 0.0006587372627109289, 0.0006790706538595259, 0.0006994040450081229, 0.0007197374361567199, 0.0007400708273053169]}, "gradients/feed_forward.4.bias": {"_type": "histogram", "values": [1.0, 0.0, 0.0, 0.0, 0.0, 0.0, 0.0, 0.0, 0.0, 0.0, 0.0, 0.0, 0.0, 0.0, 0.0, 2.0, 0.0, 2.0, 1.0, 4.0, 1.0, 0.0, 0.0, 1.0, 2.0, 2.0, 5.0, 14.0, 25.0, 76.0, 25.0, 7.0, 5.0, 5.0, 0.0, 0.0, 1.0, 0.0, 0.0, 1.0, 0.0, 0.0, 1.0, 0.0, 1.0, 0.0, 0.0, 0.0, 0.0, 0.0, 1.0, 0.0, 1.0, 0.0, 1.0, 0.0, 1.0, 1.0, 0.0, 0.0, 0.0, 0.0, 0.0, 1.0], "bins": [-3.291384200565517e-05, -3.180634303134866e-05, -3.069884405704215e-05, -2.9591346901725046e-05, -2.8483847927418537e-05, -2.737634895311203e-05, -2.626884997880552e-05, -2.516135100449901e-05, -2.4053853849181905e-05, -2.2946354874875396e-05, -2.1838855900568888e-05, -2.073135692626238e-05, -1.962385795195587e-05, -1.851635897764936e-05, -1.7408861822332256e-05, -1.6301362848025747e-05, -1.5193863873719238e-05, -1.4086364899412729e-05, -1.2978866834600922e-05, -1.1871367860294413e-05, -1.0763869795482606e-05, -9.656370821176097e-06, -8.548871846869588e-06, -7.44137332731043e-06, -6.333874807751272e-06, -5.226376288192114e-06, -4.118877768632956e-06, -3.011378794326447e-06, -1.903880274767289e-06, -7.963816415212932e-07, 3.1111699172470253e-07, 1.4186156249706983e-06, 2.526114258216694e-06, 3.633612777775852e-06, 4.74111129733501e-06, 5.848610271641519e-06, 6.956108791200677e-06, 8.063607310759835e-06, 9.171106285066344e-06, 1.0278604349878151e-05, 1.138610332418466e-05, 1.2493602298491169e-05, 1.3601100363302976e-05, 1.4708599337609485e-05, 1.5816098311915994e-05, 1.6923597286222503e-05, 1.8031094441539608e-05, 1.9138593415846117e-05, 2.0246092390152626e-05, 2.1353591364459135e-05, 2.2461090338765644e-05, 2.356858749408275e-05, 2.4676086468389258e-05, 2.5783585442695767e-05, 2.6891084417002276e-05, 2.7998583391308784e-05, 2.9106082365615293e-05, 3.02135795209324e-05, 3.132108031422831e-05, 3.242857565055601e-05, 3.353607462486252e-05, 3.464357359916903e-05, 3.575107257347554e-05, 3.685857154778205e-05, 3.796607052208856e-05]}, "gradients/feed_forward.4.weight": {"_type": "histogram", "values": [1.0, 0.0, 0.0, 1.0, 0.0, 1.0, 0.0, 0.0, 1.0, 0.0, 0.0, 1.0, 0.0, 0.0, 0.0, 1.0, 3.0, 2.0, 2.0, 3.0, 6.0, 7.0, 6.0, 6.0, 7.0, 12.0, 8.0, 11.0, 43.0, 85.0, 512.0, 879.0, 29022.0, 4043.0, 364.0, 114.0, 51.0, 39.0, 27.0, 10.0, 17.0, 11.0, 6.0, 5.0, 7.0, 4.0, 3.0, 1.0, 2.0, 3.0, 1.0, 4.0, 0.0, 0.0, 1.0, 3.0, 3.0, 0.0, 1.0, 1.0, 0.0, 2.0, 0.0, 1.0], "bins": [-0.00010039415792562068, -9.733556362334639e-05, -9.42769693210721e-05, -9.12183677428402e-05, -8.815977344056591e-05, -8.510117913829163e-05, -8.204258483601734e-05, -7.898399053374305e-05, -7.592538895551115e-05, -7.286679465323687e-05, -6.980820035096258e-05, -6.674960604868829e-05, -6.3691011746414e-05, -6.063241380616091e-05, -5.7573819503886625e-05, -5.451522156363353e-05, -5.1456627261359245e-05, -4.839803295908496e-05, -4.5339435018831864e-05, -4.228084071655758e-05, -3.9222242776304483e-05, -3.61636484740302e-05, -3.310505417175591e-05, -3.004645805049222e-05, -2.698786192922853e-05, -2.392926580796484e-05, -2.087066968670115e-05, -1.7812075384426862e-05, -1.4753479263163172e-05, -1.1694883141899481e-05, -8.636287930130493e-06, -5.5776922636141535e-06, -2.5191038730554283e-06, 5.394917934609111e-07, 3.5980874599772505e-06, 6.65668312649359e-06, 9.71527879300993e-06, 1.277387491427362e-05, 1.5832469216547906e-05, 1.8891065337811597e-05, 2.1949661459075287e-05, 2.5008257580338977e-05, 2.8066853701602668e-05, 3.1125448003876954e-05, 3.418404230615124e-05, 3.7242640246404335e-05, 4.030123454867862e-05, 4.3359832488931715e-05, 4.6418426791206e-05, 4.947702109348029e-05, 5.253561903373338e-05, 5.559421333600767e-05, 5.8652811276260763e-05, 6.171140557853505e-05, 6.476999988080934e-05, 6.782859418308362e-05, 7.088719576131552e-05, 7.394579006358981e-05, 7.70043843658641e-05, 8.006297866813838e-05, 8.312157297041267e-05, 8.618016727268696e-05, 8.923876885091886e-05, 9.229736315319315e-05, 9.535595745546743e-05]}, "gradients/feed_forward.2.bias": {"_type": "histogram", "values": [1.0, 0.0, 0.0, 0.0, 0.0, 0.0, 0.0, 0.0, 0.0, 0.0, 0.0, 0.0, 0.0, 0.0, 0.0, 0.0, 0.0, 1.0, 1.0, 0.0, 0.0, 0.0, 0.0, 0.0, 0.0, 0.0, 0.0, 0.0, 1.0, 0.0, 0.0, 3.0, 0.0, 0.0, 1.0, 1.0, 3.0, 14.0, 112.0, 22.0, 6.0, 3.0, 1.0, 2.0, 1.0, 4.0, 0.0, 0.0, 2.0, 0.0, 3.0, 1.0, 0.0, 1.0, 0.0, 0.0, 0.0, 1.0, 1.0, 0.0, 1.0, 0.0, 0.0, 1.0], "bins": [-7.752820965833962e-05, -7.552110764663666e-05, -7.351401291089132e-05, -7.150691817514598e-05, -6.949981616344303e-05, -6.749271415174007e-05, -6.548561941599473e-05, -6.347852468024939e-05, -6.147142266854644e-05, -5.946432429482229e-05, -5.745722592109814e-05, -5.5450127547373995e-05, -5.344302917364985e-05, -5.14359307999257e-05, -4.942883242620155e-05, -4.7421734052477404e-05, -4.541463567875326e-05, -4.340753730502911e-05, -4.140043893130496e-05, -3.9393340557580814e-05, -3.7386242183856666e-05, -3.537914381013252e-05, -3.337204543640837e-05, -3.136494706268422e-05, -2.9357848688960075e-05, -2.7350750315235928e-05, -2.534365194151178e-05, -2.3336553567787632e-05, -2.1329455194063485e-05, -1.9322356820339337e-05, -1.731525844661519e-05, -1.530816007289104e-05, -1.3301058061188087e-05, -1.129395968746394e-05, -9.286861313739792e-06, -7.279762940015644e-06, -5.272664566291496e-06, -3.2655661925673485e-06, -1.2584678188432008e-06, 7.486305548809469e-07, 2.7557289286050946e-06, 4.762827302329242e-06, 6.76992567605339e-06, 8.777024049777538e-06, 1.0784122423501685e-05, 1.2791220797225833e-05, 1.479831917094998e-05, 1.6805417544674128e-05, 1.8812515918398276e-05, 2.0819614292122424e-05, 2.282671266584657e-05, 2.483381103957072e-05, 2.6840909413294867e-05, 2.8848007787019014e-05, 3.085510616074316e-05, 3.286220453446731e-05, 3.486930290819146e-05, 3.6876401281915605e-05, 3.888349965563975e-05, 4.08905980293639e-05, 4.289769640308805e-05, 4.4904794776812196e-05, 4.6911893150536343e-05, 4.891899152426049e-05, 5.092608989798464e-05]}, "gradients/feed_forward.2.weight": {"_type": "histogram", "values": [1.0, 3.0, 4.0, 7.0, 8.0, 19.0, 24.0, 25.0, 30.0, 29.0, 38.0, 46.0, 55.0, 65.0, 72.0, 116.0, 127.0, 158.0, 189.0, 294.0, 420.0, 726.0, 1828.0, 31754.0, 4110.0, 845.0, 409.0, 214.0, 184.0, 124.0, 73.0, 44.0, 31.0, 19.0, 23.0, 22.0, 18.0, 14.0, 15.0, 19.0, 13.0, 7.0, 10.0, 10.0, 7.0, 5.0, 4.0, 8.0, 1.0, 1.0, 4.0, 3.0, 4.0, 10.0, 2.0, 1.0, 3.0, 1.0, 0.0, 2.0, 1.0, 0.0, 0.0, 1.0], "bins": [-2.2145155526231974e-05, -2.1210984414210543e-05, -2.0276813302189112e-05, -1.934264219016768e-05, -1.840847107814625e-05, -1.7474299966124818e-05, -1.654013067309279e-05, -1.560595956107136e-05, -1.4671788449049927e-05, -1.3737617337028496e-05, -1.2803446225007065e-05, -1.1869275112985633e-05, -1.0935104000964202e-05, -1.000093288894277e-05, -9.066762686416041e-06, -8.13259157439461e-06, -7.1984204623731785e-06, -6.264249350351747e-06, -5.330078693077667e-06, -4.395907581056235e-06, -3.4617366964084795e-06, -2.5275658117607236e-06, -1.59339481342613e-06, -6.592238719349552e-07, 2.749470695562195e-07, 1.2091179542039754e-06, 2.1432888388517313e-06, 3.0774599508731626e-06, 4.011631062894594e-06, 4.945801720168674e-06, 5.879972832190106e-06, 6.814143489464186e-06, 7.748314601485617e-06, 8.682485713507049e-06, 9.61665682552848e-06, 1.055082702805521e-05, 1.1484998140076641e-05, 1.2419169252098072e-05, 1.3353340364119504e-05, 1.4287511476140935e-05, 1.5221681678667665e-05, 1.6155852790689096e-05, 1.7090023902710527e-05, 1.802419501473196e-05, 1.895836612675339e-05, 1.989253723877482e-05, 2.0826708350796252e-05, 2.1760879462817684e-05, 2.2695050574839115e-05, 2.3629219867871143e-05, 2.4563390979892574e-05, 2.5497562091914006e-05, 2.6431733203935437e-05, 2.7365904315956868e-05, 2.83000754279783e-05, 2.923424653999973e-05, 3.0168417652021162e-05, 3.110258694505319e-05, 3.203675805707462e-05, 3.297092916909605e-05, 3.3905100281117484e-05, 3.4839271393138915e-05, 3.577344250516035e-05, 3.670761361718178e-05, 3.764178472920321e-05]}, "gradients/feed_forward.0.weight_ih_l0": {"_type": "histogram", "values": [1.0, 0.0, 0.0, 0.0, 0.0, 0.0, 0.0, 1.0, 0.0, 0.0, 0.0, 0.0, 0.0, 1.0, 0.0, 0.0, 1.0, 1.0, 1.0, 3.0, 0.0, 2.0, 2.0, 2.0, 4.0, 6.0, 3.0, 6.0, 6.0, 33.0, 103.0, 70.0, 14.0, 12.0, 8.0, 9.0, 4.0, 1.0, 2.0, 1.0, 2.0, 1.0, 1.0, 3.0, 1.0, 2.0, 1.0, 1.0, 1.0, 0.0, 0.0, 0.0, 0.0, 0.0, 1.0, 0.0, 0.0, 0.0, 0.0, 2.0, 0.0, 0.0, 0.0, 2.0], "bins": [-9.08757938304916e-05, -8.792556036496535e-05, -8.49753268994391e-05, -8.202508615795523e-05, -7.907485269242898e-05, -7.612461922690272e-05, -7.317438576137647e-05, -7.022415229585022e-05, -6.727391155436635e-05, -6.43236780888401e-05, -6.137344462331384e-05, -5.842321115778759e-05, -5.547297769226134e-05, -5.252274058875628e-05, -4.9572507123230025e-05, -4.6622270019724965e-05, -4.367203655419871e-05, -4.072180308867246e-05, -3.77715659851674e-05, -3.4821332519641146e-05, -3.1871095416136086e-05, -2.8920861950609833e-05, -2.597062848508358e-05, -2.3020393200567923e-05, -2.0070157916052267e-05, -1.711992263153661e-05, -1.4169688256515656e-05, -1.1219453881494701e-05, -8.269218596979044e-06, -5.318983767210739e-06, -2.368748937442433e-06, 5.814858923258726e-07, 3.531713446136564e-06, 6.48194827590487e-06, 9.432183105673175e-06, 1.238241748069413e-05, 1.5332652765209787e-05, 1.8282888049725443e-05, 2.1233121515251696e-05, 2.4183356799767353e-05, 2.713359208428301e-05, 3.0083827368798666e-05, 3.303406265331432e-05, 3.5984296118840575e-05, 3.893452958436683e-05, 4.188476668787189e-05, 4.483500015339814e-05, 4.77852372569032e-05, 5.0735470722429454e-05, 5.368570418795571e-05, 5.663594129146077e-05, 5.958617475698702e-05, 6.253641186049208e-05, 6.548664532601833e-05, 6.843687879154459e-05, 7.138711225707084e-05, 7.43373529985547e-05, 7.728758646408096e-05, 8.023781992960721e-05, 8.318805339513347e-05, 8.613828686065972e-05, 8.908852032618597e-05, 9.203876106766984e-05, 9.498899453319609e-05, 9.793922799872234e-05]}, "gradients/feed_forward.0.bias_ih_l0": {"_type": "histogram", "values": [1.0, 0.0, 0.0, 1.0, 0.0, 0.0, 0.0, 1.0, 0.0, 0.0, 0.0, 0.0, 0.0, 0.0, 0.0, 1.0, 0.0, 0.0, 0.0, 0.0, 0.0, 2.0, 0.0, 0.0, 0.0, 0.0, 0.0, 0.0, 0.0, 0.0, 0.0, 3.0, 4.0, 14.0, 4.0, 5.0, 0.0, 1.0, 1.0, 1.0, 0.0, 0.0, 1.0, 0.0, 0.0, 1.0, 0.0, 1.0, 1.0, 0.0, 0.0, 0.0, 0.0, 0.0, 0.0, 0.0, 0.0, 0.0, 0.0, 0.0, 0.0, 0.0, 1.0, 1.0], "bins": [-7.751240627840161e-05, -7.517471385654062e-05, -7.283702143467963e-05, -7.049932173686102e-05, -6.816162931500003e-05, -6.582393689313903e-05, -6.348623719532043e-05, -6.114854477345943e-05, -5.881085235159844e-05, -5.647315992973745e-05, -5.413546386989765e-05, -5.179776781005785e-05, -4.9460075388196856e-05, -4.712238296633586e-05, -4.478468690649606e-05, -4.244699084665626e-05, -4.010929842479527e-05, -3.777160600293428e-05, -3.543390994309448e-05, -3.309621388325468e-05, -3.0758521461393684e-05, -2.8420827220543288e-05, -2.608313297969289e-05, -2.3745438738842495e-05, -2.14077444979921e-05, -1.9070050257141702e-05, -1.6732356016291305e-05, -1.4394661775440909e-05, -1.2056967534590513e-05, -9.719273293740116e-06, -7.38157905288972e-06, -5.043884812039323e-06, -2.7061832952313125e-06, -3.6848905438091606e-07, 1.9692051864694804e-06, 4.306899427319877e-06, 6.644593668170273e-06, 8.98228790902067e-06, 1.1319982149871066e-05, 1.3657676390721463e-05, 1.599537063157186e-05, 1.8333064872422256e-05, 2.0670759113272652e-05, 2.300845335412305e-05, 2.5346147594973445e-05, 2.768384183582384e-05, 3.0021536076674238e-05, 3.235923213651404e-05, 3.469692455837503e-05, 3.7034616980236024e-05, 3.9372313040075824e-05, 4.1710009099915624e-05, 4.4047701521776617e-05, 4.638539394363761e-05, 4.872309000347741e-05, 5.106078606331721e-05, 5.33984784851782e-05, 5.5736170907039195e-05, 5.8073866966878995e-05, 6.0411563026718795e-05, 6.274925544857979e-05, 6.508694787044078e-05, 6.742464029230177e-05, 6.976233999012038e-05, 7.210003241198137e-05]}, "gradients/feed_forward.0.bias_ih_l1": {"_type": "histogram", "values": [1.0, 0.0, 0.0, 0.0, 0.0, 0.0, 0.0, 0.0, 0.0, 0.0, 0.0, 1.0, 0.0, 0.0, 0.0, 0.0, 0.0, 0.0, 0.0, 0.0, 0.0, 0.0, 0.0, 0.0, 0.0, 0.0, 0.0, 0.0, 0.0, 0.0, 0.0, 0.0, 0.0, 0.0, 0.0, 0.0, 0.0, 0.0, 1.0, 0.0, 0.0, 0.0, 0.0, 2.0, 0.0, 1.0, 0.0, 1.0, 0.0, 0.0, 7.0, 23.0, 2.0, 1.0, 1.0, 0.0, 1.0, 0.0, 1.0, 1.0, 0.0, 0.0, 0.0, 1.0], "bins": [-0.00013153717736713588, -0.0001289807551074773, -0.00012642434739973396, -0.00012386792514007539, -0.00012131151743233204, -0.00011875510244863108, -0.00011619868746493012, -0.00011364227248122916, -0.0001110858574975282, -0.00010852943523786962, -0.00010597302025416866, -0.0001034166052704677, -0.00010086019028676674, -9.830377530306578e-05, -9.574736031936482e-05, -9.319094533566386e-05, -9.06345303519629e-05, -8.807811536826193e-05, -8.552170038456097e-05, -8.296528540086001e-05, -8.040887041715905e-05, -7.785245543345809e-05, -7.529604044975713e-05, -7.273962546605617e-05, -7.018320320639759e-05, -6.762678822269663e-05, -6.507037323899567e-05, -6.251395825529471e-05, -5.995754327159375e-05, -5.740112828789279e-05, -5.484471330419183e-05, -5.228829832049087e-05, -4.9731883336789906e-05, -4.7175468353088945e-05, -4.4619053369387984e-05, -4.2062638385687023e-05, -3.950622340198606e-05, -3.6949804780306295e-05, -3.4393389796605334e-05, -3.183697481290437e-05, -2.9280559829203412e-05, -2.672414484550245e-05, -2.416772986180149e-05, -2.1611313059111126e-05, -1.9054898075410165e-05, -1.6498483091709204e-05, -1.3942067198513541e-05, -1.1385651305317879e-05, -8.829236321616918e-06, -6.272820883168606e-06, -3.7164054447202943e-06, -1.1599900062719826e-06, 1.3964254321763292e-06, 3.952840870624641e-06, 6.509256309072953e-06, 9.065672202268615e-06, 1.1622087185969576e-05, 1.4178502169670537e-05, 1.6734917153371498e-05, 1.9291333956061862e-05, 2.1847748939762823e-05, 2.4404163923463784e-05, 2.696058072615415e-05, 2.951699570985511e-05, 3.207341069355607e-05]}, "gradients/feed_forward.0.bias_hh_l2": {"_type": "histogram", "values": [1.0, 0.0, 0.0, 0.0, 0.0, 0.0, 0.0, 0.0, 0.0, 0.0, 0.0, 0.0, 1.0, 0.0, 0.0, 0.0, 0.0, 1.0, 1.0, 1.0, 1.0, 1.0, 3.0, 6.0, 17.0, 6.0, 3.0, 0.0, 0.0, 0.0, 1.0, 0.0, 0.0, 1.0, 0.0, 0.0, 0.0, 0.0, 0.0, 0.0, 0.0, 0.0, 0.0, 0.0, 0.0, 0.0, 0.0, 0.0, 0.0, 0.0, 0.0, 0.0, 0.0, 0.0, 0.0, 0.0, 0.0, 0.0, 0.0, 0.0, 0.0, 0.0, 0.0, 1.0], "bins": [-5.373396197683178e-05, -5.1572249503806233e-05, -4.9410540668759495e-05, -4.724882819573395e-05, -4.5087115722708404e-05, -4.2925406887661666e-05, -4.076369441463612e-05, -3.8601981941610575e-05, -3.6440273106563836e-05, -3.427856063353829e-05, -3.2116848160512745e-05, -2.9955137506476603e-05, -2.779342685244046e-05, -2.5631714379414916e-05, -2.3470003725378774e-05, -2.130829125235323e-05, -1.9146580598317087e-05, -1.6984869944280945e-05, -1.48231574712554e-05, -1.2661446817219257e-05, -1.0499735253688414e-05, -8.33802369015757e-06, -6.176312581374077e-06, -4.014601472590584e-06, -1.8528899090597406e-06, 3.0882142709742766e-07, 2.470532763254596e-06, 4.632243872038089e-06, 6.7939554355689324e-06, 8.955666999099776e-06, 1.1117377653135918e-05, 1.3279089216666762e-05, 1.5440804418176413e-05, 1.7602515072212555e-05, 1.97642275452381e-05, 2.1925938199274242e-05, 2.4087650672299787e-05, 2.624936132633593e-05, 2.841107198037207e-05, 3.057278445339762e-05, 3.273449692642316e-05, 3.48962057614699e-05, 3.7057918234495446e-05, 3.921963070752099e-05, 4.138133954256773e-05, 4.3543052015593275e-05, 4.570476448861882e-05, 4.786647332366556e-05, 5.0028185796691105e-05, 5.218989826971665e-05, 5.435160710476339e-05, 5.6513319577788934e-05, 5.867503205081448e-05, 6.083674088586122e-05, 6.299845699686557e-05, 6.516016583191231e-05, 6.732187466695905e-05, 6.94835907779634e-05, 7.164529961301014e-05, 7.380700844805688e-05, 7.596872455906123e-05, 7.813043339410797e-05, 8.02921422291547e-05, 8.245385834015906e-05, 8.46155671752058e-05]}, "gradients/feed_forward.0.bias_ih_l2": {"_type": "histogram", "values": [1.0, 0.0, 0.0, 0.0, 0.0, 0.0, 0.0, 0.0, 0.0, 0.0, 1.0, 0.0, 0.0, 0.0, 1.0, 0.0, 1.0, 0.0, 2.0, 0.0, 0.0, 0.0, 0.0, 4.0, 12.0, 16.0, 0.0, 1.0, 1.0, 1.0, 1.0, 2.0, 0.0, 0.0, 0.0, 0.0, 0.0, 0.0, 0.0, 0.0, 0.0, 0.0, 0.0, 0.0, 0.0, 0.0, 0.0, 0.0, 0.0, 0.0, 0.0, 0.0, 0.0, 0.0, 0.0, 0.0, 0.0, 0.0, 0.0, 0.0, 0.0, 0.0, 0.0, 1.0], "bins": [-0.00010857299639610574, -0.00010425731306895614, -9.994162246584892e-05, -9.562593186274171e-05, -9.131024853559211e-05, -8.699456520844251e-05, -8.26788746053353e-05, -7.836318400222808e-05, -7.404750067507848e-05, -6.973181734792888e-05, -6.541612674482167e-05, -6.110043614171445e-05, -5.6784752814564854e-05, -5.246906584943645e-05, -4.815337888430804e-05, -4.383769191917963e-05, -3.9522004954051226e-05, -3.520631798892282e-05, -3.089063102379441e-05, -2.6574944058666006e-05, -2.22592570935376e-05, -1.7943570128409192e-05, -1.3627883163280785e-05, -9.312196198152378e-06, -4.996509233023971e-06, -6.808222678955644e-07, 3.6348646972328424e-06, 7.95055166236125e-06, 1.2266238627489656e-05, 1.6581925592618063e-05, 2.089761255774647e-05, 2.5213299522874877e-05, 2.952897921204567e-05, 3.3844666177174076e-05, 3.816035314230248e-05, 4.247604010743089e-05, 4.67917270725593e-05, 5.1107414037687704e-05, 5.542310100281611e-05, 5.973878796794452e-05, 6.405447493307292e-05, 6.837016553618014e-05, 7.268584886332974e-05, 7.700153219047934e-05, 8.131722279358655e-05, 8.563291339669377e-05, 8.994859672384337e-05, 9.426428005099297e-05, 9.857997065410018e-05, 0.0001028956612572074, 0.000107211344584357, 0.0001115270279115066, 0.00011584271851461381, 0.00012015840911772102, 0.000124474085168913, 0.00012878977577202022, 0.00013310546637512743, 0.00013742115697823465, 0.00014173684758134186, 0.00014605252363253385, 0.00015036821423564106, 0.00015468390483874828, 0.00015899958088994026, 0.00016331527149304748, 0.0001676309620961547]}, "gradients/feed_forward.0.weight_hh_l2": {"_type": "histogram", "values": [1.0, 1.0, 0.0, 0.0, 0.0, 0.0, 0.0, 0.0, 1.0, 0.0, 0.0, 0.0, 0.0, 0.0, 1.0, 0.0, 0.0, 1.0, 0.0, 0.0, 0.0, 1.0, 1.0, 0.0, 0.0, 2.0, 2.0, 3.0, 5.0, 3.0, 8.0, 11.0, 15.0, 23.0, 66.0, 357.0, 72.0, 24.0, 21.0, 18.0, 12.0, 6.0, 5.0, 4.0, 3.0, 2.0, 2.0, 0.0, 1.0, 2.0, 0.0, 0.0, 0.0, 0.0, 0.0, 0.0, 0.0, 0.0, 0.0, 0.0, 0.0, 0.0, 0.0, 1.0], "bins": [-3.519431265885942e-05, -3.42037710652221e-05, -3.321323310956359e-05, -3.222269151592627e-05, -3.1232149922288954e-05, -3.024161014764104e-05, -2.9251070372993127e-05, -2.826052877935581e-05, -2.7269989004707895e-05, -2.627944923005998e-05, -2.5288907636422664e-05, -2.429836786177475e-05, -2.3307828087126836e-05, -2.231728649348952e-05, -2.1326746718841605e-05, -2.0336205125204287e-05, -1.9345665350556374e-05, -1.835512557590846e-05, -1.7364583982271142e-05, -1.637404420762323e-05, -1.538350261398591e-05, -1.4392962839337997e-05, -1.3402423064690083e-05, -1.2411882380547468e-05, -1.1421341696404852e-05, -1.0430801012262236e-05, -9.44026032811962e-06, -8.449720553471707e-06, -7.459179869329091e-06, -6.4686391851864755e-06, -5.478098955791211e-06, -4.487558726395946e-06, -3.497016223263927e-06, -2.5064757664949866e-06, -1.5159353097260464e-06, -5.253948529571062e-07, 4.65145603811834e-07, 1.4556860605807742e-06, 2.4462265173497144e-06, 3.4367669741186546e-06, 4.427307430887595e-06, 5.4178481150302105e-06, 6.408388344425475e-06, 7.39892857382074e-06, 8.389469257963356e-06, 9.380009942105971e-06, 1.0370549716753885e-05, 1.13610904008965e-05, 1.2351631085039116e-05, 1.3342171769181732e-05, 1.4332712453324348e-05, 1.532325222797226e-05, 1.6313792002620175e-05, 1.7304333596257493e-05, 1.8294873370905407e-05, 1.9285414964542724e-05, 2.0275954739190638e-05, 2.1266494513838552e-05, 2.225703610747587e-05, 2.3247575882123783e-05, 2.42381174757611e-05, 2.5228657250409015e-05, 2.621919702505693e-05, 2.7209738618694246e-05, 2.820027839334216e-05]}, "gradients/feed_forward.0.weight_ih_l2": {"_type": "histogram", "values": [1.0, 1.0, 0.0, 0.0, 0.0, 1.0, 0.0, 1.0, 0.0, 0.0, 0.0, 3.0, 1.0, 1.0, 3.0, 2.0, 1.0, 0.0, 1.0, 4.0, 3.0, 5.0, 5.0, 2.0, 5.0, 8.0, 14.0, 16.0, 37.0, 291.0, 169.0, 32.0, 11.0, 13.0, 11.0, 6.0, 1.0, 4.0, 2.0, 1.0, 4.0, 1.0, 2.0, 2.0, 0.0, 0.0, 2.0, 0.0, 0.0, 0.0, 0.0, 0.0, 0.0, 1.0, 0.0, 4.0, 1.0, 1.0, 0.0, 0.0, 0.0, 0.0, 0.0, 1.0], "bins": [-0.00014794598973821849, -0.00014300573093350977, -0.00013806548668071628, -0.00013312522787600756, -0.00012818496907129884, -0.00012324471026659012, -0.00011830445873783901, -0.00011336420720908791, -0.00010842394840437919, -0.00010348368959967047, -9.854343807091936e-05, -9.360318654216826e-05, -8.866292773745954e-05, -8.372266893275082e-05, -7.878241740399972e-05, -7.384216587524861e-05, -6.890190707053989e-05, -6.396164826583117e-05, -5.902139673708007e-05, -5.4081141570350155e-05, -4.914088640362024e-05, -4.420063123689033e-05, -3.926037607016042e-05, -3.4320120903430507e-05, -2.9379865736700594e-05, -2.4439610569970682e-05, -1.949935540324077e-05, -1.4559100236510858e-05, -9.618845069780946e-06, -4.678589903051034e-06, 2.6166526367887855e-07, 5.201920430408791e-06, 1.0142161045223475e-05, 1.5082416211953387e-05, 2.00226713786833e-05, 2.496292654541321e-05, 2.9903181712143123e-05, 3.4843436878873035e-05, 3.978369204560295e-05, 4.472394721233286e-05, 4.966420237906277e-05, 5.4604457545792684e-05, 5.9544712712522596e-05, 6.44849642412737e-05, 6.942522304598242e-05, 7.436548185069114e-05, 7.930573337944224e-05, 8.424598490819335e-05, 8.918624371290207e-05, 9.412650251761079e-05, 9.90667540463619e-05, 0.000104007005575113, 0.00010894726437982172, 0.00011388752318453044, 0.00011882777471328154, 0.00012376802624203265, 0.00012870828504674137, 0.00013364854385145009, 0.0001385888026561588, 0.0001435290469089523, 0.00014846930571366102, 0.00015340956451836973, 0.00015834980877116323, 0.00016329006757587194, 0.00016823032638058066]}, "gradients/feed_forward.0.weight_hh_l1": {"_type": "histogram", "values": [1.0, 1.0, 1.0, 1.0, 3.0, 3.0, 2.0, 3.0, 2.0, 1.0, 0.0, 0.0, 0.0, 1.0, 0.0, 1.0, 0.0, 2.0, 2.0, 1.0, 3.0, 2.0, 5.0, 3.0, 5.0, 4.0, 10.0, 8.0, 11.0, 15.0, 28.0, 46.0, 120.0, 181.0, 79.0, 23.0, 16.0, 11.0, 13.0, 10.0, 9.0, 10.0, 3.0, 6.0, 5.0, 2.0, 1.0, 2.0, 1.0, 1.0, 2.0, 2.0, 1.0, 1.0, 2.0, 1.0, 1.0, 2.0, 1.0, 1.0, 0.0, 0.0, 1.0, 2.0], "bins": [-1.9993429305031896e-05, -1.939176036103163e-05, -1.8790091417031363e-05, -1.8188422473031096e-05, -1.758675352903083e-05, -1.6985084585030563e-05, -1.6383415641030297e-05, -1.578174669703003e-05, -1.5180077753029764e-05, -1.4578408809029497e-05, -1.397673986502923e-05, -1.3375070921028964e-05, -1.2773401977028698e-05, -1.2171733033028431e-05, -1.1570064089028165e-05, -1.0968395145027898e-05, -1.0366726201027632e-05, -9.765057257027365e-06, -9.163388313027099e-06, -8.561719369026832e-06, -7.960050425026566e-06, -7.358381481026299e-06, -6.756712537026033e-06, -6.155043593025766e-06, -5.5533746490255e-06, -4.951705705025233e-06, -4.350036761024967e-06, -3.7483678170247003e-06, -3.146698873024434e-06, -2.5450299290241674e-06, -1.943360985023901e-06, -1.3416920410236344e-06, -7.400212780339643e-07, -1.3835233403369784e-07, 4.6331660996656865e-07, 1.0649855539668351e-06, 1.6666544979671016e-06, 2.268323441967368e-06, 2.8699923859676346e-06, 3.471661329967901e-06, 4.073330273968168e-06, 4.674999217968434e-06, 5.276668161968701e-06, 5.878337105968967e-06, 6.4800060499692336e-06, 7.0816749939695e-06, 7.683343937969767e-06, 8.285012881970033e-06, 8.8866818259703e-06, 9.488350769970566e-06, 1.0090019713970833e-05, 1.0691688657971099e-05, 1.1293357601971366e-05, 1.1895026545971632e-05, 1.2496695489971898e-05, 1.3098364433972165e-05, 1.3700033377972431e-05, 1.4301702321972698e-05, 1.4903371265972964e-05, 1.550504020997323e-05, 1.6106709153973497e-05, 1.6708378097973764e-05, 1.731004704197403e-05, 1.7911715985974297e-05, 1.8513384929974563e-05]}, "gradients/feed_forward.0.bias_hh_l1": {"_type": "histogram", "values": [1.0, 0.0, 0.0, 0.0, 0.0, 0.0, 0.0, 0.0, 0.0, 0.0, 0.0, 1.0, 0.0, 0.0, 0.0, 0.0, 0.0, 0.0, 0.0, 0.0, 0.0, 0.0, 0.0, 0.0, 0.0, 0.0, 1.0, 0.0, 0.0, 0.0, 0.0, 0.0, 0.0, 1.0, 2.0, 3.0, 2.0, 4.0, 8.0, 8.0, 4.0, 1.0, 0.0, 2.0, 0.0, 1.0, 0.0, 1.0, 0.0, 2.0, 0.0, 1.0, 0.0, 0.0, 0.0, 0.0, 0.0, 0.0, 0.0, 0.0, 0.0, 1.0, 0.0, 1.0], "bins": [-2.2400496163754724e-05, -2.182971547881607e-05, -2.1258934793877415e-05, -2.068815410893876e-05, -2.0117373424000107e-05, -1.9546592739061452e-05, -1.8975812054122798e-05, -1.8405031369184144e-05, -1.7834248865256086e-05, -1.726346818031743e-05, -1.6692687495378777e-05, -1.6121906810440123e-05, -1.555112612550147e-05, -1.4980345440562814e-05, -1.440956475562416e-05, -1.3838784070685506e-05, -1.3268003385746852e-05, -1.2697222700808197e-05, -1.2126442015869543e-05, -1.1555661330930889e-05, -1.0984880645992234e-05, -1.0414099051558878e-05, -9.843318366620224e-06, -9.27253768168157e-06, -8.701756996742915e-06, -8.130976311804261e-06, -7.560195626865607e-06, -6.9894144871796016e-06, -6.418633802240947e-06, -5.847853117302293e-06, -5.277071977616288e-06, -4.7062912926776335e-06, -4.135508788749576e-06, -3.5647281038109213e-06, -2.9939471914985916e-06, -2.423166279186262e-06, -1.8523855942476075e-06, -1.2816047956221155e-06, -7.108239969966235e-07, -1.4004319837113144e-07, 4.307376002543606e-07, 1.0015183988798526e-06, 1.5722991975053446e-06, 2.1430801098176744e-06, 2.7138607947563287e-06, 3.284641479694983e-06, 3.855422619380988e-06, 4.4262033043196425e-06, 4.996983989258297e-06, 5.567764674196951e-06, 6.138545359135605e-06, 6.709326498821611e-06, 7.280107183760265e-06, 7.85088832344627e-06, 8.421669008384924e-06, 8.992449693323579e-06, 9.563230378262233e-06, 1.0134011063200887e-05, 1.0704791748139542e-05, 1.1275572433078196e-05, 1.1846354027511552e-05, 1.2417134712450206e-05, 1.298791539738886e-05, 1.3558696082327515e-05, 1.412947676726617e-05]}, "gradients/feed_forward.0.weight_ih_l1": {"_type": "histogram", "values": [1.0, 1.0, 1.0, 0.0, 1.0, 0.0, 0.0, 0.0, 0.0, 1.0, 0.0, 0.0, 1.0, 2.0, 0.0, 0.0, 0.0, 0.0, 0.0, 1.0, 1.0, 0.0, 2.0, 0.0, 0.0, 4.0, 2.0, 0.0, 3.0, 6.0, 9.0, 7.0, 23.0, 17.0, 61.0, 431.0, 32.0, 23.0, 15.0, 7.0, 7.0, 3.0, 1.0, 1.0, 3.0, 1.0, 0.0, 0.0, 0.0, 0.0, 0.0, 0.0, 1.0, 0.0, 0.0, 0.0, 0.0, 0.0, 3.0, 1.0, 0.0, 1.0, 0.0, 1.0], "bins": [-0.00012902781600132585, -0.00012537722068373114, -0.00012172662536613643, -0.00011807603004854172, -0.00011442544200690463, -0.00011077484668930992, -0.00010712425137171522, -0.00010347365605412051, -9.98230607365258e-05, -9.61724654189311e-05, -9.2521877377294e-05, -8.88712820596993e-05, -8.522068674210459e-05, -8.157009142450988e-05, -7.791949610691518e-05, -7.426890078932047e-05, -7.061830547172576e-05, -6.696771743008867e-05, -6.331712211249396e-05, -5.9666526794899255e-05, -5.601593147730455e-05, -5.236533979768865e-05, -4.871474448009394e-05, -4.5064149162499234e-05, -4.1413557482883334e-05, -3.776296216528863e-05, -3.411236684769392e-05, -3.0461773349088617e-05, -2.6811179850483313e-05, -2.3160584532888606e-05, -1.9509991034283303e-05, -1.5859395716688596e-05, -1.2208802218083292e-05, -8.558207809983287e-06, -4.907613856630633e-06, -1.2570196759043029e-06, 2.393574504822027e-06, 6.044168912922032e-06, 9.694762411527336e-06, 1.3345356819627341e-05, 1.6995951227727346e-05, 2.064654472633265e-05, 2.4297140043927357e-05, 2.794773354253266e-05, 3.1598327041137964e-05, 3.524892235873267e-05, 3.889951767632738e-05, 4.255010935594328e-05, 4.6200704673537984e-05, 4.985129999113269e-05, 5.350189167074859e-05, 5.71524869883433e-05, 6.0803082305938005e-05, 6.445367762353271e-05, 6.810427294112742e-05, 7.175486098276451e-05, 7.540545630035922e-05, 7.905605161795393e-05, 8.270664693554863e-05, 8.635724225314334e-05, 9.000783757073805e-05, 9.365842561237514e-05, 9.730902092996985e-05, 0.00010095961624756455, 0.00010461021156515926]}, "gradients/feed_forward.0.weight_hh_l0": {"_type": "histogram", "values": [1.0, 0.0, 0.0, 0.0, 0.0, 0.0, 0.0, 0.0, 2.0, 0.0, 1.0, 1.0, 0.0, 1.0, 0.0, 1.0, 1.0, 0.0, 1.0, 2.0, 2.0, 7.0, 4.0, 7.0, 2.0, 4.0, 4.0, 6.0, 10.0, 19.0, 27.0, 36.0, 34.0, 80.0, 147.0, 90.0, 56.0, 33.0, 22.0, 19.0, 4.0, 5.0, 5.0, 8.0, 5.0, 8.0, 3.0, 4.0, 6.0, 2.0, 1.0, 1.0, 0.0, 0.0, 0.0, 2.0, 0.0, 0.0, 0.0, 0.0, 0.0, 0.0, 0.0, 1.0], "bins": [-3.5417902836343274e-05, -3.438903149799444e-05, -3.336016379762441e-05, -3.2331292459275573e-05, -3.130242112092674e-05, -3.0273551601567306e-05, -2.9244682082207873e-05, -2.8215810743859038e-05, -2.7186941224499606e-05, -2.6158071705140173e-05, -2.5129200366791338e-05, -2.4100330847431906e-05, -2.3071461328072473e-05, -2.2042589989723638e-05, -2.1013720470364206e-05, -1.998484913201537e-05, -1.8955979612655938e-05, -1.7927110093296506e-05, -1.689823875494767e-05, -1.5869369235588238e-05, -1.4840498806734104e-05, -1.381162837787997e-05, -1.2782758858520538e-05, -1.1753888429666404e-05, -1.072501800081227e-05, -9.696147571958136e-06, -8.667277143104002e-06, -7.63840762374457e-06, -6.609537194890436e-06, -5.580666766036302e-06, -4.551796791929519e-06, -3.5229265904490603e-06, -2.4940527509897947e-06, -1.4651825495093362e-06, -4.3631234802887775e-07, 5.925578534515807e-07, 1.6214280549320392e-06, 2.6502982564124977e-06, 3.6791684578929562e-06, 4.708038431999739e-06, 5.736908860853873e-06, 6.765779289708007e-06, 7.794649718562141e-06, 8.823519237921573e-06, 9.852389666775707e-06, 1.0881260095629841e-05, 1.1910129614989273e-05, 1.2939000043843407e-05, 1.3967870472697541e-05, 1.4996740901551675e-05, 1.602561133040581e-05, 1.705448084976524e-05, 1.8083352188114077e-05, 1.911222170747351e-05, 2.014109122683294e-05, 2.1169962565181777e-05, 2.219883208454121e-05, 2.322770160390064e-05, 2.4256572942249477e-05, 2.528544246160891e-05, 2.631431198096834e-05, 2.7343183319317177e-05, 2.837205283867661e-05, 2.9400924177025445e-05, 3.0429793696384877e-05]}, "gradients/feed_forward.0.bias_hh_l0": {"_type": "histogram", "values": [1.0, 0.0, 0.0, 0.0, 0.0, 0.0, 0.0, 0.0, 0.0, 0.0, 0.0, 0.0, 0.0, 0.0, 0.0, 0.0, 0.0, 0.0, 0.0, 0.0, 0.0, 0.0, 0.0, 0.0, 1.0, 1.0, 0.0, 0.0, 1.0, 0.0, 1.0, 1.0, 0.0, 0.0, 2.0, 3.0, 2.0, 7.0, 8.0, 3.0, 5.0, 1.0, 0.0, 1.0, 1.0, 0.0, 2.0, 1.0, 1.0, 0.0, 0.0, 0.0, 0.0, 1.0, 0.0, 0.0, 0.0, 0.0, 0.0, 0.0, 0.0, 0.0, 0.0, 1.0], "bins": [-5.0036502216244116e-05, -4.8686095396988094e-05, -4.733568857773207e-05, -4.598528175847605e-05, -4.463487130124122e-05, -4.3284464481985196e-05, -4.1934057662729174e-05, -4.058365084347315e-05, -3.923324402421713e-05, -3.7882837204961106e-05, -3.6532430385705084e-05, -3.518202356644906e-05, -3.383161674719304e-05, -3.248120628995821e-05, -3.1130799470702186e-05, -2.9780392651446164e-05, -2.842998583219014e-05, -2.707957901293412e-05, -2.5729172193678096e-05, -2.437876355543267e-05, -2.3028356736176647e-05, -2.1677949916920625e-05, -2.03275412786752e-05, -1.8977134459419176e-05, -1.7626727640163153e-05, -1.627632082090713e-05, -1.4925913092156406e-05, -1.3575505363405682e-05, -1.222509854414966e-05, -1.0874691724893637e-05, -9.524283996142913e-06, -8.173876267392188e-06, -6.823465810157359e-06, -5.473058536153985e-06, -4.122651262150612e-06, -2.7722439881472383e-06, -1.4218367141438648e-06, -7.142944014049135e-08, 1.2789778338628821e-06, 2.6293851078662556e-06, 3.979792381869629e-06, 5.3301996558730025e-06, 6.680606929876376e-06, 8.0310146586271e-06, 9.381421477883123e-06, 1.0731828297139145e-05, 1.208223602588987e-05, 1.3432643754640594e-05, 1.4783050573896617e-05, 1.613345739315264e-05, 1.7483864212408662e-05, 1.8834272850654088e-05, 2.018467966991011e-05, 2.1535086489166133e-05, 2.288549512741156e-05, 2.4235901946667582e-05, 2.5586308765923604e-05, 2.6936715585179627e-05, 2.828712240443565e-05, 2.9637531042681076e-05, 3.09879396809265e-05, 3.2338346500182524e-05, 3.368875331943855e-05, 3.503916013869457e-05, 3.638956695795059e-05]}, "_wandb": {"runtime": 150}}